{"learner":{"attributes":{"best_iteration":"46","best_score":"3.3012383406755155"},"feature_names":["air_yards_per_att","yards_per_att","td_rate","int_rate","fantasy_per_att","delta_attempts","delta_air_yards","delta_cpoe","attempts_3wk_avg","attempts_7wk_avg","attempts_trend_3v7","air_yards_3wk_avg","air_yards_7wk_avg","air_yards_trend_3v7","rush_td_rate","rush_yards_per_game","rush_yards_3wk_avg","rush_yards_7wk_avg","rush_trend_3v7","team_implied_points","def_pass_ypa_allowed","def_total_tds_allowed","def_pass_int_rate_forced","def_sack_rate","def_fantpt_allowed","def_rush_ypa_allowed","fantasy_3wk_avg","fantasy_trend_3v7","fantasy_prev_5wk_avg","is_rookie","is_second_year","years_exp","draft_number","is_undrafted"],"feature_types":["float","float","float","float","float","float","float","float","float","float","float","float","float","float","float","float","float","float","float","float","float","float","float","float","float","float","float","float","float","int","int","float","float","int"],"gradient_booster":{"model":{"cats":{"enc":[],"feature_segments":[],"sorted_idx":[]},"gbtree_model_param":{"num_parallel_tree":"1","num_trees":"147"},"iteration_indptr":[0,1,2,3,4,5,6,7,8,9,10,11,12,13,14,15,16,17,18,19,20,21,22,23,24,25,26,27,28,29,30,31,32,33,34,35,36,37,38,39,40,41,42,43,44,45,46,47,48,49,50,51,52,53,54,55,56,57,58,59,60,61,62,63,64,65,66,67,68,69,70,71,72,73,74,75,76,77,78,79,80,81,82,83,84,85,86,87,88,89,90,91,92,93,94,95,96,97,98,99,100,101,102,103,104,105,106,107,108,109,110,111,112,113,114,115,116,117,118,119,120,121,122,123,124,125,126,127,128,129,130,131,132,133,134,135,136,137,138,139,140,141,142,143,144,145,146,147],"tree_info":[0,0,0,0,0,0,0,0,0,0,0,0,0,0,0,0,0,0,0,0,0,0,0,0,0,0,0,0,0,0,0,0,0,0,0,0,0,0,0,0,0,0,0,0,0,0,0,0,0,0,0,0,0,0,0,0,0,0,0,0,0,0,0,0,0,0,0,0,0,0,0,0,0,0,0,0,0,0,0,0,0,0,0,0,0,0,0,0,0,0,0,0,0,0,0,0,0,0,0,0,0,0,0,0,0,0,0,0,0,0,0,0,0,0,0,0,0,0,0,0,0,0,0,0,0,0,0,0,0,0,0,0,0,0,0,0,0,0,0,0,0,0,0,0,0,0,0],"trees":[{"base_weights":[-3.128836E-2,-6.40705E0,7.960665E0,-7.1098447E0,-2.7936869E0,4.6304493E0,9.996984E0,-7.2770724E0,-4.8762536E0,-5.2225957E0,-8.0662394E-1,-2.46805E0,5.1953E0,9.063328E0,1.2951385E1,-7.366186E0,-5.783815E0,-2.8203764E0,-6.408095E0,-6.146815E0,-3.265984E0,1.6675586E0,-2.484607E0,-4.044332E0,2.528444E0,1.8922122E0,6.058142E0,7.8767495E0,9.950129E0,1.0028661E1,1.3592039E1,-6.597178E0,-7.460527E0,-6.3072906E0,-4.3624306E0,-4.117954E0,-5.5986434E-2,-7.4178046E-1,-4.995466E0,-3.4924967E0,-6.651888E0,-4.2295737E0,1.8981749E-1,2.590556E0,-1.8909682E0,-3.1171944E0,1.9417462E0,-4.991684E0,-2.3671357E-2,5.3523785E-1,-5.2534886E-2,4.537008E0,-2.132894E-1,3.5896206E0,6.61589E0,8.913241E0,6.9726305E0,7.686294E0,1.0469861E1,1.1171586E1,7.7142525E0,1.3987913E1,9.482475E0,-6.746001E-1,-4.2207623E-1,-6.024071E-1,-7.505714E-1,-6.476538E-1,-4.010652E-1,-5.0958824E-1,-2.1648088E-1,-2.7652475E-1,-6.225782E-1,3.441492E-1,-2.3265481E-1,-2.5995848E-1,-5.973169E-1,-5.5926853E-1,-2.1260798E-1,-6.889188E-1,-3.2301852E-1,-5.910483E-1,-1.076894E-1,1.0074502E-1,4.6911564E-1,7.463413E-2,-5.6893516E-1,-3.6708155E-1,1.4399521E-1,-3.8012582E-1,5.7687026E-1,-1.3651852E-1,-5.9313506E-1,2.257986E-1,7.3995245E-1,3.8887015E-1,-1.1859081E-1,4.759133E-1,1.270753E-1,7.3015547E-1,3.9708123E-1,8.398058E-1,1.2813661E0,9.629578E-1,6.033868E-1,1.065905E0,6.6974014E-1,8.1370765E-1,1.0950698E0,9.084306E-1,1.3402175E0,9.843952E-1,3.5218984E-1,1.1550167E0,1.4776568E0,1.2308632E0,3.0399537E-1],"categories":[],"categories_nodes":[],"categories_segments":[],"categories_sizes":[],"default_left":[0,0,0,0,0,0,0,0,0,0,0,0,0,0,0,0,0,0,0,0,0,0,0,0,0,0,0,0,0,0,0,0,0,0,0,0,0,0,0,0,0,0,0,0,0,0,0,0,0,0,0,0,0,0,0,0,0,0,0,0,0,0,0,0,0,0,0,0,0,0,0,0,0,0,0,0,0,0,0,0,0,0,0,0,0,0,0,0,0,0,0,0,0,0,0,0,0,0,0,0,0,0,0,0,0,0,0,0,0,0,0,0,0,0,0,0,0],"id":0,"left_children":[1,3,5,7,9,11,13,15,17,19,21,23,25,27,29,31,33,35,37,39,41,43,45,47,49,51,53,55,57,59,61,63,65,67,69,71,73,-1,75,77,79,81,-1,83,85,87,89,91,-1,-1,-1,93,95,97,99,101,103,105,107,109,111,113,115,-1,-1,-1,-1,-1,-1,-1,-1,-1,-1,-1,-1,-1,-1,-1,-1,-1,-1,-1,-1,-1,-1,-1,-1,-1,-1,-1,-1,-1,-1,-1,-1,-1,-1,-1,-1,-1,-1,-1,-1,-1,-1,-1,-1,-1,-1,-1,-1,-1,-1,-1,-1,-1,-1],"loss_changes":[3.4562644E5,9.5615E3,2.0365688E4,1.1440781E3,2.9688462E3,4.599795E3,5.0325312E3,3.4807812E2,6.842158E2,4.8083447E2,1.4156996E3,6.79676E2,3.009584E3,1.4179375E3,6.988047E2,1.5151562E2,9.89751E1,3.4770947E2,1.4409082E2,2.2746533E2,4.6085638E2,4.581612E2,5.744641E2,2.3328357E2,1.8390979E2,1.231633E3,1.1327734E3,5.123047E2,8.725625E2,1.3601562E2,4.5791406E2,8.15166E1,1.1428125E2,2.144629E1,6.7949036E1,1.7096814E2,2.6212646E2,0E0,1.15650024E2,7.994098E1,1.0441406E2,4.0168628E2,0E0,3.6107574E2,2.947541E2,4.5436755E2,5.9336224E2,1.6910278E2,0E0,0E0,0E0,6.226183E2,4.9933112E2,4.1972754E2,1.2115312E3,4.5904688E2,7.6998535E2,3.842705E2,6.4671875E2,1.2966748E2,2.4211255E2,4.6184375E2,5.9984766E2,0E0,0E0,0E0,0E0,0E0,0E0,0E0,0E0,0E0,0E0,0E0,0E0,0E0,0E0,0E0,0E0,0E0,0E0,0E0,0E0,0E0,0E0,0E0,0E0,0E0,0E0,0E0,0E0,0E0,0E0,0E0,0E0,0E0,0E0,0E0,0E0,0E0,0E0,0E0,0E0,0E0,0E0,0E0,0E0,0E0,0E0,0E0,0E0,0E0,0E0,0E0,0E0,0E0,0E0],"parents":[2147483647,0,0,1,1,2,2,3,3,4,4,5,5,6,6,7,7,8,8,9,9,10,10,11,11,12,12,13,13,14,14,15,15,16,16,17,17,18,18,19,19,20,20,21,21,22,22,23,23,24,24,25,25,26,26,27,27,28,28,29,29,30,30,31,31,32,32,33,33,34,34,35,35,36,36,38,38,39,39,40,40,41,41,43,43,44,44,45,45,46,46,47,47,51,51,52,52,53,53,54,54,55,55,56,56,57,57,58,58,59,59,60,60,61,61,62,62],"right_children":[2,4,6,8,10,12,14,16,18,20,22,24,26,28,30,32,34,36,38,40,42,44,46,48,50,52,54,56,58,60,62,64,66,68,70,72,74,-1,76,78,80,82,-1,84,86,88,90,92,-1,-1,-1,94,96,98,100,102,104,106,108,110,112,114,116,-1,-1,-1,-1,-1,-1,-1,-1,-1,-1,-1,-1,-1,-1,-1,-1,-1,-1,-1,-1,-1,-1,-1,-1,-1,-1,-1,-1,-1,-1,-1,-1,-1,-1,-1,-1,-1,-1,-1,-1,-1,-1,-1,-1,-1,-1,-1,-1,-1,-1,-1,-1,-1,-1],"split_conditions":[7.84E0,1.36E0,1.574E1,2.2857144E0,3E0,8E-2,2.366E1,1.1666667E1,8.1E1,6.285714E0,8.1E1,4.795699E0,1.6442857E2,1.7916E1,4.2285714E-1,2E1,5E0,7.985714E1,2.15E2,6.7200675E0,1.935E2,4.947619E1,3.3E1,-1E1,2.4375E0,6.8E1,1.0786667E1,1.5E1,4.285714E0,2.3255814E-2,1.37E2,1.8E1,9.75E0,2.09E1,2.5428572E-1,7.1792E0,8E0,-7.4178046E-1,2.53E2,-2.4E1,2.05E1,2.15E2,1.8981749E-1,1.45E2,7.1651707E0,1.47E2,3.8E1,-4.8714287E1,-2.3671357E-2,5.3523785E-1,-5.2534886E-2,5.285714E0,1.27666664E2,4.2E1,4.1333333E-1,1E0,2.4E-1,2.857143E-1,2.3255814E-2,2.002E1,3.125E-2,6E0,1.1142858E1,-6.746001E-1,-4.2207623E-1,-6.024071E-1,-7.505714E-1,-6.476538E-1,-4.010652E-1,-5.0958824E-1,-2.1648088E-1,-2.7652475E-1,-6.225782E-1,3.441492E-1,-2.3265481E-1,-2.5995848E-1,-5.973169E-1,-5.5926853E-1,-2.1260798E-1,-6.889188E-1,-3.2301852E-1,-5.910483E-1,-1.076894E-1,1.0074502E-1,4.6911564E-1,7.463413E-2,-5.6893516E-1,-3.6708155E-1,1.4399521E-1,-3.8012582E-1,5.7687026E-1,-1.3651852E-1,-5.9313506E-1,2.257986E-1,7.3995245E-1,3.8887015E-1,-1.1859081E-1,4.759133E-1,1.270753E-1,7.3015547E-1,3.9708123E-1,8.398058E-1,1.2813661E0,9.629578E-1,6.033868E-1,1.065905E0,6.6974014E-1,8.1370765E-1,1.0950698E0,9.084306E-1,1.3402175E0,9.843952E-1,3.5218984E-1,1.1550167E0,1.4776568E0,1.2308632E0,3.0399537E-1],"split_indices":[26,26,26,17,0,4,28,11,32,17,32,25,12,28,4,32,5,12,32,20,12,13,19,5,23,32,26,32,17,2,32,32,19,24,4,20,32,0,32,5,8,32,0,6,20,12,6,13,0,0,0,17,11,32,27,30,27,17,2,26,3,32,17,0,0,0,0,0,0,0,0,0,0,0,0,0,0,0,0,0,0,0,0,0,0,0,0,0,0,0,0,0,0,0,0,0,0,0,0,0,0,0,0,0,0,0,0,0,0,0,0,0,0,0,0,0,0],"split_type":[0,0,0,0,0,0,0,0,0,0,0,0,0,0,0,0,0,0,0,0,0,0,0,0,0,0,0,0,0,0,0,0,0,0,0,0,0,0,0,0,0,0,0,0,0,0,0,0,0,0,0,0,0,0,0,0,0,0,0,0,0,0,0,0,0,0,0,0,0,0,0,0,0,0,0,0,0,0,0,0,0,0,0,0,0,0,0,0,0,0,0,0,0,0,0,0,0,0,0,0,0,0,0,0,0,0,0,0,0,0,0,0,0,0,0,0,0],"sum_hessian":[6.781E3,3.772E3,3.009E3,3.157E3,6.15E2,1.143E3,1.866E3,2.935E3,2.22E2,2.76E2,3.39E2,8.4E1,1.059E3,1.421E3,4.45E2,2.766E3,1.69E2,9.6E1,1.26E2,1.86E2,9E1,1.37E2,2.02E2,6.4E1,2E1,2.2E2,8.39E2,6.12E2,8.09E2,8.3E1,3.62E2,3.1E2,2.456E3,1.21E2,4.8E1,6.5E1,3.1E1,7.1E1,5.5E1,3.1E1,1.55E2,7.6E1,1.4E1,1.09E2,2.8E1,1.77E2,2.5E1,5.1E1,1.3E1,1E1,1E1,9.7E1,1.23E2,1.56E2,6.83E2,2.81E2,3.31E2,1.54E2,6.55E2,5.3E1,3E1,3.28E2,3.4E1,2.9E2,2E1,7.9E1,2.377E3,1.11E2,1E1,3.5E1,1.3E1,4.1E1,2.4E1,1.2E1,1.9E1,1.7E1,3.8E1,1.1E1,2E1,1.44E2,1.1E1,4.9E1,2.7E1,6.3E1,4.6E1,1.7E1,1.1E1,1.58E2,1.9E1,1E1,1.5E1,1.1E1,4E1,5.5E1,4.2E1,2.3E1,1E2,1.03E2,5.3E1,5.41E2,1.42E2,2.51E2,3E1,8.4E1,2.47E2,3.6E1,1.18E2,1.15E2,5.4E2,3E1,2.3E1,1.9E1,1.1E1,8.4E1,2.44E2,2.3E1,1.1E1],"tree_param":{"num_deleted":"0","num_feature":"34","num_nodes":"117","size_leaf_vector":"1"}},{"base_weights":[-1.0870577E-2,-5.4059377E0,7.49299E0,-6.156691E0,-1.0210685E0,5.4076695E0,9.464002E0,-6.334778E0,-3.2833984E0,-2.381239E0,2.0089252E0,-3.158403E0,5.7599587E0,8.499671E0,1.1620093E1,-6.3926053E0,-3.131795E0,-3.648463E0,2.1924034E-1,-4.4359717E0,-9.957222E-1,3.7168984E0,-1.1343778E-2,-5.927109E0,-2.768969E-1,3.2255783E0,6.444064E0,7.495019E0,9.320818E0,1.0027507E1,1.2501946E1,-4.9543333E0,-6.5119867E0,-5.028065E0,-7.6837087E-1,-1.4233859E0,-4.6206026E0,-5.2155213E0,-3.0130897E0,-4.329961E0,-1.3512845E-1,6.634727E-1,3.013926E0,1.0985044E0,-4.3847844E-1,-7.3551077E-1,-4.3964154E-1,-4.9492475E-1,3.5366938E-1,2.8297648E0,9.6538544E-1,5.194194E0,7.0306063E0,8.3351145E0,6.2770047E0,7.349121E0,9.753326E0,1.0554094E1,7.0928617E0,1.07537365E1,1.3778671E1,-2.2915784E-2,-5.752169E-1,-5.79219E-1,-6.5924495E-1,-6.9099444E-1,-3.858577E-1,-3.9058855E-1,2.0020333E-1,2.6901177E-1,-4.0119192E-1,-5.0529784E-1,4.769742E-2,-5.7980156E-1,-2.8338143E-1,-4.6664378E-1,4.4426005E-2,-2.926434E-1,-6.79975E-1,2.8798583E-1,-1.4071219E-1,4.4783852E-1,6.772878E-2,5.222334E-1,-2.9764486E-2,4.4856253E-1,1.4568672E-1,3.149259E-1,6.315689E-1,6.659001E-1,9.932372E-1,6.657695E-1,9.091161E-1,1.6380458E-1,6.8712E-1,8.1149435E-1,2.9976094E-1,7.3731816E-1,1.020455E0,8.489062E-1,1.1233267E0,3.4916332E-1,8.899565E-1,6.003594E-1,1.1303722E0,1.4590861E0,1.0210829E0],"categories":[],"categories_nodes":[],"categories_segments":[],"categories_sizes":[],"default_left":[0,0,0,0,0,0,0,0,0,0,0,0,0,0,0,0,0,0,0,0,0,0,0,0,0,0,0,0,0,0,0,0,0,0,0,0,0,0,0,0,0,0,0,0,0,0,0,0,0,0,0,0,0,0,0,0,0,0,0,0,0,0,0,0,0,0,0,0,0,0,0,0,0,0,0,0,0,0,0,0,0,0,0,0,0,0,0,0,0,0,0,0,0,0,0,0,0,0,0,0,0,0,0,0,0,0,0],"id":1,"left_children":[1,3,5,7,9,11,13,15,17,19,21,23,25,27,29,31,33,35,-1,37,39,41,43,45,47,49,51,53,55,57,59,61,63,65,67,69,71,73,75,77,79,-1,81,83,-1,-1,-1,-1,-1,85,-1,87,89,91,93,95,97,99,101,103,105,-1,-1,-1,-1,-1,-1,-1,-1,-1,-1,-1,-1,-1,-1,-1,-1,-1,-1,-1,-1,-1,-1,-1,-1,-1,-1,-1,-1,-1,-1,-1,-1,-1,-1,-1,-1,-1,-1,-1,-1,-1,-1,-1,-1,-1,-1],"loss_changes":[2.7363025E5,1.2937672E4,1.1568328E4,1.6969688E3,2.378657E3,4.1705938E3,2.920211E3,5.6527344E2,4.0380518E2,1.1286357E3,6.1769336E2,4.3715112E2,2.2712773E3,7.608828E2,5.0101172E2,5.0053125E2,2.5607465E2,3.9575708E2,0E0,1.617583E2,6.852074E2,1.7896521E2,4.0768668E2,2.8867126E1,5.164201E2,6.9274634E2,7.2591016E2,4.1632812E2,3.9734766E2,1.7858008E2,4.8348047E2,9.1100146E2,1.27578125E2,4.376422E1,2.4250865E2,6.28373E2,2.867351E2,1.2507715E2,3.3932898E2,1.4995538E2,7.3654553E2,0E0,2.7071973E2,3.8730576E2,0E0,0E0,0E0,0E0,0E0,6.027168E2,0E0,7.506875E2,6.940703E2,2.7935352E2,5.1522656E2,3.189204E2,4.0590234E2,9.678418E1,1.5110376E2,2.5608887E2,3.1465625E2,0E0,0E0,0E0,0E0,0E0,0E0,0E0,0E0,0E0,0E0,0E0,0E0,0E0,0E0,0E0,0E0,0E0,0E0,0E0,0E0,0E0,0E0,0E0,0E0,0E0,0E0,0E0,0E0,0E0,0E0,0E0,0E0,0E0,0E0,0E0,0E0,0E0,0E0,0E0,0E0,0E0,0E0,0E0,0E0,0E0,0E0],"parents":[2147483647,0,0,1,1,2,2,3,3,4,4,5,5,6,6,7,7,8,8,9,9,10,10,11,11,12,12,13,13,14,14,15,15,16,16,17,17,19,19,20,20,21,21,22,22,23,23,24,24,25,25,26,26,27,27,28,28,29,29,30,30,31,31,32,32,33,33,34,34,35,35,36,36,37,37,38,38,39,39,40,40,42,42,43,43,49,49,51,51,52,52,53,53,54,54,55,55,56,56,57,57,58,58,59,59,60,60],"right_children":[2,4,6,8,10,12,14,16,18,20,22,24,26,28,30,32,34,36,-1,38,40,42,44,46,48,50,52,54,56,58,60,62,64,66,68,70,72,74,76,78,80,-1,82,84,-1,-1,-1,-1,-1,86,-1,88,90,92,94,96,98,100,102,104,106,-1,-1,-1,-1,-1,-1,-1,-1,-1,-1,-1,-1,-1,-1,-1,-1,-1,-1,-1,-1,-1,-1,-1,-1,-1,-1,-1,-1,-1,-1,-1,-1,-1,-1,-1,-1,-1,-1,-1,-1,-1,-1,-1,-1,-1,-1],"split_conditions":[9.54E0,3.1E0,1.7706667E1,6.142857E0,4.24E0,8E-2,2.3424E1,5.5866666E0,2.62E1,2.3E0,0E0,1.2046667E1,1.148E1,1.868E1,5.490909E-1,1E1,1.028E1,-9.142858E0,2.1924034E-1,2.1666666E1,2E0,2E0,1E1,-2.46E2,1.6875E0,3.8333332E1,5.952381E0,3.3E1,4.571429E0,9.810811E0,1.9666666E1,3E0,-1E0,1.5625E0,-9.166667E-1,8.1E1,1.8E1,1.3333334E0,6.365854E0,4E0,6.4E1,6.634727E-1,5E0,2.2857144E0,-4.3847844E-1,-7.3551077E-1,-4.3964154E-1,-4.9492475E-1,3.5366938E-1,3.9E1,9.6538544E-1,1.3633333E1,2.006E1,1.9053333E1,3.88125E-1,5.3026314E0,2.3255814E-2,-8E0,3.45E1,-1.82E2,1.5384616E-1,-2.2915784E-2,-5.752169E-1,-5.79219E-1,-6.5924495E-1,-6.9099444E-1,-3.858577E-1,-3.9058855E-1,2.0020333E-1,2.6901177E-1,-4.0119192E-1,-5.0529784E-1,4.769742E-2,-5.7980156E-1,-2.8338143E-1,-4.6664378E-1,4.4426005E-2,-2.926434E-1,-6.79975E-1,2.8798583E-1,-1.4071219E-1,4.4783852E-1,6.772878E-2,5.222334E-1,-2.9764486E-2,4.4856253E-1,1.4568672E-1,3.149259E-1,6.315689E-1,6.659001E-1,9.932372E-1,6.657695E-1,9.091161E-1,1.6380458E-1,6.8712E-1,8.1149435E-1,2.9976094E-1,7.3731816E-1,1.020455E0,8.489062E-1,1.1233267E0,3.4916332E-1,8.899565E-1,6.003594E-1,1.1303722E0,1.4590861E0,1.0210829E0],"split_indices":[26,1,26,17,28,4,28,26,17,26,10,26,28,28,4,32,28,10,0,11,23,32,31,6,21,16,1,32,17,0,16,31,10,21,18,32,15,16,1,16,32,0,31,17,0,0,0,0,0,32,0,26,28,26,4,25,2,5,8,6,14,0,0,0,0,0,0,0,0,0,0,0,0,0,0,0,0,0,0,0,0,0,0,0,0,0,0,0,0,0,0,0,0,0,0,0,0,0,0,0,0,0,0,0,0,0,0],"split_type":[0,0,0,0,0,0,0,0,0,0,0,0,0,0,0,0,0,0,0,0,0,0,0,0,0,0,0,0,0,0,0,0,0,0,0,0,0,0,0,0,0,0,0,0,0,0,0,0,0,0,0,0,0,0,0,0,0,0,0,0,0,0,0,0,0,0,0,0,0,0,0,0,0,0,0,0,0,0,0,0,0,0,0,0,0,0,0,0,0,0,0,0,0,0,0,0,0,0,0,0,0,0,0,0,0,0,0],"sum_hessian":[6.757E3,3.931E3,2.826E3,3.356E3,5.75E2,1.375E3,1.451E3,3.159E3,1.97E2,3.97E2,1.78E2,5.4E1,1.321E3,1.006E3,4.45E2,3.102E3,5.7E1,1.85E2,1.2E1,1.59E2,2.38E2,9.6E1,8.2E1,2.7E1,2.7E1,2.82E2,1.039E3,4.57E2,5.49E2,1.63E2,2.82E2,2.41E2,2.861E3,3.1E1,2.6E1,5.7E1,1.28E2,1.01E2,5.8E1,4.8E1,1.9E2,1.7E1,7.9E1,6.6E1,1.6E1,1.2E1,1.5E1,1.2E1,1.5E1,2.67E2,1.5E1,3.35E2,7.04E2,2.67E2,1.9E2,1.02E2,4.47E2,1.36E2,2.7E1,1.23E2,1.59E2,3.5E1,2.06E2,2.95E2,2.566E3,1E1,2.1E1,1.2E1,1.4E1,2.2E1,3.5E1,1.18E2,1E1,8E1,2.1E1,3.9E1,1.9E1,3.2E1,1.6E1,5.6E1,1.34E2,4.8E1,3.1E1,1.6E1,5E1,1.2E2,1.47E2,1.2E2,2.15E2,6.27E2,7.7E1,8.6E1,1.81E2,2.2E1,1.68E2,8.6E1,1.6E1,7.4E1,3.73E2,3.7E1,9.9E1,1E1,1.7E1,1.4E1,1.09E2,1.27E2,3.2E1],"tree_param":{"num_deleted":"0","num_feature":"34","num_nodes":"107","size_leaf_vector":"1"}},{"base_weights":[7.493119E-2,-5.1160545E0,6.4455843E0,-5.7243104E0,-2.0129488E0,3.7187552E0,7.9946313E0,-4.2010036E0,-5.8547807E0,-3.99853E0,-4.6342772E-1,-2.6543067E0,4.2389297E0,7.225488E0,1.0393252E1,-4.8826694E-1,-5.126746E0,-5.9574256E0,-4.3474684E0,-4.54504E-1,-4.458237E0,1.9713392E0,-1.9020585E0,-3.546002E0,3.5856703E-1,4.694216E0,1.3114211E-1,6.28E0,7.9979973E0,8.530742E0,1.1089874E1,5.085702E-1,-2.1482508E0,-5.4598513E0,1.09295085E-1,-5.069162E0,-6.0504184E0,-9.493558E-2,-4.554456E0,2.7392206E-1,-3.81943E-1,-4.670097E0,3.3832897E-2,4.220604E0,-5.273922E-1,2.8015702E0,-2.5258527E0,1.6673037E-1,-4.7902284E0,7.0060897E0,4.2490745E0,2.4078023E0,-2.5276937E0,7.5881877E0,5.044404E0,6.533567E0,8.515458E0,9.828114E0,6.055588E0,1.2486956E1,8.786952E0,8.165269E-2,-4.3751097E-1,-6.0099715E-1,-1.4044401E-1,-5.395319E-1,-2.0426415E-1,-6.066691E-1,-2.810078E-1,-3.7442625E-1,-5.2058405E-1,-4.9975133E-1,-2.2510128E-1,5.6621665E-1,-4.371511E-2,-4.4439313E-1,3.1124854E-2,-1.2256161E-2,4.9541044E-1,-4.6063972E-1,-1.843462E-1,-2.2342603E-1,-6.10923E-1,2.2941084E-1,7.861585E-1,4.8051858E-1,2.5732088E-1,5.8509517E-1,3.3241536E-2,-5.64837E-1,-4.6700902E-2,4.282135E-1,7.9636174E-1,4.462553E-1,8.651018E-1,6.1643976E-1,1.1795701E0,9.7820085E-1,7.769188E-1,1.0807985E0,6.530845E-1,9.592932E-1,2.1185389E-1,8.817725E-1,1.3178316E0,9.455347E-1,3.74858E-1],"categories":[],"categories_nodes":[],"categories_segments":[],"categories_sizes":[],"default_left":[0,0,0,0,0,0,0,0,0,0,0,0,0,0,0,0,0,0,0,0,0,0,0,0,0,0,0,0,0,0,0,0,0,0,0,0,0,0,0,0,0,0,0,0,0,0,0,0,0,0,0,0,0,0,0,0,0,0,0,0,0,0,0,0,0,0,0,0,0,0,0,0,0,0,0,0,0,0,0,0,0,0,0,0,0,0,0,0,0,0,0,0,0,0,0,0,0,0,0,0,0,0,0,0,0,0,0],"id":2,"left_children":[1,3,5,7,9,11,13,15,17,19,21,23,25,27,29,31,33,35,37,39,41,43,45,47,-1,49,51,53,55,57,59,-1,61,63,-1,65,67,-1,69,-1,-1,71,-1,73,75,77,79,-1,81,83,85,87,89,91,93,95,97,99,101,103,105,-1,-1,-1,-1,-1,-1,-1,-1,-1,-1,-1,-1,-1,-1,-1,-1,-1,-1,-1,-1,-1,-1,-1,-1,-1,-1,-1,-1,-1,-1,-1,-1,-1,-1,-1,-1,-1,-1,-1,-1,-1,-1,-1,-1,-1,-1],"loss_changes":[2.2428042E5,7.042E3,1.2832305E4,5.9628906E2,1.887241E3,3.6744424E3,3.5058203E3,8.5675684E2,4.1891406E2,4.3623193E2,1.2156943E3,4.8010394E2,1.910748E3,1.0256484E3,5.1390625E2,4.8281302E2,4.203291E2,1.9144531E2,1.272063E2,3.5435495E2,2.4343555E2,7.272457E2,6.4670935E2,4.8799017E2,0E0,9.170137E2,6.295726E2,1.0398555E3,5.5589844E2,3.6436328E2,9.7775E2,0E0,2.6765805E2,4.1544287E2,0E0,2.4661768E2,1.1102344E2,0E0,7.339136E1,0E0,0E0,1.6933789E2,0E0,4.590575E2,2.0502644E2,1.6425885E2,2.6551904E2,0E0,1.8863E2,5.745337E2,7.089795E2,3.9822366E2,3.0603717E2,3.6556055E2,6.874795E2,3.4494922E2,4.845E2,2.0404004E2,6.4815845E2,4.1144336E2,4.0571484E2,0E0,0E0,0E0,0E0,0E0,0E0,0E0,0E0,0E0,0E0,0E0,0E0,0E0,0E0,0E0,0E0,0E0,0E0,0E0,0E0,0E0,0E0,0E0,0E0,0E0,0E0,0E0,0E0,0E0,0E0,0E0,0E0,0E0,0E0,0E0,0E0,0E0,0E0,0E0,0E0,0E0,0E0,0E0,0E0,0E0,0E0],"parents":[2147483647,0,0,1,1,2,2,3,3,4,4,5,5,6,6,7,7,8,8,9,9,10,10,11,11,12,12,13,13,14,14,15,15,16,16,17,17,18,18,19,19,20,20,21,21,22,22,23,23,25,25,26,26,27,27,28,28,29,29,30,30,32,32,33,33,35,35,36,36,38,38,41,41,43,43,44,44,45,45,46,46,48,48,49,49,50,50,51,51,52,52,53,53,54,54,55,55,56,56,57,57,58,58,59,59,60,60],"right_children":[2,4,6,8,10,12,14,16,18,20,22,24,26,28,30,32,34,36,38,40,42,44,46,48,-1,50,52,54,56,58,60,-1,62,64,-1,66,68,-1,70,-1,-1,72,-1,74,76,78,80,-1,82,84,86,88,90,92,94,96,98,100,102,104,106,-1,-1,-1,-1,-1,-1,-1,-1,-1,-1,-1,-1,-1,-1,-1,-1,-1,-1,-1,-1,-1,-1,-1,-1,-1,-1,-1,-1,-1,-1,-1,-1,-1,-1,-1,-1,-1,-1,-1,-1,-1,-1,-1,-1,-1,-1],"split_conditions":[7.84E0,1.36E0,1.562E1,1E1,1.6E0,8E-2,2.3424E1,4E0,1.1666667E1,-4.6666665E0,6.8E1,1.9296E1,9.904762E0,1.7916E1,5E0,6.757856E0,6E0,-9.857142E0,1.025E1,1.0748E1,1.3456E1,4E0,-1.5714285E0,8.546667E0,3.5856703E-1,2E0,4E0,1.5E1,5.428571E0,2E0,3.3E1,5.085702E-1,4.359375E0,9E0,1.09295085E-1,-1.4714286E1,6.285714E0,-9.493558E-2,7.064815E0,2.7392206E-1,-3.81943E-1,1E0,3.3832897E-2,1E0,1.4285715E-1,2.0625E0,2.7E0,1.6673037E-1,-1.0523809E1,1E0,3.9215688E-2,6.8E1,1.4705882E-2,-3.7857143E1,1.4E1,2E1,-1.1904762E0,2.7619047E0,1.2666667E1,6.6666665E0,4.0816326E-2,8.165269E-2,-4.3751097E-1,-6.0099715E-1,-1.4044401E-1,-5.395319E-1,-2.0426415E-1,-6.066691E-1,-2.810078E-1,-3.7442625E-1,-5.2058405E-1,-4.9975133E-1,-2.2510128E-1,5.6621665E-1,-4.371511E-2,-4.4439313E-1,3.1124854E-2,-1.2256161E-2,4.9541044E-1,-4.6063972E-1,-1.843462E-1,-2.2342603E-1,-6.10923E-1,2.2941084E-1,7.861585E-1,4.8051858E-1,2.5732088E-1,5.8509517E-1,3.3241536E-2,-5.64837E-1,-4.6700902E-2,4.282135E-1,7.9636174E-1,4.462553E-1,8.651018E-1,6.1643976E-1,1.1795701E0,9.7820085E-1,7.769188E-1,1.0807985E0,6.530845E-1,9.592932E-1,2.1185389E-1,8.817725E-1,1.3178316E0,9.455347E-1,3.74858E-1],"split_indices":[26,26,26,32,1,4,28,31,11,18,32,28,10,28,32,20,32,13,19,28,28,31,18,26,0,32,31,32,17,32,32,0,25,31,0,13,17,0,20,0,0,30,0,30,17,23,26,0,13,31,3,32,3,13,31,31,13,10,16,16,3,0,0,0,0,0,0,0,0,0,0,0,0,0,0,0,0,0,0,0,0,0,0,0,0,0,0,0,0,0,0,0,0,0,0,0,0,0,0,0,0,0,0,0,0,0,0],"split_type":[0,0,0,0,0,0,0,0,0,0,0,0,0,0,0,0,0,0,0,0,0,0,0,0,0,0,0,0,0,0,0,0,0,0,0,0,0,0,0,0,0,0,0,0,0,0,0,0,0,0,0,0,0,0,0,0,0,0,0,0,0,0,0,0,0,0,0,0,0,0,0,0,0,0,0,0,0,0,0,0,0,0,0,0,0,0,0,0,0,0,0,0,0,0,0,0,0,0,0,0,0,0,0,0,0,0,0],"sum_hessian":[6.78E3,3.736E3,3.044E3,3.123E3,6.13E2,1.104E3,1.94E3,2.49E2,2.874E3,2.68E2,3.45E2,8.3E1,1.021E3,1.472E3,4.68E2,5E1,1.99E2,2.688E3,1.86E2,3.1E1,2.37E2,1.28E2,2.17E2,7.3E1,1E1,9.19E2,1.02E2,6.66E2,8.06E2,1.31E2,3.37E2,1.1E1,3.9E1,1.89E2,1E1,2.6E2,2.428E3,1.1E1,1.75E2,1.6E1,1.5E1,2.27E2,1E1,6.7E1,6.1E1,2.5E1,1.92E2,1.4E1,5.9E1,1.46E2,7.73E2,5.5E1,4.7E1,3.21E2,3.45E2,2.14E2,5.92E2,8.4E1,4.7E1,2.07E2,1.3E2,1.7E1,2.2E1,1.66E2,2.3E1,2.34E2,2.6E1,2.415E3,1.3E1,8.1E1,9.4E1,1.99E2,2.8E1,5.1E1,1.6E1,1E1,5.1E1,1.1E1,1.4E1,4.6E1,1.46E2,2.1E1,3.8E1,2.3E1,1.23E2,5.79E2,1.94E2,2E1,3.5E1,1.8E1,2.9E1,3.4E1,2.87E2,2.99E2,4.6E1,2.02E2,1.2E1,2.15E2,3.77E2,6.3E1,2.1E1,2.4E1,2.3E1,3.5E1,1.72E2,1.14E2,1.6E1],"tree_param":{"num_deleted":"0","num_feature":"34","num_nodes":"107","size_leaf_vector":"1"}},{"base_weights":[-4.5181528E-2,-4.5899215E0,5.815559E0,-5.0874114E0,-1.1805117E0,2.736809E0,6.8975515E0,-5.377158E0,-4.1868033E0,-2.390992E0,1.7362013E0,3.9529145E0,4.650235E-1,5.766835E0,8.551574E0,-4.997347E0,-5.532115E0,-4.3406067E0,-1.2417591E0,-3.7785723E0,-8.983259E-1,3.9945848E0,-1.4021662E0,3.516686E0,8.433559E0,-1.5460391E0,3.0084944E0,2.8765302E0,6.329585E0,7.3160734E0,9.13049E0,-5.090975E0,-1.5403649E0,-3.671773E0,-5.5586133E0,-2.847826E0,-4.5982685E0,1.9959012E-1,-4.1387138E-1,-4.1672783E0,1.5054625E-1,-3.0677629E0,4.6925027E-2,4.649629E0,3.87247E-2,-3.3611333E0,3.6184025E-1,1.2752706E0,4.3467503E0,4.3353634E0,1.1986897E1,9.128625E-1,-2.796701E0,-2.2380471E0,4.080183E0,-9.2907405E-1,4.158715E0,5.9111795E0,7.0025434E0,4.951122E0,7.993812E0,1.040953E1,7.8508697E0,-5.1729655E-1,-5.7507813E-2,-3.341026E-1,4.0032934E-2,-1.9691756E-1,-4.8256478E-1,-4.395636E-1,-5.5999804E-1,2.694624E-1,-4.6217948E-1,-4.7685823E-1,-2.7796686E-1,-1.617922E-1,3.320785E-1,-5.882392E-3,-4.6022215E-1,-4.827849E-1,-1.4495549E-1,-1.194477E-1,2.6918364E-1,5.430487E-1,1.3723953E-1,9.612682E-3,-5.185804E-1,-2.7087054E-1,3.411101E-1,-3.069095E-1,2.4354966E-1,5.6867708E-2,4.6355492E-1,6.0694903E-1,2.384467E-1,1.4273185E0,9.130279E-1,2.606634E-1,-1.7115924E-1,-3.6512652E-1,1.6406319E-1,-4.2806622E-1,8.0265565E-4,7.458304E-1,2.792488E-1,2.836408E-1,-3.1618184E-1,6.513931E-1,2.9092228E-1,5.656858E-1,7.62787E-1,3.4732136E-1,7.2791386E-1,7.1920496E-1,2.1167527E-1,1.0091251E0,7.230053E-1,6.7354065E-1,1.0953054E0,7.2691274E-1,1.0814174E0],"categories":[],"categories_nodes":[],"categories_segments":[],"categories_sizes":[],"default_left":[0,0,0,0,0,0,0,0,0,0,0,0,0,0,0,0,0,0,0,0,0,0,0,0,0,0,0,0,0,0,0,0,0,0,0,0,0,0,0,0,0,0,0,0,0,0,0,0,0,0,0,0,0,0,0,0,0,0,0,0,0,0,0,0,0,0,0,0,0,0,0,0,0,0,0,0,0,0,0,0,0,0,0,0,0,0,0,0,0,0,0,0,0,0,0,0,0,0,0,0,0,0,0,0,0,0,0,0,0,0,0,0,0,0,0,0,0,0,0,0,0],"id":3,"left_children":[1,3,5,7,9,11,13,15,17,19,21,23,25,27,29,31,33,35,37,39,41,43,45,47,49,51,53,55,57,59,61,63,65,67,69,71,73,75,-1,77,-1,79,81,83,-1,85,87,89,91,93,95,97,99,101,103,105,107,109,111,113,115,117,119,-1,-1,-1,-1,-1,-1,-1,-1,-1,-1,-1,-1,-1,-1,-1,-1,-1,-1,-1,-1,-1,-1,-1,-1,-1,-1,-1,-1,-1,-1,-1,-1,-1,-1,-1,-1,-1,-1,-1,-1,-1,-1,-1,-1,-1,-1,-1,-1,-1,-1,-1,-1,-1,-1,-1,-1,-1,-1],"loss_changes":[1.8112175E5,6.490242E3,9.874742E3,8.495703E2,1.7306262E3,2.1365156E3,4.059586E3,1.2096094E2,3.6512988E2,7.1323865E2,1.026221E3,9.5545215E2,1.3908376E3,2.1092773E3,5.6977344E2,2.3232031E2,6.753516E1,2.8576465E2,1.76198E2,3.7392822E2,3.446552E2,1.9668848E2,2.120097E2,8.5215576E2,5.887727E2,4.6999164E2,6.838508E2,1.0529535E3,2.6664453E2,4.2363672E2,9.035625E2,2.6435742E2,7.472269E1,4.55058E1,5.9910156E1,1.1628135E3,1.9147754E2,1.6988425E2,0E0,2.9814893E2,0E0,1.3825919E2,3.906563E2,1.7424011E2,0E0,1.8344086E2,3.1821518E2,6.425709E2,3.639746E2,5.995572E1,1.989624E1,2.3561328E2,3.8898102E2,9.637949E1,4.1417175E2,4.7137283E2,4.5484424E2,2.5416992E2,3.7886328E2,4.1033435E2,2.842705E2,5.213262E2,4.4717578E2,0E0,0E0,0E0,0E0,0E0,0E0,0E0,0E0,0E0,0E0,0E0,0E0,0E0,0E0,0E0,0E0,0E0,0E0,0E0,0E0,0E0,0E0,0E0,0E0,0E0,0E0,0E0,0E0,0E0,0E0,0E0,0E0,0E0,0E0,0E0,0E0,0E0,0E0,0E0,0E0,0E0,0E0,0E0,0E0,0E0,0E0,0E0,0E0,0E0,0E0,0E0,0E0,0E0,0E0,0E0,0E0,0E0,0E0],"parents":[2147483647,0,0,1,1,2,2,3,3,4,4,5,5,6,6,7,7,8,8,9,9,10,10,11,11,12,12,13,13,14,14,15,15,16,16,17,17,18,18,19,19,20,20,21,21,22,22,23,23,24,24,25,25,26,26,27,27,28,28,29,29,30,30,31,31,32,32,33,33,34,34,35,35,36,36,37,37,39,39,41,41,42,42,43,43,45,45,46,46,47,47,48,48,49,49,50,50,51,51,52,52,53,53,54,54,55,55,56,56,57,57,58,58,59,59,60,60,61,61,62,62],"right_children":[2,4,6,8,10,12,14,16,18,20,22,24,26,28,30,32,34,36,38,40,42,44,46,48,50,52,54,56,58,60,62,64,66,68,70,72,74,76,-1,78,-1,80,82,84,-1,86,88,90,92,94,96,98,100,102,104,106,108,110,112,114,116,118,120,-1,-1,-1,-1,-1,-1,-1,-1,-1,-1,-1,-1,-1,-1,-1,-1,-1,-1,-1,-1,-1,-1,-1,-1,-1,-1,-1,-1,-1,-1,-1,-1,-1,-1,-1,-1,-1,-1,-1,-1,-1,-1,-1,-1,-1,-1,-1,-1,-1,-1,-1,-1,-1,-1,-1,-1,-1,-1],"split_conditions":[1.9666666E1,3.1E0,1.3905E1,1.8E-1,9.5E0,7.6E1,2.0468E1,8.9E1,6E0,7.8E1,8.1E1,2.9333334E1,2.44E1,5.585366E0,7E0,1.3333334E0,1.3125E0,1E1,8.333333E0,1.3E1,5.464286E0,9.564102E0,2.3809524E-2,1.8518519E-2,7E0,5.2380955E-1,9.3E1,-1.2E1,5.7692308E-2,1.923077E-2,3.3E1,5.2380955E-1,1.6E1,3.8305085E0,2.54E0,3E0,9.896E0,1.9E1,-4.1387138E-1,-1.0476191E0,1.5054625E-1,4.2E0,1.36E-1,1E1,3.87247E-2,4.580645E0,2.5E0,5.3E0,1.6333333E2,7.036232E0,2.8333334E1,9.375E-1,5.263158E-2,2.1276595E-2,1.37E2,-4.350706E0,7.5E-1,1.4E1,-4.904762E0,1.7666666E1,-1.2E0,4.3333335E0,1.4E1,-5.1729655E-1,-5.7507813E-2,-3.341026E-1,4.0032934E-2,-1.9691756E-1,-4.8256478E-1,-4.395636E-1,-5.5999804E-1,2.694624E-1,-4.6217948E-1,-4.7685823E-1,-2.7796686E-1,-1.617922E-1,3.320785E-1,-5.882392E-3,-4.6022215E-1,-4.827849E-1,-1.4495549E-1,-1.194477E-1,2.6918364E-1,5.430487E-1,1.3723953E-1,9.612682E-3,-5.185804E-1,-2.7087054E-1,3.411101E-1,-3.069095E-1,2.4354966E-1,5.6867708E-2,4.6355492E-1,6.0694903E-1,2.384467E-1,1.4273185E0,9.130279E-1,2.606634E-1,-1.7115924E-1,-3.6512652E-1,1.6406319E-1,-4.2806622E-1,8.0265565E-4,7.458304E-1,2.792488E-1,2.836408E-1,-3.1618184E-1,6.513931E-1,2.9092228E-1,5.656858E-1,7.62787E-1,3.4732136E-1,7.2791386E-1,7.1920496E-1,2.1167527E-1,1.0091251E0,7.230053E-1,6.7354065E-1,1.0953054E0,7.2691274E-1,1.0814174E0],"split_indices":[8,1,28,28,9,32,28,32,15,6,32,16,9,1,32,8,23,32,11,16,1,1,2,2,32,18,32,5,2,2,32,18,32,25,25,31,28,15,0,18,0,25,28,31,0,1,23,0,11,20,8,22,14,2,32,7,22,5,10,16,10,16,31,0,0,0,0,0,0,0,0,0,0,0,0,0,0,0,0,0,0,0,0,0,0,0,0,0,0,0,0,0,0,0,0,0,0,0,0,0,0,0,0,0,0,0,0,0,0,0,0,0,0,0,0,0,0,0,0,0,0],"split_type":[0,0,0,0,0,0,0,0,0,0,0,0,0,0,0,0,0,0,0,0,0,0,0,0,0,0,0,0,0,0,0,0,0,0,0,0,0,0,0,0,0,0,0,0,0,0,0,0,0,0,0,0,0,0,0,0,0,0,0,0,0,0,0,0,0,0,0,0,0,0,0,0,0,0,0,0,0,0,0,0,0,0,0,0,0,0,0,0,0,0,0,0,0,0,0,0,0,0,0,0,0,0,0,0,0,0,0,0,0,0,0,0,0,0,0,0,0,0,0,0,0],"sum_hessian":[6.798E3,3.829E3,2.969E3,3.341E3,4.88E2,7.73E2,2.196E3,2.524E3,8.17E2,3.45E2,1.43E2,5.03E2,2.7E2,1.307E3,8.89E2,7.41E2,1.783E3,7.76E2,4.1E1,1.78E2,1.67E2,8.3E1,6E1,4.6E2,4.3E1,1.51E2,1.19E2,2.14E2,1.093E3,2.88E2,6.01E2,7.21E2,2E1,2.7E1,1.756E3,1.16E2,6.6E2,2.8E1,1.3E1,1.66E2,1.2E1,5E1,1.17E2,7E1,1.3E1,2.8E1,3.2E1,1.25E2,3.35E2,2.1E1,2.2E1,5.1E1,1E2,2E1,9.9E1,5.4E1,1.6E2,6.8E2,4.13E2,6.6E1,2.22E2,2.97E2,3.04E2,7.08E2,1.3E1,1E1,1E1,1.2E1,1.5E1,6.4E1,1.692E3,2.8E1,8.8E1,6.02E2,5.8E1,1.8E1,1E1,1.6E1,1.5E2,2.3E1,2.7E1,8E1,3.7E1,5.6E1,1.4E1,1E1,1.8E1,1.6E1,1.6E1,2.6E1,9.9E1,2.4E1,3.11E2,1E1,1.1E1,1E1,1.2E1,3.1E1,2E1,8.4E1,1.6E1,1E1,1E1,2.6E1,7.3E1,2E1,3.4E1,5.4E1,1.06E2,5.96E2,8.4E1,3.1E1,3.82E2,3.6E1,3E1,5.6E1,1.66E2,4E1,2.57E2,2.57E2,4.7E1],"tree_param":{"num_deleted":"0","num_feature":"34","num_nodes":"121","size_leaf_vector":"1"}},{"base_weights":[4.4197105E-2,-3.925866E0,5.629138E0,-4.5850425E0,-1.2278982E0,4.194407E0,7.1820173E0,-3.6129217E0,-4.7696743E0,-3.307758E0,1.8051007E-1,-2.1377192E0,4.3903255E0,6.5516567E0,8.648625E0,-3.7528286E0,2.5758997E-1,-4.8571877E0,-3.1273801E0,-3.6294656E0,2.2377947E-1,2.172684E0,-1.2327787E0,-4.3327427E0,2.1115573E-1,4.855876E0,2.3104608E0,5.3944945E0,7.0675225E0,9.216438E0,6.492027E0,-1.2002752E0,-4.068514E0,-4.223227E0,-4.9719114E0,-3.8085158E0,-1.8387884E0,-3.810813E0,1.0404396E-1,3.775507E0,6.122467E-1,-4.9758887E-1,-3.4634652E0,-2.1757853E-1,-6.0840935E-1,4.0362487E0,5.753744E0,2.6199412E0,-1.818099E-1,4.8297296E0,9.65429E0,5.273993E0,7.6619368E0,9.487819E0,4.91362E0,7.7025614E0,4.0177345E0,1.19021714E-1,-2.8523794E-1,-4.310658E-1,-2.737538E-2,-1.368287E-1,-4.3866324E-1,-3.2033014E-1,-5.011503E-1,-4.2998528E-1,-2.09439E-1,-4.7081614E-1,-7.76361E-3,-4.2183194E-1,-2.2507767E-1,4.3732905E-1,-7.734194E-2,-8.783071E-2,5.1190406E-1,-8.3242625E-2,5.0407904E-1,-6.300374E-2,-4.3955874E-1,6.2115663E-1,3.5342118E-1,6.8220174E-1,4.7431874E-1,3.9060017E-1,1.3231237E-1,1.7114642E-1,5.0224525E-1,1.1673863E0,4.370288E-1,7.1377987E-1,3.3919948E-1,4.198323E-1,7.8383654E-1,1.0313245E0,8.272644E-1,1.8873955E-1,7.493152E-1,4.072388E-1,8.874194E-1,7.6443493E-1,1.9267584E-1],"categories":[],"categories_nodes":[],"categories_segments":[],"categories_sizes":[],"default_left":[0,0,0,0,0,0,0,0,0,0,0,0,0,0,0,0,0,0,0,0,0,0,0,0,0,0,0,0,0,0,0,0,0,0,0,0,0,0,0,0,0,0,0,0,0,0,0,0,0,0,0,0,0,0,0,0,0,0,0,0,0,0,0,0,0,0,0,0,0,0,0,0,0,0,0,0,0,0,0,0,0,0,0,0,0,0,0,0,0,0,0,0,0,0,0,0,0,0,0,0,0],"id":4,"left_children":[1,3,5,7,9,11,13,15,17,19,21,23,25,27,29,31,-1,33,35,37,-1,39,41,43,-1,45,47,49,51,53,55,57,59,61,63,65,67,69,-1,71,73,75,77,-1,-1,79,81,83,-1,85,87,89,91,93,95,97,99,-1,-1,-1,-1,-1,-1,-1,-1,-1,-1,-1,-1,-1,-1,-1,-1,-1,-1,-1,-1,-1,-1,-1,-1,-1,-1,-1,-1,-1,-1,-1,-1,-1,-1,-1,-1,-1,-1,-1,-1,-1,-1,-1,-1],"loss_changes":[1.5139423E5,7.0921094E3,6.290617E3,5.583672E2,2.3000913E3,1.8417227E3,1.2015703E3,4.564497E2,3.7171484E2,5.7366406E2,1.3231558E3,4.288756E2,1.3763281E3,5.325469E2,4.3733008E2,4.0204785E2,0E0,1.6475781E2,1.1499817E2,2.5802783E2,0E0,4.85404E2,4.4927057E2,1.0009003E2,0E0,8.378008E2,3.4207825E2,6.7270215E2,6.6108594E2,3.2587695E2,2.3263257E2,2.2850746E2,4.11396E2,1.7966992E2,1.3498047E2,6.679358E1,2.523046E2,1.7422949E2,0E0,2.6443262E2,6.762579E2,3.8992297E2,1.7682544E2,0E0,0E0,6.4968164E2,5.6787305E2,4.0510742E2,0E0,1.5125977E2,3.118103E2,5.615713E2,2.6774414E2,2.1458984E2,1.4978854E2,2.1054834E2,2.203493E2,0E0,0E0,0E0,0E0,0E0,0E0,0E0,0E0,0E0,0E0,0E0,0E0,0E0,0E0,0E0,0E0,0E0,0E0,0E0,0E0,0E0,0E0,0E0,0E0,0E0,0E0,0E0,0E0,0E0,0E0,0E0,0E0,0E0,0E0,0E0,0E0,0E0,0E0,0E0,0E0,0E0,0E0,0E0,0E0],"parents":[2147483647,0,0,1,1,2,2,3,3,4,4,5,5,6,6,7,7,8,8,9,9,10,10,11,11,12,12,13,13,14,14,15,15,17,17,18,18,19,19,21,21,22,22,23,23,25,25,26,26,27,27,28,28,29,29,30,30,31,31,32,32,33,33,34,34,35,35,36,36,37,37,39,39,40,40,41,41,42,42,45,45,46,46,47,47,49,49,50,50,51,51,52,52,53,53,54,54,55,55,56,56],"right_children":[2,4,6,8,10,12,14,16,18,20,22,24,26,28,30,32,-1,34,36,38,-1,40,42,44,-1,46,48,50,52,54,56,58,60,62,64,66,68,70,-1,72,74,76,78,-1,-1,80,82,84,-1,86,88,90,92,94,96,98,100,-1,-1,-1,-1,-1,-1,-1,-1,-1,-1,-1,-1,-1,-1,-1,-1,-1,-1,-1,-1,-1,-1,-1,-1,-1,-1,-1,-1,-1,-1,-1,-1,-1,-1,-1,-1,-1,-1,-1,-1,-1,-1,-1,-1],"split_conditions":[9.806666E0,1.5666667E0,1.822E1,3.9E1,3.4545455E0,2E0,2.366E1,1.5E1,2.1666666E1,2.2714285E1,6.8E1,1.3053333E1,2.057143E0,6.5E0,3.846154E-2,1E0,2.5758997E-1,-5.714286E-1,2.49E2,7E0,2.2377947E-1,4E0,8E0,4E0,2.1115573E-1,1.5013333E1,1.2E1,1.8E1,3.1746034E-2,2.01E2,9.810811E0,8E0,3.3E1,1.6666667E-1,9.25E0,1.3333334E0,7.5E-1,1.028E1,1.0404396E-1,1.89E1,3.0714285E1,5.9462366E0,-6.1879387E0,-2.1757853E-1,-6.0840935E-1,2E0,-6.295238E-1,6.4E1,-1.818099E-1,-4.285714E0,4.1666666E-1,3.809524E-1,-1.98E2,6E0,8E0,4E0,-5E0,1.19021714E-1,-2.8523794E-1,-4.310658E-1,-2.737538E-2,-1.368287E-1,-4.3866324E-1,-3.2033014E-1,-5.011503E-1,-4.2998528E-1,-2.09439E-1,-4.7081614E-1,-7.76361E-3,-4.2183194E-1,-2.2507767E-1,4.3732905E-1,-7.734194E-2,-8.783071E-2,5.1190406E-1,-8.3242625E-2,5.0407904E-1,-6.300374E-2,-4.3955874E-1,6.2115663E-1,3.5342118E-1,6.8220174E-1,4.7431874E-1,3.9060017E-1,1.3231237E-1,1.7114642E-1,5.0224525E-1,1.1673863E0,4.370288E-1,7.1377987E-1,3.3919948E-1,4.198323E-1,7.8383654E-1,1.0313245E0,8.272644E-1,1.8873955E-1,7.493152E-1,4.072388E-1,8.874194E-1,7.6443493E-1,1.9267584E-1],"split_indices":[26,26,26,32,0,0,28,31,11,17,32,26,27,17,3,31,0,13,32,5,0,31,31,31,0,26,31,31,2,32,0,32,32,9,19,18,22,28,0,24,9,25,7,0,0,32,27,32,0,10,18,18,6,31,31,32,13,0,0,0,0,0,0,0,0,0,0,0,0,0,0,0,0,0,0,0,0,0,0,0,0,0,0,0,0,0,0,0,0,0,0,0,0,0,0,0,0,0,0,0,0],"split_type":[0,0,0,0,0,0,0,0,0,0,0,0,0,0,0,0,0,0,0,0,0,0,0,0,0,0,0,0,0,0,0,0,0,0,0,0,0,0,0,0,0,0,0,0,0,0,0,0,0,0,0,0,0,0,0,0,0,0,0,0,0,0,0,0,0,0,0,0,0,0,0,0,0,0,0,0,0,0,0,0,0,0,0,0,0,0,0,0,0,0,0,0,0,0,0,0,0,0,0,0,0],"sum_hessian":[6.826E3,3.99E3,2.836E3,3.206E3,7.84E2,1.476E3,1.36E3,5.15E2,2.691E3,3.16E2,4.68E2,4.4E1,1.432E3,9.55E2,4.05E2,5.04E2,1.1E1,2.553E3,1.38E2,2.99E2,1.7E1,1.94E2,2.74E2,2.9E1,1.5E1,1.169E3,2.63E2,2.98E2,6.57E2,3.18E2,8.7E1,5.6E1,4.48E2,3.97E2,2.156E3,8.9E1,4.9E1,2.88E2,1.1E1,9.5E1,9.9E1,2.07E2,6.7E1,1.4E1,1.5E1,6.14E2,5.55E2,2.45E2,1.8E1,2.65E2,3.3E1,1.66E2,4.91E2,2.98E2,2E1,5.7E1,3E1,2.3E1,3.3E1,4.21E2,2.7E1,2.2E1,3.75E2,4.9E1,2.107E3,6.8E1,2.1E1,1.8E1,3.1E1,2.27E2,6.1E1,8.4E1,1.1E1,7.5E1,2.4E1,1.96E2,1.1E1,1.7E1,5E1,1.13E2,5.01E2,2.67E2,2.88E2,1.22E2,1.23E2,1.6E1,2.49E2,2.3E1,1E1,8.2E1,8.4E1,2.5E1,4.66E2,1.73E2,1.25E2,1E1,1E1,1.5E1,4.2E1,1E1,2E1],"tree_param":{"num_deleted":"0","num_feature":"34","num_nodes":"101","size_leaf_vector":"1"}},{"base_weights":[-5.6364955E-3,-3.614203E0,4.7907767E0,-4.0403633E0,-2.4004894E-1,3.6446574E0,6.6513886E0,-4.267775E0,-2.9164567E0,-1.3519977E0,2.279953E0,6.887841E-1,4.1141787E0,4.309754E0,6.9334083E0,-4.3983355E0,-3.8417146E0,-3.1127682E0,2.019302E-1,-2.701313E0,-8.69978E-2,2.914112E-1,4.5795107E0,1.5071282E0,-3.127276E0,-3.0354226E0,4.221398E0,5.576995E0,1.1792963E0,5.072936E0,7.276669E0,-2.8363576E0,-4.4367237E0,-4.6265187E0,-3.4570513E0,-4.596964E0,-2.934376E0,5.2807826E-1,-3.2701025E0,-3.0803766E0,1.5012278E-1,8.280823E-1,-2.1167357E0,1.4579068E0,-2.532029E0,3.4465542E0,7.44242E-1,-4.448556E-1,2.5581553E0,-2.3448048E-2,-4.426136E0,-9.02211E-2,-5.09345E-1,3.7652578E0,5.2699823E0,7.241287E0,3.8257535E0,-3.016028E-1,4.1768365E0,4.0358934E0,6.605591E0,8.133267E0,6.6688523E0,-4.0168148E-1,6.5801226E-2,-4.5777416E-1,-4.0960312E-1,-4.2505917E-1,-5.392836E-1,-3.5675293E-1,6.7560606E-2,-3.075164E-1,-5.377576E-1,-3.1167865E-1,-2.58542E-2,-6.9592975E-2,-5.3572524E-1,-5.882529E-2,-3.7736055E-1,1.3546787E-1,-3.6292273E-1,6.2800184E-2,-4.1259596E-1,3.3554334E-2,4.8855218E-1,2.6350355E-2,-4.8835978E-1,6.944002E-1,2.0490293E-1,2.2554651E-1,-1.8686001E-1,2.9888138E-1,-2.1410485E-1,-5.925658E-1,-2.8426677E-1,2.8955624E-1,4.2797905E-1,6.9921887E-1,4.7689515E-1,5.415184E-1,8.821246E-1,3.8319495E-2,5.711882E-1,2.0870732E-1,5.7443833E-1,3.318501E-1,7.505123E-1,7.8759545E-1,3.480512E-1,7.3856014E-1,9.5773786E-1,6.3522977E-1,9.812339E-1],"categories":[],"categories_nodes":[],"categories_segments":[],"categories_sizes":[],"default_left":[0,0,0,0,0,0,0,0,0,0,0,0,0,0,0,0,0,0,0,0,0,0,0,0,0,0,0,0,0,0,0,0,0,0,0,0,0,0,0,0,0,0,0,0,0,0,0,0,0,0,0,0,0,0,0,0,0,0,0,0,0,0,0,0,0,0,0,0,0,0,0,0,0,0,0,0,0,0,0,0,0,0,0,0,0,0,0,0,0,0,0,0,0,0,0,0,0,0,0,0,0,0,0,0,0,0,0,0,0,0,0,0,0],"id":5,"left_children":[1,3,5,7,9,11,13,15,17,19,21,23,25,27,29,31,33,35,37,39,41,43,45,47,49,51,53,55,57,59,61,63,65,67,69,71,73,-1,75,77,-1,79,81,83,85,87,-1,89,91,-1,93,-1,-1,95,97,99,101,-1,103,105,107,109,111,-1,-1,-1,-1,-1,-1,-1,-1,-1,-1,-1,-1,-1,-1,-1,-1,-1,-1,-1,-1,-1,-1,-1,-1,-1,-1,-1,-1,-1,-1,-1,-1,-1,-1,-1,-1,-1,-1,-1,-1,-1,-1,-1,-1,-1,-1,-1,-1,-1,-1],"loss_changes":[1.19530266E5,5.665918E3,6.298578E3,8.818633E2,1.2444186E3,2.5466387E3,7.156953E2,1.4486328E2,3.6303613E2,5.254851E2,6.205618E2,7.947943E2,1.227832E3,4.8533643E2,6.0554297E2,1.2046875E2,1.9230762E2,1.339873E2,6.520906E2,2.4198584E2,2.9893253E2,2.474127E2,1.78693E2,4.299198E2,1.6804227E2,1.0076958E2,7.272637E2,2.2877954E2,4.7789664E2,2.2764941E2,3.867578E2,2.3364047E2,8.521875E1,4.1606934E1,2.1562695E2,5.236328E1,2.4324463E2,0E0,1.14470795E2,2.3446301E2,0E0,2.6545596E2,2.783307E2,2.0225327E2,1.4591234E2,2.154967E2,0E0,2.8871246E2,2.816294E2,0E0,5.6763184E1,0E0,0E0,4.762627E2,3.7306934E2,7.917871E1,2.9000116E2,0E0,6.0078705E1,2.1899658E2,2.2269678E2,3.0392578E2,4.3620898E2,0E0,0E0,0E0,0E0,0E0,0E0,0E0,0E0,0E0,0E0,0E0,0E0,0E0,0E0,0E0,0E0,0E0,0E0,0E0,0E0,0E0,0E0,0E0,0E0,0E0,0E0,0E0,0E0,0E0,0E0,0E0,0E0,0E0,0E0,0E0,0E0,0E0,0E0,0E0,0E0,0E0,0E0,0E0,0E0,0E0,0E0,0E0,0E0,0E0,0E0],"parents":[2147483647,0,0,1,1,2,2,3,3,4,4,5,5,6,6,7,7,8,8,9,9,10,10,11,11,12,12,13,13,14,14,15,15,16,16,17,17,18,18,19,19,20,20,21,21,22,22,23,23,24,24,25,25,26,26,27,27,28,28,29,29,30,30,31,31,32,32,33,33,34,34,35,35,36,36,38,38,39,39,41,41,42,42,43,43,44,44,45,45,47,47,48,48,50,50,53,53,54,54,55,55,56,56,58,58,59,59,60,60,61,61,62,62],"right_children":[2,4,6,8,10,12,14,16,18,20,22,24,26,28,30,32,34,36,38,40,42,44,46,48,50,52,54,56,58,60,62,64,66,68,70,72,74,-1,76,78,-1,80,82,84,86,88,-1,90,92,-1,94,-1,-1,96,98,100,102,-1,104,106,108,110,112,-1,-1,-1,-1,-1,-1,-1,-1,-1,-1,-1,-1,-1,-1,-1,-1,-1,-1,-1,-1,-1,-1,-1,-1,-1,-1,-1,-1,-1,-1,-1,-1,-1,-1,-1,-1,-1,-1,-1,-1,-1,-1,-1,-1,-1,-1,-1,-1,-1,-1],"split_conditions":[2.0333334E1,2.176923E-1,1.9296E1,1E0,8.86E1,1.6442857E2,2.8625E-1,5.714286E-1,1.9471428E2,1.1E1,7.5E0,1E1,-3.3E1,1.7333334E1,4.571429E0,9.25E0,-1.6666667E-1,-1.7E1,-3.047619E0,3.45E1,8E0,9.580646E0,2.9666666E1,-4E0,3.809524E-1,-2.1142857E1,5.7692308E-2,-2.3809524E-1,2.1812E1,2.925E2,-1.3333334E-1,6E0,7E0,6.96E-1,1.5E1,-3.1E1,1.08333336E2,5.2807826E-1,1.6470588E0,1E0,1.5012278E-1,1.55E1,2.857143E-1,1.76E1,1.65E1,9.333333E0,7.44242E-1,6.4705884E-1,3.475E1,-2.3448048E-2,9.114286E1,-9.02211E-2,-5.09345E-1,1.418E1,6.666667E-2,3.65E1,-9.4E1,-3.016028E-1,1.5882353E0,1.0625E0,4.04E1,6.9767445E-2,6.3E1,-4.0168148E-1,6.5801226E-2,-4.5777416E-1,-4.0960312E-1,-4.2505917E-1,-5.392836E-1,-3.5675293E-1,6.7560606E-2,-3.075164E-1,-5.377576E-1,-3.1167865E-1,-2.58542E-2,-6.9592975E-2,-5.3572524E-1,-5.882529E-2,-3.7736055E-1,1.3546787E-1,-3.6292273E-1,6.2800184E-2,-4.1259596E-1,3.3554334E-2,4.8855218E-1,2.6350355E-2,-4.8835978E-1,6.944002E-1,2.0490293E-1,2.2554651E-1,-1.8686001E-1,2.9888138E-1,-2.1410485E-1,-5.925658E-1,-2.8426677E-1,2.8955624E-1,4.2797905E-1,6.9921887E-1,4.7689515E-1,5.415184E-1,8.821246E-1,3.8319495E-2,5.711882E-1,2.0870732E-1,5.7443833E-1,3.318501E-1,7.505123E-1,7.8759545E-1,3.480512E-1,7.3856014E-1,9.5773786E-1,6.3522977E-1,9.812339E-1],"split_indices":[8,4,28,17,12,12,4,12,12,5,17,31,5,16,17,19,17,5,18,19,31,0,16,5,18,13,2,18,28,11,13,31,31,28,31,5,11,0,21,6,0,8,18,24,8,16,0,22,19,0,13,0,0,28,2,8,6,0,21,22,9,2,15,0,0,0,0,0,0,0,0,0,0,0,0,0,0,0,0,0,0,0,0,0,0,0,0,0,0,0,0,0,0,0,0,0,0,0,0,0,0,0,0,0,0,0,0,0,0,0,0,0,0],"split_type":[0,0,0,0,0,0,0,0,0,0,0,0,0,0,0,0,0,0,0,0,0,0,0,0,0,0,0,0,0,0,0,0,0,0,0,0,0,0,0,0,0,0,0,0,0,0,0,0,0,0,0,0,0,0,0,0,0,0,0,0,0,0,0,0,0,0,0,0,0,0,0,0,0,0,0,0,0,0,0,0,0,0,0,0,0,0,0,0,0,0,0,0,0,0,0,0,0,0,0,0,0,0,0,0,0,0,0,0,0,0,0,0,0],"sum_hessian":[6.904E3,3.94E3,2.964E3,3.498E3,4.42E2,1.836E3,1.128E3,2.907E3,5.91E2,3.07E2,1.35E2,2.52E2,1.584E3,1.23E2,1.005E3,2.218E3,6.89E2,5.56E2,3.5E1,1.48E2,1.59E2,7.3E1,6.2E1,2.08E2,4.4E1,2.3E1,1.561E3,8.7E1,3.6E1,1.59E2,8.46E2,5.5E1,2.163E3,2.23E2,4.66E2,5.7E1,4.99E2,1.4E1,2.1E1,1.36E2,1.2E1,1.1E2,4.9E1,5.2E1,2.1E1,4.6E1,1.6E1,7.3E1,1.35E2,1.4E1,3E1,1.2E1,1.1E1,1.091E3,4.7E2,4.3E1,4.4E1,1.5E1,2.1E1,9.7E1,6.2E1,3.46E2,5E2,4.1E1,1.4E1,1.521E3,6.42E2,1.54E2,6.9E1,4.54E2,1.2E1,2.1E1,3.6E1,4.67E2,3.2E1,1E1,1.1E1,3E1,1.06E2,9.9E1,1.1E1,2.1E1,2.8E1,4E1,1.2E1,1E1,1.1E1,1.2E1,3.4E1,2.5E1,4.8E1,1.24E2,1.1E1,1.4E1,1.6E1,4.08E2,6.83E2,1.03E2,3.67E2,2.2E1,2.1E1,1.6E1,2.8E1,1E1,1.1E1,8.2E1,1.5E1,4.3E1,1.9E1,2.32E2,1.14E2,4.57E2,4.3E1],"tree_param":{"num_deleted":"0","num_feature":"34","num_nodes":"113","size_leaf_vector":"1"}},{"base_weights":[2.3498213E-2,-3.2488708E0,4.535601E0,-3.7376044E0,-7.29227E-1,3.3922808E0,6.0123057E0,-3.8549542E0,-1.6466237E0,-2.9653156E0,3.4412706E-1,-6.013005E-1,3.606709E0,5.688927E0,7.8697906E0,-4.001644E0,-3.1555493E0,-2.1168265E0,1.5937269E0,-4.160053E0,-2.1705616E0,2.9884095E0,-3.4668326E-1,6.51855E-1,-3.8987432E0,4.1530013E0,2.2525928E0,6.1963463E0,4.1586957E0,5.8276844E0,8.685775E0,-3.2980351E0,-4.089422E0,-2.217092E0,-3.6461694E0,-2.9974692E0,3.5076194E-2,5.9364694E-1,-2.2034955E-1,-5.235626E-1,-3.4727461E0,-3.0150237E0,-1.8780006E-1,5.3453245E0,1.3181456E0,-1.0983104E0,1.6142901E0,-3.2140437E-1,1.8717831E0,-2.7462846E-1,-4.9063087E-1,3.486277E0,4.9639387E0,2.066837E0,7.0691645E-1,7.6904087E0,5.826555E0,5.2865157E0,3.0579486E0,7.267152E0,4.2865357E0,9.528613E0,5.4799266E0,-1.6096918E-1,-3.7295976E-1,-1.8199758E-1,-4.1076317E-1,-2.774502E-1,2.4008512E-1,-3.7671834E-1,-1.00429095E-1,2.3529952E-2,-3.9510518E-1,-3.193094E-1,3.4020767E-1,-1.275445E-1,-4.5663452E-1,3.965849E-3,-3.4915933E-1,-2.8449875E-1,1.4140244E-1,2.3244944E-1,7.2993225E-1,-1.3079922E-1,2.3617367E-1,1.7436604E-1,-1.615945E-1,-2.2247823E-2,3.7900728E-1,-3.7644893E-2,3.4108138E-1,3.9062953E-1,1.05810486E-1,4.172177E-1,6.068213E-1,3.6297148E-1,1.5197195E-1,4.1648594E-1,8.401542E-1,5.649269E-1,9.1442853E-1,6.4977926E-1,3.0566454E-1,2.530869E-1,7.9313433E-1,8.4015954E-1,5.613627E-1,5.7449025E-1,1.7417741E-1,6.159436E-1,1.005071E0,3.032214E-1,7.562311E-1],"categories":[],"categories_nodes":[],"categories_segments":[],"categories_sizes":[],"default_left":[0,0,0,0,0,0,0,0,0,0,0,0,0,0,0,0,0,0,0,0,0,0,0,0,0,0,0,0,0,0,0,0,0,0,0,0,0,0,0,0,0,0,0,0,0,0,0,0,0,0,0,0,0,0,0,0,0,0,0,0,0,0,0,0,0,0,0,0,0,0,0,0,0,0,0,0,0,0,0,0,0,0,0,0,0,0,0,0,0,0,0,0,0,0,0,0,0,0,0,0,0,0,0,0,0,0,0,0,0,0,0,0,0],"id":6,"left_children":[1,3,5,7,9,11,13,15,17,19,21,23,25,27,29,31,33,35,37,39,41,43,45,47,49,51,53,55,57,59,61,63,65,67,69,71,73,-1,-1,-1,75,77,79,81,83,85,87,-1,89,-1,-1,91,93,95,-1,97,99,101,103,105,107,109,111,-1,-1,-1,-1,-1,-1,-1,-1,-1,-1,-1,-1,-1,-1,-1,-1,-1,-1,-1,-1,-1,-1,-1,-1,-1,-1,-1,-1,-1,-1,-1,-1,-1,-1,-1,-1,-1,-1,-1,-1,-1,-1,-1,-1,-1,-1,-1,-1,-1,-1],"loss_changes":[1.0031519E5,4.84666E3,4.8015234E3,8.0291016E2,1.539494E3,1.382582E3,7.030625E2,3.0767188E2,2.7305472E2,1.8847095E2,7.938229E2,3.455147E2,1.1224531E3,8.0039844E2,2.5265332E2,1.4567188E2,2.433086E2,2.9383905E2,3.923592E2,4.24364E1,2.1207831E2,3.472544E2,5.102756E2,2.9369922E2,1.3232941E1,5.714863E2,3.8084937E2,3.9552734E2,3.1654102E2,9.0862915E1,2.936416E2,2.0602686E2,8.703516E1,4.9573785E2,1.10350586E2,3.400279E2,5.1084866E2,0E0,0E0,0E0,1.2153314E2,1.2970184E2,1.7002043E2,2.014325E2,1.5108229E2,3.7059335E2,3.844984E2,0E0,1.6390862E2,0E0,0E0,6.08812E2,4.022256E2,3.596018E2,0E0,3.5361426E2,3.2654688E2,3.339685E2,3.3440308E2,3.4841309E0,9.761835E1,1.1399707E2,1.24884766E2,0E0,0E0,0E0,0E0,0E0,0E0,0E0,0E0,0E0,0E0,0E0,0E0,0E0,0E0,0E0,0E0,0E0,0E0,0E0,0E0,0E0,0E0,0E0,0E0,0E0,0E0,0E0,0E0,0E0,0E0,0E0,0E0,0E0,0E0,0E0,0E0,0E0,0E0,0E0,0E0,0E0,0E0,0E0,0E0,0E0,0E0,0E0,0E0,0E0,0E0],"parents":[2147483647,0,0,1,1,2,2,3,3,4,4,5,5,6,6,7,7,8,8,9,9,10,10,11,11,12,12,13,13,14,14,15,15,16,16,17,17,18,18,19,19,20,20,21,21,22,22,23,23,24,24,25,25,26,26,27,27,28,28,29,29,30,30,31,31,32,32,33,33,34,34,35,35,36,36,40,40,41,41,42,42,43,43,44,44,45,45,46,46,48,48,51,51,52,52,53,53,55,55,56,56,57,57,58,58,59,59,60,60,61,61,62,62],"right_children":[2,4,6,8,10,12,14,16,18,20,22,24,26,28,30,32,34,36,38,40,42,44,46,48,50,52,54,56,58,60,62,64,66,68,70,72,74,-1,-1,-1,76,78,80,82,84,86,88,-1,90,-1,-1,92,94,96,-1,98,100,102,104,106,108,110,112,-1,-1,-1,-1,-1,-1,-1,-1,-1,-1,-1,-1,-1,-1,-1,-1,-1,-1,-1,-1,-1,-1,-1,-1,-1,-1,-1,-1,-1,-1,-1,-1,-1,-1,-1,-1,-1,-1,-1,-1,-1,-1,-1,-1,-1,-1,-1,-1,-1,-1],"split_conditions":[9.806666E0,3.2E-2,1.8766666E1,6.285714E0,4.3333335E0,1.45E-1,2.756E1,1.0857142E1,1.935E2,4.0491805E0,1E1,1.13E0,7.171429E-1,3.1819048E0,1.3142858E1,2.2E1,4E0,2.53E2,1.32E2,4.3333335E0,1.5666667E0,3.7142856E0,4.6285716E-1,1.6866667E2,1.625E0,1.5193334E1,4.6E1,-1.4657143E0,7.101103E0,4.149254E0,3.362E1,1.47E1,-5.714286E-1,1.2914285E2,1.5E1,7.857143E0,3E0,5.9364694E-1,-2.2034955E-1,-5.235626E-1,8.333333E0,6.666667E-2,6.853211E0,1.4705882E-2,6.7830687E0,-1.1904762E0,3.4285715E0,-3.2140437E-1,7.647059E-1,-2.7462846E-1,-4.9063087E-1,1.45E2,3.4666668E1,6E0,7.0691645E-1,-1.1E2,8.031307E0,5.3E1,1.3666667E1,3.7333332E1,7.9125E-1,6.7516556E0,6.9767445E-2,-1.6096918E-1,-3.7295976E-1,-1.8199758E-1,-4.1076317E-1,-2.774502E-1,2.4008512E-1,-3.7671834E-1,-1.00429095E-1,2.3529952E-2,-3.9510518E-1,-3.193094E-1,3.4020767E-1,-1.275445E-1,-4.5663452E-1,3.965849E-3,-3.4915933E-1,-2.8449875E-1,1.4140244E-1,2.3244944E-1,7.2993225E-1,-1.3079922E-1,2.3617367E-1,1.7436604E-1,-1.615945E-1,-2.2247823E-2,3.7900728E-1,-3.7644893E-2,3.4108138E-1,3.9062953E-1,1.05810486E-1,4.172177E-1,6.068213E-1,3.6297148E-1,1.5197195E-1,4.1648594E-1,8.401542E-1,5.649269E-1,9.1442853E-1,6.4977926E-1,3.0566454E-1,2.530869E-1,7.9313433E-1,8.4015954E-1,5.613627E-1,5.7449025E-1,1.7417741E-1,6.159436E-1,1.005071E0,3.032214E-1,7.562311E-1],"split_indices":[26,4,26,17,8,4,26,12,12,25,32,27,27,27,17,32,31,32,11,0,26,17,4,11,21,26,16,27,20,25,26,24,12,12,31,17,31,0,0,0,11,26,20,3,20,18,17,0,22,0,0,32,8,32,0,6,20,6,18,8,4,20,2,0,0,0,0,0,0,0,0,0,0,0,0,0,0,0,0,0,0,0,0,0,0,0,0,0,0,0,0,0,0,0,0,0,0,0,0,0,0,0,0,0,0,0,0,0,0,0,0,0,0],"split_type":[0,0,0,0,0,0,0,0,0,0,0,0,0,0,0,0,0,0,0,0,0,0,0,0,0,0,0,0,0,0,0,0,0,0,0,0,0,0,0,0,0,0,0,0,0,0,0,0,0,0,0,0,0,0,0,0,0,0,0,0,0,0,0,0,0,0,0,0,0,0,0,0,0,0,0,0,0,0,0,0,0,0,0,0,0,0,0,0,0,0,0,0,0,0,0,0,0,0,0,0,0,0,0,0,0,0,0,0,0,0,0,0,0],"sum_hessian":[6.792E3,3.937E3,2.855E3,3.297E3,6.4E2,1.611E3,1.244E3,3.121E3,1.76E2,2.07E2,4.33E2,8.2E1,1.529E3,1.063E3,1.81E2,2.576E3,5.45E2,1.54E2,2.2E1,8.1E1,1.26E2,8.9E1,3.44E2,6E1,2.2E1,1.088E3,4.41E2,7.96E2,2.67E2,5.4E1,1.27E2,2.9E2,2.286E3,1.89E2,3.56E2,1.09E2,4.5E1,1E1,1.2E1,2.9E1,5.2E1,8.8E1,3.8E1,3.6E1,5.3E1,2.49E2,9.5E1,1.4E1,4.6E1,1.2E1,1E1,6E2,4.88E2,4.26E2,1.5E1,1.54E2,6.42E2,1.3E2,1.37E2,2.6E1,2.8E1,9.9E1,2.8E1,6E1,2.3E2,1.9E1,2.267E3,1.69E2,2E1,3.4E2,1.6E1,2.5E1,8.4E1,2.3E1,2.2E1,1.8E1,3.4E1,1.2E1,7.6E1,1.4E1,2.4E1,1.5E1,2.1E1,1.5E1,3.8E1,3.8E1,2.11E2,5.2E1,4.3E1,1.9E1,2.7E1,5.11E2,8.9E1,2.87E2,2.01E2,1.09E2,3.17E2,2.7E1,1.27E2,6.12E2,3E1,8.3E1,4.7E1,1.25E2,1.2E1,1.3E1,1.3E1,1.7E1,1.1E1,1.5E1,8.4E1,1.4E1,1.4E1],"tree_param":{"num_deleted":"0","num_feature":"34","num_nodes":"113","size_leaf_vector":"1"}},{"base_weights":[7.387064E-2,-2.9407356E0,4.149417E0,-3.3567405E0,-6.0189307E-1,3.2641842E0,5.4813557E0,-3.4601853E0,-1.6955805E0,-9.3157834E-1,3.6136754E0,-1.3425468E0,3.4529066E0,2.520306E0,5.691496E0,-2.8126714E0,-3.589153E0,-2.023215E0,3.4967506E-1,-1.4415557E0,1.1837634E0,5.4444045E-1,2.0777743E0,-2.9045796E0,2.366127E0,4.202124E0,2.7845364E0,3.296108E0,-1.6122514E-1,4.319854E0,6.0301714E0,-2.9446356E0,1.2806605E-1,-2.7932804E0,-3.6375475E0,1.8547271E-1,-2.9350824E0,-2.2431486E0,-4.1470143E-1,2.507348E-1,5.229901E-1,3.5445967E-1,-1.1132674E-2,-3.7517958E0,3.632395E-2,1.16173485E-2,4.400978E-1,4.0379806E0,7.3182535E0,2.4126244E0,5.709166E0,4.2723427E0,8.37151E-2,3.938338E0,9.543268E-1,6.745292E0,5.1085663E0,7.015989E-2,-3.042207E-1,-3.7178534E-1,-2.0098828E-1,-3.0171916E-1,-3.7088165E-1,5.359944E-1,-1.0835197E-1,-1.0381267E-1,-3.8825297E-1,-2.775478E-1,-9.53949E-2,4.5921724E-2,-2.0172083E-1,2.1979876E-1,-1.4177673E-1,-4.967557E-1,-2.0553416E-2,3.512117E-1,4.8685914E-1,3.7863192E-1,9.7148275E-1,1.52538E-1,3.136141E-1,6.853019E-1,3.7736744E-1,2.4094723E-1,6.27972E-1,3.4058502E-1,6.6773874E-1,5.423154E-1,7.2902256E-1,2.1903034E-1,5.4951876E-1],"categories":[],"categories_nodes":[],"categories_segments":[],"categories_sizes":[],"default_left":[0,0,0,0,0,0,0,0,0,0,0,0,0,0,0,0,0,0,0,0,0,0,0,0,0,0,0,0,0,0,0,0,0,0,0,0,0,0,0,0,0,0,0,0,0,0,0,0,0,0,0,0,0,0,0,0,0,0,0,0,0,0,0,0,0,0,0,0,0,0,0,0,0,0,0,0,0,0,0,0,0,0,0,0,0,0,0,0,0,0,0],"id":7,"left_children":[1,3,5,7,9,11,13,15,17,19,21,23,25,27,29,31,33,35,-1,37,39,-1,41,43,45,47,49,51,-1,53,55,57,-1,59,61,63,65,67,69,71,-1,-1,-1,73,-1,-1,-1,75,77,79,81,83,-1,85,-1,87,89,-1,-1,-1,-1,-1,-1,-1,-1,-1,-1,-1,-1,-1,-1,-1,-1,-1,-1,-1,-1,-1,-1,-1,-1,-1,-1,-1,-1,-1,-1,-1,-1,-1,-1],"loss_changes":[8.333699E4,3.7915898E3,3.3825625E3,5.629219E2,8.2335486E2,1.5130332E3,7.012344E2,2.5003516E2,3.405074E2,5.92876E2,1.0959595E2,4.0659442E2,8.230586E2,2.5538583E2,4.7240234E2,2.857417E2,8.974609E1,3.7313995E2,0E0,3.6288837E2,4.0263098E2,0E0,8.0670166E1,1.370217E2,9.5633446E1,3.7145898E2,9.4775684E2,1.5485767E2,0E0,3.9286328E2,5.310137E2,1.8215332E2,0E0,1.0334668E2,9.677734E1,3.6695764E2,2.3141125E2,1.6754944E2,2.7401614E2,2.890278E2,0E0,0E0,0E0,1.671239E2,0E0,0E0,0E0,3.0918066E2,2.8486902E2,4.9977783E2,1.9331665E2,1.6062488E2,0E0,2.7333545E2,0E0,3.0629297E2,4.1557617E2,0E0,0E0,0E0,0E0,0E0,0E0,0E0,0E0,0E0,0E0,0E0,0E0,0E0,0E0,0E0,0E0,0E0,0E0,0E0,0E0,0E0,0E0,0E0,0E0,0E0,0E0,0E0,0E0,0E0,0E0,0E0,0E0,0E0,0E0],"parents":[2147483647,0,0,1,1,2,2,3,3,4,4,5,5,6,6,7,7,8,8,9,9,10,10,11,11,12,12,13,13,14,14,15,15,16,16,17,17,19,19,20,20,22,22,23,23,24,24,25,25,26,26,27,27,29,29,30,30,31,31,33,33,34,34,35,35,36,36,37,37,38,38,39,39,43,43,47,47,48,48,49,49,50,50,51,51,53,53,55,55,56,56],"right_children":[2,4,6,8,10,12,14,16,18,20,22,24,26,28,30,32,34,36,-1,38,40,-1,42,44,46,48,50,52,-1,54,56,58,-1,60,62,64,66,68,70,72,-1,-1,-1,74,-1,-1,-1,76,78,80,82,84,-1,86,-1,88,90,-1,-1,-1,-1,-1,-1,-1,-1,-1,-1,-1,-1,-1,-1,-1,-1,-1,-1,-1,-1,-1,-1,-1,-1,-1,-1,-1,-1,-1,-1,-1,-1,-1,-1],"split_conditions":[9.54E0,3.1E0,1.9296E1,6.142857E0,3.0714285E1,4E0,2.2736841E-1,3.9E1,2.62E1,7E0,8.133333E0,5.888889E0,1.5E1,2.3E1,5.714286E0,1.5E1,-2.1E1,-6.942857E1,3.4967506E-1,1E2,8.08E0,5.4444045E-1,4.082192E0,-1.47E2,1.5333333E1,6.5733333E0,1.4E1,2.25E1,-1.6122514E-1,2E1,2.4375E0,1.117647E0,1.2806605E-1,-9.9E1,1.35E1,5.908E0,1.1428572E0,1.5333333E1,8E0,-1.11428574E-1,5.229901E-1,3.5445967E-1,-1.1132674E-2,1.3053333E1,3.632395E-2,1.16173485E-2,4.400978E-1,3.45E1,-1.9E1,6.285714E0,5.3E1,7.21875E0,8.37151E-2,1.0625E0,9.543268E-1,6E0,5.464286E0,7.015989E-2,-3.042207E-1,-3.7178534E-1,-2.0098828E-1,-3.0171916E-1,-3.7088165E-1,5.359944E-1,-1.0835197E-1,-1.0381267E-1,-3.8825297E-1,-2.775478E-1,-9.53949E-2,4.5921724E-2,-2.0172083E-1,2.1979876E-1,-1.4177673E-1,-4.967557E-1,-2.0553416E-2,3.512117E-1,4.8685914E-1,3.7863192E-1,9.7148275E-1,1.52538E-1,3.136141E-1,6.853019E-1,3.7736744E-1,2.4094723E-1,6.27972E-1,3.4058502E-1,6.6773874E-1,5.423154E-1,7.2902256E-1,2.1903034E-1,5.4951876E-1],"split_indices":[26,1,28,17,9,1,4,32,17,17,26,0,32,16,17,31,6,13,0,6,1,0,25,6,17,27,31,19,0,31,23,21,0,6,19,28,9,8,31,27,0,0,0,26,0,0,0,8,6,17,6,0,0,22,0,32,1,0,0,0,0,0,0,0,0,0,0,0,0,0,0,0,0,0,0,0,0,0,0,0,0,0,0,0,0,0,0,0,0,0,0],"split_type":[0,0,0,0,0,0,0,0,0,0,0,0,0,0,0,0,0,0,0,0,0,0,0,0,0,0,0,0,0,0,0,0,0,0,0,0,0,0,0,0,0,0,0,0,0,0,0,0,0,0,0,0,0,0,0,0,0,0,0,0,0,0,0,0,0,0,0,0,0,0,0,0,0,0,0,0,0,0,0,0,0,0,0,0,0,0,0,0,0,0,0],"sum_hessian":[6.781E3,3.898E3,2.883E3,3.309E3,5.89E2,1.734E3,1.149E3,3.114E3,1.95E2,5.47E2,4.2E1,6.8E1,1.666E3,7.7E1,1.072E3,5.21E2,2.593E3,1.84E2,1.1E1,4.41E2,1.06E2,1.8E1,2.4E1,4.8E1,2E1,7.83E2,8.83E2,6.5E1,1.2E1,2.15E2,8.57E2,5.05E2,1.6E1,1.52E2,2.441E3,5.4E1,1.3E2,2.47E2,1.94E2,8.7E1,1.9E1,1.4E1,1E1,3.8E1,1E1,1E1,1E1,7.46E2,3.7E1,7.85E2,9.8E1,4.6E1,1.9E1,2.02E2,1.3E1,4.79E2,3.78E2,1.3E1,4.92E2,6.8E1,8.4E1,2.56E2,2.185E3,1E1,4.4E1,4.4E1,8.6E1,1.74E2,7.3E1,1.26E2,6.8E1,4E1,4.7E1,2.8E1,1E1,4.6E2,2.86E2,1.6E1,2.1E1,3.54E2,4.31E2,6E1,3.8E1,2.5E1,2.1E1,1.71E2,3.1E1,1.43E2,3.36E2,4.5E1,3.33E2],"tree_param":{"num_deleted":"0","num_feature":"34","num_nodes":"91","size_leaf_vector":"1"}},{"base_weights":[-3.42228E-2,-2.6406186E0,3.6097891E0,-3.0579312E0,-9.7955334E-1,2.265118E0,4.420932E0,-3.1991704E0,-2.3173492E0,-2.3065507E0,-6.95455E-2,-1.2302673E0,2.5447204E0,6.2727423E0,4.202276E0,-2.6183224E0,-3.271529E0,-9.283104E-1,-2.527994E0,6.799369E-1,-2.6125662E0,1.1372478E0,-9.214047E-1,1.206276E0,-2.8797603E0,4.9931216E-1,2.8942893E0,2.5996633E0,6.8570213E0,3.8739998E0,5.825323E0,-2.8908696E0,-8.7527317E-1,-6.740056E-2,-3.2856054E0,-2.0340145E0,5.0866765E-1,-3.0654795E0,-1.7075636E0,-1.8405257E-1,4.8240468E-1,-2.8324382E0,1.1080779E-1,3.2412586E0,2.3599686E-1,-2.7919145E0,-3.629139E-1,-1.9195966E-1,3.9178142E-1,-5.4694773E-3,-4.427225E0,1.2291136E0,-5.956228E-1,2.767568E0,6.0352345E0,5.0353426E-1,-2.1706377E-3,2.9933214E-1,7.152063E0,3.0475051E0,4.2457523E0,4.7865405E0,7.022002E0,-3.0789968E-1,3.7459634E-2,1.2772323E-1,-2.2490163E-1,-3.6324188E-1,-3.1766644E-1,1.3089642E-1,-3.1031406E-1,-5.016181E-1,-2.8872195E-1,5.309215E-2,-2.5619563E-1,-1.4724396E-1,-3.2418522E-1,2.570592E-1,-2.806283E-1,5.145234E-1,2.5024367E-2,9.7200796E-2,-3.51832E-1,1.6672E-2,-3.8656062E-1,2.741582E-1,-7.836153E-2,-2.365212E-1,-5.986224E-1,7.66773E-2,5.402326E-1,3.0381066E-1,1.4946751E-1,7.7602816E-1,2.917067E-1,7.797183E-1,4.6871898E-1,3.2547176E-1,-1.4316307E-1,4.6556902E-1,3.191741E-1,6.862468E-1,4.0379548E-1,7.9344183E-1,4.3484566E-1],"categories":[],"categories_nodes":[],"categories_segments":[],"categories_sizes":[],"default_left":[0,0,0,0,0,0,0,0,0,0,0,0,0,0,0,0,0,0,0,0,0,0,0,0,0,0,0,0,0,0,0,0,0,0,0,0,0,0,0,0,0,0,0,0,0,0,0,0,0,0,0,0,0,0,0,0,0,0,0,0,0,0,0,0,0,0,0,0,0,0,0,0,0,0,0,0,0,0,0,0,0,0,0,0,0,0,0,0,0,0,0,0,0,0,0,0,0,0,0,0,0,0,0,0,0],"id":8,"left_children":[1,3,5,7,9,11,13,15,17,19,21,23,25,27,29,31,33,35,37,39,41,43,45,47,49,51,53,55,57,59,61,63,65,-1,67,69,-1,71,73,-1,-1,75,77,79,81,83,85,-1,-1,-1,87,89,-1,91,93,-1,-1,-1,95,97,99,101,103,-1,-1,-1,-1,-1,-1,-1,-1,-1,-1,-1,-1,-1,-1,-1,-1,-1,-1,-1,-1,-1,-1,-1,-1,-1,-1,-1,-1,-1,-1,-1,-1,-1,-1,-1,-1,-1,-1,-1,-1,-1,-1],"loss_changes":[6.4708117E4,2.750332E3,3.0887227E3,3.2458398E2,9.646946E2,1.0498389E3,6.9073047E2,1.0335742E2,1.4746143E2,2.987976E2,4.8935645E2,3.249987E2,7.078457E2,3.7920312E2,8.23E2,1.3998853E2,8.42207E1,4.692513E2,1.9055566E2,3.326761E2,1.7695813E2,3.7279468E2,2.9044757E2,2.8722604E2,2.095989E2,6.9516516E2,3.2042334E2,1.724993E2,1.5984326E2,3.935547E2,2.958086E2,1.602627E2,1.2706607E2,0E0,7.728711E1,2.1493176E2,0E0,7.836182E1,3.4179327E2,0E0,0E0,1.472334E2,1.722483E2,3.3470667E2,3.8750726E2,2.0395071E2,2.8425858E2,0E0,0E0,0E0,8.549634E1,2.5054443E2,0E0,2.764624E2,1.4949023E2,0E0,0E0,0E0,1.9720361E2,3.88906E2,3.7833203E2,1.976211E2,2.606631E2,0E0,0E0,0E0,0E0,0E0,0E0,0E0,0E0,0E0,0E0,0E0,0E0,0E0,0E0,0E0,0E0,0E0,0E0,0E0,0E0,0E0,0E0,0E0,0E0,0E0,0E0,0E0,0E0,0E0,0E0,0E0,0E0,0E0,0E0,0E0,0E0,0E0,0E0,0E0,0E0,0E0,0E0],"parents":[2147483647,0,0,1,1,2,2,3,3,4,4,5,5,6,6,7,7,8,8,9,9,10,10,11,11,12,12,13,13,14,14,15,15,16,16,17,17,18,18,19,19,20,20,21,21,22,22,23,23,24,24,25,25,26,26,27,27,28,28,29,29,30,30,31,31,32,32,34,34,35,35,37,37,38,38,41,41,42,42,43,43,44,44,45,45,46,46,50,50,51,51,53,53,54,54,58,58,59,59,60,60,61,61,62,62],"right_children":[2,4,6,8,10,12,14,16,18,20,22,24,26,28,30,32,34,36,38,40,42,44,46,48,50,52,54,56,58,60,62,64,66,-1,68,70,-1,72,74,-1,-1,76,78,80,82,84,86,-1,-1,-1,88,90,-1,92,94,-1,-1,-1,96,98,100,102,104,-1,-1,-1,-1,-1,-1,-1,-1,-1,-1,-1,-1,-1,-1,-1,-1,-1,-1,-1,-1,-1,-1,-1,-1,-1,-1,-1,-1,-1,-1,-1,-1,-1,-1,-1,-1,-1,-1,-1,-1,-1,-1],"split_conditions":[9.806666E0,1.36E0,1.6386667E1,1E1,2.5E0,4.1666665E0,-2.5142858E0,2.2E1,1E1,5E0,6.8E1,-1.1904762E0,1.6442857E2,3.1428572E1,2.6366667E1,1E0,-2.5714285E0,6E0,-5.1714283E-1,3.06E0,2.0628572E2,2E0,1.03E2,2.315E2,5E0,6.557377E-2,2.162E1,2.5294118E0,2.7586207E0,1.8766666E1,2.4E1,1.3E1,2.1875E0,-6.740056E-2,2E0,4E0,5.0866765E-1,-1.1333333E1,-1.3714285E-1,-1.8405257E-1,4.8240468E-1,6.8287196E0,-4.9257145E0,1.275E0,9E0,-4.350706E0,-2.5714285E0,-1.9195966E-1,3.9178142E-1,-5.4694773E-3,7.0089765E0,1.2571428E1,-5.956228E-1,5E-2,2.7777778E-2,5.0353426E-1,-2.1706377E-3,2.9933214E-1,2.875E0,1.0869565E-1,3.0303031E-2,-5E0,1.3333334E-1,-3.0789968E-1,3.7459634E-2,1.2772323E-1,-2.2490163E-1,-3.6324188E-1,-3.1766644E-1,1.3089642E-1,-3.1031406E-1,-5.016181E-1,-2.8872195E-1,5.309215E-2,-2.5619563E-1,-1.4724396E-1,-3.2418522E-1,2.570592E-1,-2.806283E-1,5.145234E-1,2.5024367E-2,9.7200796E-2,-3.51832E-1,1.6672E-2,-3.8656062E-1,2.741582E-1,-7.836153E-2,-2.365212E-1,-5.986224E-1,7.66773E-2,5.402326E-1,3.0381066E-1,1.4946751E-1,7.7602816E-1,2.917067E-1,7.797183E-1,4.6871898E-1,3.2547176E-1,-1.4316307E-1,4.6556902E-1,3.191741E-1,6.862468E-1,4.0379548E-1,7.9344183E-1,4.3484566E-1],"split_indices":[26,26,26,12,1,1,27,32,32,12,32,18,12,9,26,29,18,32,27,28,12,17,32,12,31,3,28,23,25,26,17,31,23,0,31,31,0,18,27,0,0,20,27,27,31,7,18,0,0,0,20,18,0,3,3,0,0,0,23,2,3,13,14,0,0,0,0,0,0,0,0,0,0,0,0,0,0,0,0,0,0,0,0,0,0,0,0,0,0,0,0,0,0,0,0,0,0,0,0,0,0,0,0,0,0],"split_type":[0,0,0,0,0,0,0,0,0,0,0,0,0,0,0,0,0,0,0,0,0,0,0,0,0,0,0,0,0,0,0,0,0,0,0,0,0,0,0,0,0,0,0,0,0,0,0,0,0,0,0,0,0,0,0,0,0,0,0,0,0,0,0,0,0,0,0,0,0,0,0,0,0,0,0,0,0,0,0,0,0,0,0,0,0,0,0,0,0,0,0,0,0,0,0,0,0,0,0,0,0,0,0,0,0],"sum_hessian":[6.811E3,3.971E3,2.84E3,3.173E3,7.98E2,1.07E3,1.77E3,2.662E3,5.11E2,3.24E2,4.74E2,7.9E1,9.91E2,1.84E2,1.586E3,2.99E2,2.363E3,6.8E1,4.43E2,3E1,2.94E2,1.96E2,2.78E2,3.2E1,4.7E1,1.45E2,8.46E2,2.6E1,1.58E2,1.322E3,2.64E2,2.58E2,4.1E1,1.3E1,2.35E3,5.8E1,1E1,2.66E2,1.77E2,1.9E1,1.1E1,2.72E2,2.2E1,5.8E1,1.38E2,6.3E1,2.15E2,1.5E1,1.7E1,1.7E1,3E1,1.31E2,1.4E1,8.15E2,3.1E1,1.3E1,1.3E1,1.2E1,1.46E2,4.13E2,9.09E2,1.44E2,1.2E2,2.44E2,1.4E1,1.6E1,2.5E1,5.54E2,1.796E3,1.4E1,4.4E1,2E1,2.46E2,4.9E1,1.28E2,6.4E1,2.08E2,1.2E1,1E1,3.5E1,2.3E1,1.16E2,2.2E1,1.7E1,4.6E1,2.5E1,1.9E2,1.4E1,1.6E1,1.19E2,1.2E1,6.71E2,1.44E2,1.9E1,1.2E1,1.14E2,3.2E1,3.95E2,1.8E1,6.52E2,2.57E2,3.6E1,1.08E2,8.8E1,3.2E1],"tree_param":{"num_deleted":"0","num_feature":"34","num_nodes":"105","size_leaf_vector":"1"}},{"base_weights":[-2.0577123E-2,-2.5301745E0,3.0589783E0,-2.7657163E0,-9.441563E-1,1.5645986E0,3.849644E0,-1.5838757E0,-2.870362E0,-1.1099354E0,5.682797E-1,-3.9638004E-1,1.9870374E0,3.4879138E0,5.023414E0,2.1301773E0,-2.4494648E0,-2.9070563E0,-7.827921E-1,-1.7321707E0,6.9956475E-1,-2.5378072E0,6.0270536E-1,2.5437574E0,5.747964E-1,1.1375033E0,3.600133E0,5.1586113E0,6.055652E-2,6.374507E-2,4.851213E0,-2.6620572E0,1.0913735E-1,-1.71249E0,-2.9403362E0,-1.5682356E0,2.031493E-1,8.733512E-1,-2.2056541E0,1.7962661E0,-2.441041E0,3.1917863E-2,-3.4972289E0,1.4276402E0,-3.9645717E-1,3.4864745E0,1.5928872E0,-1.8941623E0,1.242899E0,-1.2120315E0,2.7886589E0,3.5106761E0,6.1510587E0,5.633156E0,3.839646E0,2.5730857E-1,-1.5244566E-1,1.6676967E-1,7.365169E-1,-2.9834566E-1,1.4701337E-2,-2.3581855E-1,2.6695627E-1,-6.510085E-2,-2.9538155E-1,-3.1486806E-1,1.6214654E-2,2.6141718E-1,-1.8567057E-1,-2.5034568E-1,2.5824532E-1,5.652265E-2,4.6933514E-1,-4.5000616E-1,1.9251974E-2,-2.3287776E-1,-5.9181726E-1,2.7659277E-2,3.6911502E-1,2.631989E-1,4.9273583E-1,1.291989E-1,5.149834E-1,-4.521582E-1,1.00821905E-1,1.6150297E-1,-2.5061104E-1,7.11351E-2,-4.598906E-1,5.837262E-1,1.0558837E-1,4.4245884E-1,3.289152E-1,7.6827157E-1,1.882556E-1,5.3635716E-1,7.9050505E-1,1.3570718E-1,5.305118E-1],"categories":[],"categories_nodes":[],"categories_segments":[],"categories_sizes":[],"default_left":[0,0,0,0,0,0,0,0,0,0,0,0,0,0,0,0,0,0,0,0,0,0,0,0,0,0,0,0,0,0,0,0,0,0,0,0,0,0,0,0,0,0,0,0,0,0,0,0,0,0,0,0,0,0,0,0,0,0,0,0,0,0,0,0,0,0,0,0,0,0,0,0,0,0,0,0,0,0,0,0,0,0,0,0,0,0,0,0,0,0,0,0,0,0,0,0,0,0,0],"id":9,"left_children":[1,3,5,7,9,11,13,15,17,19,-1,21,23,25,27,29,31,33,35,37,39,41,43,45,47,49,51,53,-1,55,57,59,-1,61,63,65,-1,67,69,71,73,-1,75,77,-1,79,81,83,85,87,89,91,93,95,97,-1,-1,-1,-1,-1,-1,-1,-1,-1,-1,-1,-1,-1,-1,-1,-1,-1,-1,-1,-1,-1,-1,-1,-1,-1,-1,-1,-1,-1,-1,-1,-1,-1,-1,-1,-1,-1,-1,-1,-1,-1,-1,-1,-1],"loss_changes":[5.244524E4,1.3941797E3,3.5941738E3,3.9801367E2,5.391334E2,8.755713E2,8.2825977E2,8.6358093E2,2.266875E2,5.349049E2,0E0,4.0374966E2,6.817654E2,3.984043E2,2.7580664E2,2.8645532E2,1.662533E2,1.1172656E2,1.20340355E2,4.3741223E2,4.2459015E2,1.655795E2,4.916941E2,5.529048E2,4.0978513E2,2.7882074E2,3.106621E2,2.6190625E2,0E0,1.2348271E2,1.6378796E2,1.8551941E2,0E0,2.3831206E2,8.6208984E1,1.1537104E2,0E0,2.662434E2,4.3281213E2,3.218921E2,1.7438817E2,0E0,1.1351184E2,2.8557388E2,0E0,3.7117017E2,3.2727362E2,4.0872476E2,2.7609616E2,1.986991E2,2.1570343E2,2.7070312E2,2.993551E2,1.6032715E2,4.4029236E2,0E0,0E0,0E0,0E0,0E0,0E0,0E0,0E0,0E0,0E0,0E0,0E0,0E0,0E0,0E0,0E0,0E0,0E0,0E0,0E0,0E0,0E0,0E0,0E0,0E0,0E0,0E0,0E0,0E0,0E0,0E0,0E0,0E0,0E0,0E0,0E0,0E0,0E0,0E0,0E0,0E0,0E0,0E0,0E0],"parents":[2147483647,0,0,1,1,2,2,3,3,4,4,5,5,6,6,7,7,8,8,9,9,11,11,12,12,13,13,14,14,15,15,16,16,17,17,18,18,19,19,20,20,21,21,22,22,23,23,24,24,25,25,26,26,27,27,29,29,30,30,31,31,33,33,34,34,35,35,37,37,38,38,39,39,40,40,42,42,43,43,45,45,46,46,47,47,48,48,49,49,50,50,51,51,52,52,53,53,54,54],"right_children":[2,4,6,8,10,12,14,16,18,20,-1,22,24,26,28,30,32,34,36,38,40,42,44,46,48,50,52,54,-1,56,58,60,-1,62,64,66,-1,68,70,72,74,-1,76,78,-1,80,82,84,86,88,90,92,94,96,98,-1,-1,-1,-1,-1,-1,-1,-1,-1,-1,-1,-1,-1,-1,-1,-1,-1,-1,-1,-1,-1,-1,-1,-1,-1,-1,-1,-1,-1,-1,-1,-1,-1,-1,-1,-1,-1,-1,-1,-1,-1,-1,-1,-1],"split_conditions":[7.84E0,2.5E0,1.5193334E1,1E1,2.857143E-1,-1.2E1,2.3424E1,4E0,5.5866666E0,2.3E1,5.682797E-1,1.7775E2,6.4666665E-1,1.5857143E2,1E0,5.7857143E1,6E0,-4.6666665E0,2.5294118E0,-1.0476191E0,4.947619E1,1.3333334E0,1.03E2,2.05E1,3.5526316E0,2.3529413E0,1.3666667E1,3.2786883E-2,6.055652E-2,4.385965E0,2.2941177E0,9E0,1.0913735E-1,-5.833333E-1,-5.714286E-1,1.64E2,2.031493E-1,7.1563573E0,1.9033333E2,7.3474264E0,2.4933333E0,3.1917863E-2,4.586207E0,8E0,-3.9645717E-1,6.363672E-1,1.764706E-1,7.1742425E0,1.2E1,1.2380953E1,6.15625E0,-1E0,5.108108E0,2.1875E0,-7E0,2.5730857E-1,-1.5244566E-1,1.6676967E-1,7.365169E-1,-2.9834566E-1,1.4701337E-2,-2.3581855E-1,2.6695627E-1,-6.510085E-2,-2.9538155E-1,-3.1486806E-1,1.6214654E-2,2.6141718E-1,-1.8567057E-1,-2.5034568E-1,2.5824532E-1,5.652265E-2,4.6933514E-1,-4.5000616E-1,1.9251974E-2,-2.3287776E-1,-5.9181726E-1,2.7659277E-2,3.6911502E-1,2.631989E-1,4.9273583E-1,1.291989E-1,5.149834E-1,-4.521582E-1,1.00821905E-1,1.6150297E-1,-2.5061104E-1,7.11351E-2,-4.598906E-1,5.837262E-1,1.0558837E-1,4.4245884E-1,3.289152E-1,7.6827157E-1,1.882556E-1,5.3635716E-1,7.9050505E-1,1.3570718E-1,5.305118E-1],"split_indices":[26,1,26,32,14,5,28,31,26,5,0,12,27,12,29,12,32,18,23,18,13,16,32,19,25,23,18,3,0,25,23,31,0,10,12,32,0,20,11,20,27,0,25,31,0,7,14,20,31,10,1,27,25,21,5,0,0,0,0,0,0,0,0,0,0,0,0,0,0,0,0,0,0,0,0,0,0,0,0,0,0,0,0,0,0,0,0,0,0,0,0,0,0,0,0,0,0,0,0],"split_type":[0,0,0,0,0,0,0,0,0,0,0,0,0,0,0,0,0,0,0,0,0,0,0,0,0,0,0,0,0,0,0,0,0,0,0,0,0,0,0,0,0,0,0,0,0,0,0,0,0,0,0,0,0,0,0,0,0,0,0,0,0,0,0,0,0,0,0,0,0,0,0,0,0,0,0,0,0,0,0,0,0,0,0,0,0,0,0,0,0,0,0,0,0,0,0,0,0,0,0],"sum_hessian":[6.784E3,3.738E3,3.046E3,3.254E3,4.84E2,1.055E3,1.991E3,2.66E2,2.988E3,4.73E2,1.1E1,1.87E2,8.68E2,1.525E3,4.66E2,5E1,2.16E2,2.936E3,5.2E1,3.52E2,1.21E2,5.9E1,1.28E2,6.22E2,2.46E2,7E1,1.455E3,4.52E2,1.4E1,2.9E1,2.1E1,2.04E2,1.2E1,8.1E1,2.855E3,4.1E1,1.1E1,5.4E1,2.98E2,9E1,3.1E1,1.5E1,4.4E1,1.09E2,1.9E1,3.11E2,3.11E2,5.2E1,1.94E2,2.9E1,4.1E1,1.408E3,4.7E1,3.3E2,1.22E2,1.1E1,1.8E1,1E1,1.1E1,1.83E2,2.1E1,7.1E1,1E1,1.7E1,2.838E3,2.1E1,2E1,3.3E1,2.1E1,2.81E2,1.7E1,6.4E1,2.6E1,1.7E1,1.4E1,3.1E1,1.3E1,7.3E1,3.6E1,1.97E2,1.14E2,2.88E2,2.3E1,2.7E1,2.5E1,1.77E2,1.7E1,1.9E1,1E1,1.4E1,2.7E1,2.71E2,1.137E3,3.4E1,1.3E1,2.98E2,3.2E1,4.6E1,7.6E1],"tree_param":{"num_deleted":"0","num_feature":"34","num_nodes":"99","size_leaf_vector":"1"}},{"base_weights":[1.669381E-2,-2.1405265E0,2.9377694E0,-2.4599965E0,-8.199262E-1,2.1503184E0,4.0257754E0,-2.5351672E0,-1.460719E0,3.142317E-1,-1.508671E0,-1.155204E0,2.3176503E0,4.1799493E0,1.7169003E0,-2.2656648E0,-2.6603875E0,-2.5153154E-1,-2.451584E0,1.679945E0,-8.949099E-1,2.700399E0,-1.6983693E0,-2.9054028E-1,-3.821135E-1,3.141229E0,1.716275E0,3.8866022E0,5.3517165E0,2.4004297E0,-2.6646358E-1,-2.3347068E0,-2.3148589E-1,-2.0475001E0,-2.717878E0,4.792702E-1,-8.519124E-1,-2.776259E0,1.1065834E-1,6.01089E-1,1.0981822E0,-1.2307775E0,3.6137912E-1,4.4140998E-1,7.412075E-2,-2.3374455E0,-6.120985E-1,-3.1324092E-1,6.628022E-1,2.5496001E0,4.235969E0,1.9768722E0,-1.8766615E-1,3.7761967E0,7.8372684E0,3.718865E0,5.932838E0,1.3717437E0,5.405797E-1,-2.4067986E-1,-2.8147474E-2,2.5034308E-1,-1.5884222E-1,-6.883833E-2,-3.0040744E-1,-2.7621695E-1,-1.7875728E-1,9.1952465E-2,-2.060325E-1,-3.40771E-1,-1.7824562E-1,-1.5569045E-2,2.73352E-1,-7.3048435E-2,-5.8599144E-1,-6.297381E-2,-2.6678708E-1,-1.1933887E-1,2.1597452E-1,3.1133685E-1,-4.378241E-2,2.342841E-2,3.052839E-1,5.089329E-1,3.141383E-1,1.7416868E-1,4.0140104E-1,1.5021448E-1,-1.7597328E-1,4.0178233E-1,1.701696E-1,5.257149E-1,9.979292E-1,5.0887395E-2,4.5601103E-1,9.125275E-1,5.29758E-1,-1.02660514E-1,2.9027933E-1],"categories":[],"categories_nodes":[],"categories_segments":[],"categories_sizes":[],"default_left":[0,0,0,0,0,0,0,0,0,0,0,0,0,0,0,0,0,0,0,0,0,0,0,0,0,0,0,0,0,0,0,0,0,0,0,0,0,0,0,0,0,0,0,0,0,0,0,0,0,0,0,0,0,0,0,0,0,0,0,0,0,0,0,0,0,0,0,0,0,0,0,0,0,0,0,0,0,0,0,0,0,0,0,0,0,0,0,0,0,0,0,0,0,0,0,0,0,0,0],"id":10,"left_children":[1,3,5,7,9,11,13,15,17,19,21,23,25,27,29,31,33,35,37,39,41,43,45,47,-1,49,51,53,55,57,-1,59,61,63,65,-1,67,69,-1,-1,71,73,-1,-1,-1,75,77,-1,79,81,83,85,87,89,91,93,95,97,-1,-1,-1,-1,-1,-1,-1,-1,-1,-1,-1,-1,-1,-1,-1,-1,-1,-1,-1,-1,-1,-1,-1,-1,-1,-1,-1,-1,-1,-1,-1,-1,-1,-1,-1,-1,-1,-1,-1,-1,-1],"loss_changes":[4.310789E4,1.658127E3,2.4810645E3,2.3426758E2,6.003936E2,9.363428E2,4.2674805E2,9.335742E1,2.677671E2,4.8204355E2,3.8624695E2,1.8791077E2,7.9052344E2,3.7174414E2,2.3999915E2,1.3161768E2,6.5081055E1,3.1298596E2,1.451676E2,3.3858182E2,2.3916837E2,6.723506E1,3.1651733E2,1.7276045E2,0E0,4.276797E2,4.6229712E2,3.7037793E2,1.9238428E2,2.0281195E2,0E0,1.3402148E2,1.2273196E2,2.2674896E2,7.04668E1,0E0,1.9883218E2,6.483765E1,0E0,0E0,2.5058723E2,3.315286E2,0E0,0E0,0E0,1.6082959E2,2.781004E2,0E0,1.3082668E2,5.1428394E2,2.0445459E2,3.8539624E2,3.0282736E2,4.4128418E2,8.0177734E1,1.6510358E2,2.8628223E2,1.9392355E2,0E0,0E0,0E0,0E0,0E0,0E0,0E0,0E0,0E0,0E0,0E0,0E0,0E0,0E0,0E0,0E0,0E0,0E0,0E0,0E0,0E0,0E0,0E0,0E0,0E0,0E0,0E0,0E0,0E0,0E0,0E0,0E0,0E0,0E0,0E0,0E0,0E0,0E0,0E0,0E0,0E0],"parents":[2147483647,0,0,1,1,2,2,3,3,4,4,5,5,6,6,7,7,8,8,9,9,10,10,11,11,12,12,13,13,14,14,15,15,16,16,17,17,18,18,19,19,20,20,21,21,22,22,23,23,25,25,26,26,27,27,28,28,29,29,31,31,32,32,33,33,34,34,36,36,37,37,40,40,41,41,45,45,46,46,48,48,49,49,50,50,51,51,52,52,53,53,54,54,55,55,56,56,57,57],"right_children":[2,4,6,8,10,12,14,16,18,20,22,24,26,28,30,32,34,36,38,40,42,44,46,48,-1,50,52,54,56,58,-1,60,62,64,66,-1,68,70,-1,-1,72,74,-1,-1,-1,76,78,-1,80,82,84,86,88,90,92,94,96,98,-1,-1,-1,-1,-1,-1,-1,-1,-1,-1,-1,-1,-1,-1,-1,-1,-1,-1,-1,-1,-1,-1,-1,-1,-1,-1,-1,-1,-1,-1,-1,-1,-1,-1,-1,-1,-1,-1,-1,-1,-1],"split_conditions":[9.54E0,1.36E0,1.9053333E1,2.2857144E0,6.8E1,1.45E-1,6E-2,8.9E1,8.1E1,4E0,5E0,7.525926E0,-6.295238E-1,2.6713333E1,1.37E2,8.8E1,-3.857143E0,1.39E1,4E1,1.2352941E0,9.093333E0,1.625E0,7E0,1.292E1,-3.821135E-1,1.9428E1,1.0571428E1,6.4666664E1,7E0,3.4933334E2,-2.6646358E-1,1.5E1,1.5294118E0,4E0,4.5238094E0,4.792702E-1,3E0,2.15E2,1.1065834E-1,6.01089E-1,3.6E1,1.2E1,3.6137912E-1,4.4140998E-1,7.412075E-2,-1.8E0,8.16E0,-3.1324092E-1,-8.297356E0,5.5333333E0,1.3666667E1,1.4E1,7.8055553E0,3.7142857E1,7.6190475E-3,6.8786325E0,2E0,-2.7E1,5.405797E-1,-2.4067986E-1,-2.8147474E-2,2.5034308E-1,-1.5884222E-1,-6.883833E-2,-3.0040744E-1,-2.7621695E-1,-1.7875728E-1,9.1952465E-2,-2.060325E-1,-3.40771E-1,-1.7824562E-1,-1.5569045E-2,2.73352E-1,-7.3048435E-2,-5.8599144E-1,-6.297381E-2,-2.6678708E-1,-1.1933887E-1,2.1597452E-1,3.1133685E-1,-4.378241E-2,2.342841E-2,3.052839E-1,5.089329E-1,3.141383E-1,1.7416868E-1,4.0140104E-1,1.5021448E-1,-1.7597328E-1,4.0178233E-1,1.701696E-1,5.257149E-1,9.979292E-1,5.0887395E-2,4.5601103E-1,9.125275E-1,5.29758E-1,-1.02660514E-1,2.9027933E-1],"split_indices":[26,26,26,17,32,4,3,32,32,31,11,20,27,26,32,32,13,24,11,21,26,21,5,28,0,28,10,16,32,11,0,31,21,31,13,0,31,32,0,0,6,17,0,0,0,18,1,0,7,1,16,31,0,17,27,20,31,6,0,0,0,0,0,0,0,0,0,0,0,0,0,0,0,0,0,0,0,0,0,0,0,0,0,0,0,0,0,0,0,0,0,0,0,0,0,0,0,0,0],"split_type":[0,0,0,0,0,0,0,0,0,0,0,0,0,0,0,0,0,0,0,0,0,0,0,0,0,0,0,0,0,0,0,0,0,0,0,0,0,0,0,0,0,0,0,0,0,0,0,0,0,0,0,0,0,0,0,0,0,0,0,0,0,0,0,0,0,0,0,0,0,0,0,0,0,0,0,0,0,0,0,0,0,0,0,0,0,0,0,0,0,0,0,0,0,0,0,0,0,0,0],"sum_hessian":[6.839E3,3.934E3,2.905E3,3.167E3,7.67E2,1.687E3,1.218E3,2.944E3,2.23E2,2.9E2,4.77E2,8.1E1,1.606E3,1.141E3,7.7E1,9.4E2,2.004E3,1.01E2,1.22E2,1.36E2,1.54E2,2E1,4.57E2,6.2E1,1.9E1,6.76E2,9.3E2,9.16E2,2.25E2,6.7E1,1E1,9.09E2,3.1E1,1.75E2,1.829E3,1E1,9.1E1,1.12E2,1E1,1.5E1,1.21E2,1.44E2,1E1,1E1,1E1,2.87E2,1.7E2,1.5E1,4.7E1,4.41E2,2.35E2,8.18E2,1.12E2,8.93E2,2.3E1,6.1E1,1.64E2,5.1E1,1.6E1,8.78E2,3.1E1,1E1,2.1E1,7.3E1,1.02E2,1.744E3,8.5E1,3.7E1,5.4E1,6.7E1,4.5E1,6.9E1,5.2E1,1.31E2,1.3E1,4.7E1,2.4E2,1.41E2,2.9E1,1.4E1,3.3E1,7.9E1,3.62E2,1.3E2,1.05E2,7.35E2,8.3E1,5.4E1,5.8E1,7.99E2,9.4E1,1.2E1,1.1E1,1.3E1,4.8E1,2.5E1,1.39E2,2E1,3.1E1],"tree_param":{"num_deleted":"0","num_feature":"34","num_nodes":"99","size_leaf_vector":"1"}},{"base_weights":[-2.153837E-2,-1.9470067E0,2.7696307E0,-2.218368E0,-4.4492444E-1,1.8857983E0,3.5506814E0,-2.2456746E0,3.325255E-1,-2.1454759E0,1.966396E-1,6.0819974E0,1.7507675E0,5.243614E0,3.2706378E0,-2.4122205E0,-1.9203604E0,1.9964392E-1,-2.44839E0,-1.2221929E-1,2.4194465E0,7.274911E0,2.275687E-1,1.6550624E-1,2.055931E0,6.090377E0,3.7150679E0,2.910407E0,4.7482023E0,-2.42845E0,-4.0006593E-2,-2.771882E0,-1.7285818E0,2.6456108E-2,-2.6747346E0,-5.442549E-1,1.9267926E0,3.214043E0,-7.61911E-2,9.3360645E-1,5.1495546E-1,1.000483E0,-2.9840693E0,2.2192109E0,-2.3594463E-1,3.0122616E0,6.6178546E0,5.6364446E0,1.6453638E0,3.1078904E0,1.3240647E0,5.564833E0,3.37718E0,-2.9429612E-1,-2.3564239E-1,-2.8741598E-1,-8.5331015E-2,-6.917136E-2,-1.8827562E-1,-8.1372984E-2,-2.8832063E-1,2.800116E-1,-7.727387E-2,-1.1015774E-1,4.1292524E-1,1.8412231E-1,6.451659E-1,1.4700752E-1,-2.8379253E-1,1.475627E-1,-4.3802086E-1,3.5132053E-1,1.9618034E-1,3.1594416E-1,-1.3633707E-1,5.458252E-1,2.9242966E-2,3.3018413E-1,7.141585E-1,2.6066884E-1,6.591303E-1,-7.681026E-2,3.8558888E-1,2.1481979E-1,3.573875E-1,-3.1411812E-1,1.7836191E-1,6.3523525E-1,3.8312456E-1,-5.1509333E-3,4.2464682E-1],"categories":[],"categories_nodes":[],"categories_segments":[],"categories_sizes":[],"default_left":[0,0,0,0,0,0,0,0,0,0,0,0,0,0,0,0,0,0,0,0,0,0,0,0,0,0,0,0,0,0,0,0,0,0,0,0,0,0,0,0,0,0,0,0,0,0,0,0,0,0,0,0,0,0,0,0,0,0,0,0,0,0,0,0,0,0,0,0,0,0,0,0,0,0,0,0,0,0,0,0,0,0,0,0,0,0,0,0,0,0,0],"id":11,"left_children":[1,3,5,7,9,11,13,15,-1,17,19,21,23,25,27,29,31,-1,33,35,37,39,-1,41,43,45,47,49,51,53,-1,55,57,-1,59,61,63,65,-1,-1,-1,67,69,71,73,75,77,79,81,83,85,87,89,-1,-1,-1,-1,-1,-1,-1,-1,-1,-1,-1,-1,-1,-1,-1,-1,-1,-1,-1,-1,-1,-1,-1,-1,-1,-1,-1,-1,-1,-1,-1,-1,-1,-1,-1,-1,-1,-1],"loss_changes":[3.6308844E4,1.628625E3,1.8972012E3,5.2003125E2,6.6921265E2,7.236865E2,6.764512E2,1.7795312E2,0E0,2.1566827E2,3.164034E2,1.650686E2,6.07751E2,2.4400293E2,6.5576855E2,7.168945E1,1.8235449E2,0E0,9.711542E1,3.3916824E2,1.4401096E2,8.3343994E1,0E0,5.3946936E2,3.9494824E2,1.927622E2,2.9295386E2,3.135459E2,2.5551367E2,7.485254E1,0E0,3.855896E1,1.4864478E2,0E0,5.3909058E1,2.5050742E2,4.514296E2,1.8813095E2,0E0,0E0,0E0,2.9617477E2,2.7419693E2,3.208623E2,2.7609875E2,1.3811017E2,1.6919238E2,9.56449E1,2.0569278E2,3.9525293E2,2.3953328E2,1.8317822E2,2.8038757E2,0E0,0E0,0E0,0E0,0E0,0E0,0E0,0E0,0E0,0E0,0E0,0E0,0E0,0E0,0E0,0E0,0E0,0E0,0E0,0E0,0E0,0E0,0E0,0E0,0E0,0E0,0E0,0E0,0E0,0E0,0E0,0E0,0E0,0E0,0E0,0E0,0E0,0E0],"parents":[2147483647,0,0,1,1,2,2,3,3,4,4,5,5,6,6,7,7,9,9,10,10,11,11,12,12,13,13,14,14,15,15,16,16,18,18,19,19,20,20,21,21,23,23,24,24,25,25,26,26,27,27,28,28,29,29,31,31,32,32,34,34,35,35,36,36,37,37,41,41,42,42,43,43,44,44,45,45,46,46,47,47,48,48,49,49,50,50,51,51,52,52],"right_children":[2,4,6,8,10,12,14,16,-1,18,20,22,24,26,28,30,32,-1,34,36,38,40,-1,42,44,46,48,50,52,54,-1,56,58,-1,60,62,64,66,-1,-1,-1,68,70,72,74,76,78,80,82,84,86,88,90,-1,-1,-1,-1,-1,-1,-1,-1,-1,-1,-1,-1,-1,-1,-1,-1,-1,-1,-1,-1,-1,-1,-1,-1,-1,-1,-1,-1,-1,-1,-1,-1,-1,-1,-1,-1,-1,-1],"split_conditions":[1.0086667E1,1.3E-1,1.7706667E1,2.2714285E1,2.0333333E0,-6.5942855E0,-1.6E0,7.1428573E-1,3.325255E-1,1.175E1,3.0714285E1,2.2E1,-1.1E1,3.12E2,2.6366667E1,6.1904764E-1,-1.6666667E-1,1.9964392E-1,4.2857143E-1,5.164557E0,2.857143E-1,8E0,2.275687E-1,1.03E2,3.325E1,-1.07E2,2.375E1,4.8780486E-2,4.0933332E0,0E0,-4.0006593E-2,2.5E0,1E1,2.6456108E-2,1.6E-1,6.341727E0,4E0,1E2,-7.61911E-2,9.3360645E-1,5.1495546E-1,5.425E0,6.8763065E0,2E0,3.862069E0,-4E0,3.857143E0,3.4333332E1,3.8E1,6.5E0,-1.5E1,9.254545E0,3.7037037E-2,-2.9429612E-1,-2.3564239E-1,-2.8741598E-1,-8.5331015E-2,-6.917136E-2,-1.8827562E-1,-8.1372984E-2,-2.8832063E-1,2.800116E-1,-7.727387E-2,-1.1015774E-1,4.1292524E-1,1.8412231E-1,6.451659E-1,1.4700752E-1,-2.8379253E-1,1.475627E-1,-4.3802086E-1,3.5132053E-1,1.9618034E-1,3.1594416E-1,-1.3633707E-1,5.458252E-1,2.9242966E-2,3.3018413E-1,7.141585E-1,2.6066884E-1,6.591303E-1,-7.681026E-2,3.8558888E-1,2.1481979E-1,3.573875E-1,-3.1411812E-1,1.7836191E-1,6.3523525E-1,3.8312456E-1,-5.1509333E-3,4.2464682E-1],"split_indices":[26,4,26,17,26,27,27,12,0,19,9,15,5,12,26,13,17,0,12,25,13,32,0,32,19,6,19,3,27,17,0,1,32,0,4,20,15,6,0,0,0,25,20,32,25,5,17,8,8,17,5,0,2,0,0,0,0,0,0,0,0,0,0,0,0,0,0,0,0,0,0,0,0,0,0,0,0,0,0,0,0,0,0,0,0,0,0,0,0,0,0],"split_type":[0,0,0,0,0,0,0,0,0,0,0,0,0,0,0,0,0,0,0,0,0,0,0,0,0,0,0,0,0,0,0,0,0,0,0,0,0,0,0,0,0,0,0,0,0,0,0,0,0,0,0,0,0,0,0,0,0,0,0,0,0,0,0,0,0,0,0,0,0,0,0,0,0,0,0,0,0,0,0,0,0,0,0,0,0,0,0,0,0,0,0],"sum_hessian":[6.754E3,3.997E3,2.757E3,3.385E3,6.12E2,1.295E3,1.462E3,3.369E3,1.6E1,1.67E2,4.45E2,3.9E1,1.256E3,2.05E2,1.257E3,2.224E3,1.145E3,1.1E1,1.56E2,3.9E2,5.5E1,2.9E1,1E1,2.03E2,1.053E3,1.3E2,7.5E1,1.013E3,2.44E2,2.206E3,1.8E1,2.08E2,9.37E2,1.2E1,1.44E2,3.24E2,6.6E1,4.4E1,1.1E1,1.3E1,1.6E1,1.61E2,4.2E1,9.83E2,7E1,2E1,1.1E2,3.8E1,3.7E1,9E2,1.13E2,1.51E2,9.3E1,2.66E2,1.94E3,1.97E2,1.1E1,1.22E2,8.15E2,1.5E1,1.29E2,2E1,3.04E2,2.8E1,3.8E1,3.2E1,1.2E1,1.44E2,1.7E1,1E1,3.2E1,1.61E2,8.22E2,1.7E1,5.3E1,1E1,1E1,1.6E1,9.4E1,1E1,2.8E1,1.8E1,1.9E1,2.96E2,6.04E2,1E1,1.03E2,1.02E2,4.9E1,1.9E1,7.4E1],"tree_param":{"num_deleted":"0","num_feature":"34","num_nodes":"91","size_leaf_vector":"1"}},{"base_weights":[-2.2906084E-2,-1.7004579E0,2.4564567E0,-1.9231601E0,-1.231091E-1,1.9337177E0,3.135886E0,3.4654152E-1,-1.9393381E0,-2.0993478E0,2.6119107E-1,6.339365E0,1.8339639E0,3.5891514E0,2.2395697E0,-1.9974922E0,-7.730573E-1,3.0291355E-1,-3.0217896E0,8.078711E-2,3.8832715E-1,3.5730976E-1,7.8816694E-1,1.42646E-1,2.029918E0,2.5368338E0,4.700787E0,2.5604877E0,-3.7041184E-1,-1.3509523E0,-2.0548465E0,-2.61885E-1,-3.7273815E0,-3.691367E0,5.221149E-2,1.4151981E0,-4.1875708E-1,7.8462636E-1,-3.6875262E0,1.6346911E0,2.8388605E0,6.2974475E-2,2.783383E0,7.5528817E0,3.9466352E0,2.2301166E0,4.6545577E0,1.3446727E0,-4.2641473E-1,5.076356E-2,-1.7313042E-1,-4.1624638E-1,-2.0370431E-1,-7.576516E-2,2.4223302E-1,-5.079014E-1,-2.3025978E-1,-3.00076E-1,-6.4321285E-1,7.065054E-2,4.7722784E-1,4.2741876E-2,-1.6667251E-1,2.7141866E-1,-5.034513E-2,-5.442632E-1,-1.2780808E-1,2.793548E-2,1.9580585E-1,2.4431077E-1,4.5152822E-1,2.601229E-1,-2.351516E-1,3.1398162E-1,9.205302E-2,6.0357404E-1,1.0413373E0,-7.5848006E-2,4.2443725E-1,-2.2135119E-1,2.5258246E-1,3.0575633E-1,6.931152E-1,5.094122E-1,-5.9117354E-2],"categories":[],"categories_nodes":[],"categories_segments":[],"categories_sizes":[],"default_left":[0,0,0,0,0,0,0,0,0,0,0,0,0,0,0,0,0,0,0,0,0,0,0,0,0,0,0,0,0,0,0,0,0,0,0,0,0,0,0,0,0,0,0,0,0,0,0,0,0,0,0,0,0,0,0,0,0,0,0,0,0,0,0,0,0,0,0,0,0,0,0,0,0,0,0,0,0,0,0,0,0,0,0,0,0],"id":12,"left_children":[1,3,5,7,9,11,13,-1,15,17,19,21,23,25,27,29,31,-1,33,35,-1,-1,-1,37,39,41,43,45,47,49,51,53,55,57,-1,59,61,63,65,67,69,71,73,75,77,79,81,83,-1,-1,-1,-1,-1,-1,-1,-1,-1,-1,-1,-1,-1,-1,-1,-1,-1,-1,-1,-1,-1,-1,-1,-1,-1,-1,-1,-1,-1,-1,-1,-1,-1,-1,-1,-1,-1],"loss_changes":[2.8291303E4,1.4249014E3,9.688613E2,3.166338E2,3.825612E2,6.7132715E2,4.7623535E2,0E0,2.388916E2,3.9707312E2,2.7543695E2,1.1689661E2,5.0380127E2,9.122119E2,3.3849744E2,1.2241211E2,2.557525E2,0E0,1.6803162E2,2.6923132E2,0E0,0E0,0E0,3.938577E2,4.3113184E2,2.486753E2,7.939912E2,2.379834E2,3.062477E2,1.9740186E2,1.07802734E2,1.9612395E2,3.6449677E1,9.237323E1,0E0,2.5833356E2,3.1117645E2,3.418695E2,9.030701E1,4.0178613E2,2.848667E2,2.3900333E2,2.4344702E2,2.7998877E2,4.3049023E2,4.155641E2,1.5332153E2,2.3527896E2,0E0,0E0,0E0,0E0,0E0,0E0,0E0,0E0,0E0,0E0,0E0,0E0,0E0,0E0,0E0,0E0,0E0,0E0,0E0,0E0,0E0,0E0,0E0,0E0,0E0,0E0,0E0,0E0,0E0,0E0,0E0,0E0,0E0,0E0,0E0,0E0,0E0],"parents":[2147483647,0,0,1,1,2,2,3,3,4,4,5,5,6,6,8,8,9,9,10,10,11,11,12,12,13,13,14,14,15,15,16,16,18,18,19,19,23,23,24,24,25,25,26,26,27,27,28,28,29,29,30,30,31,31,32,32,33,33,35,35,36,36,37,37,38,38,39,39,40,40,41,41,42,42,43,43,44,44,45,45,46,46,47,47],"right_children":[2,4,6,8,10,12,14,-1,16,18,20,22,24,26,28,30,32,-1,34,36,-1,-1,-1,38,40,42,44,46,48,50,52,54,56,58,-1,60,62,64,66,68,70,72,74,76,78,80,82,84,-1,-1,-1,-1,-1,-1,-1,-1,-1,-1,-1,-1,-1,-1,-1,-1,-1,-1,-1,-1,-1,-1,-1,-1,-1,-1,-1,-1,-1,-1,-1,-1,-1,-1,-1,-1,-1],"split_conditions":[1.0786667E1,5.133333E0,1.9053333E1,2.75E0,-1.82E2,-6.5942855E0,3.3E1,3.4654152E-1,1E1,-4.0361905E0,1.764706E-1,1.63E1,2.35E-1,6E0,3.4E1,1E1,2.057143E0,3.0291355E-1,1.117647E0,1.4117647E0,3.8832715E-1,3.5730976E-1,7.8816694E-1,7.525926E0,3.45E1,5.464286E0,2E0,1.4E1,1.8571428E0,3E0,-1.1333333E1,5.428571E0,2.175E1,6.2272725E0,5.221149E-2,7.888889E0,7.6666665E0,-1.904762E-1,-1.2E1,-9E0,1.7285715E1,7.8055553E0,3.0142857E1,2.9411765E-2,7E0,1.4285715E0,8.558824E0,7.5E-1,-4.2641473E-1,5.076356E-2,-1.7313042E-1,-4.1624638E-1,-2.0370431E-1,-7.576516E-2,2.4223302E-1,-5.079014E-1,-2.3025978E-1,-3.00076E-1,-6.4321285E-1,7.065054E-2,4.7722784E-1,4.2741876E-2,-1.6667251E-1,2.7141866E-1,-5.034513E-2,-5.442632E-1,-1.2780808E-1,2.793548E-2,1.9580585E-1,2.4431077E-1,4.5152822E-1,2.601229E-1,-2.351516E-1,3.1398162E-1,9.205302E-2,6.0357404E-1,1.0413373E0,-7.5848006E-2,4.2443725E-1,-2.2135119E-1,2.5258246E-1,3.0575633E-1,6.931152E-1,5.094122E-1,-5.9117354E-2],"split_indices":[26,26,26,19,6,27,32,0,5,27,14,24,4,32,19,32,27,0,22,21,0,0,0,20,8,1,31,31,18,31,18,17,19,0,0,1,16,18,5,5,17,0,17,3,32,17,0,22,0,0,0,0,0,0,0,0,0,0,0,0,0,0,0,0,0,0,0,0,0,0,0,0,0,0,0,0,0,0,0,0,0,0,0,0,0],"split_type":[0,0,0,0,0,0,0,0,0,0,0,0,0,0,0,0,0,0,0,0,0,0,0,0,0,0,0,0,0,0,0,0,0,0,0,0,0,0,0,0,0,0,0,0,0,0,0,0,0,0,0,0,0,0,0,0,0,0,0,0,0,0,0,0,0,0,0,0,0,0,0,0,0,0,0,0,0,0,0,0,0,0,0,0,0],"sum_hessian":[6.8E3,4.056E3,2.744E3,3.554E3,5.02E2,1.553E3,1.191E3,1E1,3.544E3,8.1E1,4.21E2,3.3E1,1.52E3,7.89E2,4.02E2,3.375E3,1.69E2,1.2E1,6.9E1,4.02E2,1.9E1,1.3E1,2E1,1.58E2,1.362E3,4.07E2,3.82E2,3.58E2,4.4E1,2.77E2,3.098E3,1.45E2,2.4E1,5.8E1,1.1E1,1.09E2,2.93E2,1.36E2,2.2E1,9.17E2,4.45E2,3.7E1,3.7E2,7.8E1,3.04E2,3.11E2,4.7E1,3.1E1,1.3E1,4.7E1,2.3E2,2.4E1,3.074E3,1.23E2,2.2E1,1.1E1,1.3E1,4.8E1,1E1,9.1E1,1.8E1,1.75E2,1.18E2,5.4E1,8.2E1,1.2E1,1E1,1.77E2,7.4E2,3.62E2,8.3E1,1.8E1,1.9E1,3.1E2,6E1,5.3E1,2.5E1,1.8E1,2.86E2,1.9E1,2.92E2,2.9E1,1.8E1,1E1,2.1E1],"tree_param":{"num_deleted":"0","num_feature":"34","num_nodes":"85","size_leaf_vector":"1"}},{"base_weights":[-6.467665E-3,-1.5016087E0,2.0829852E0,-1.6561897E0,1.7949992E-1,1.4658424E0,2.8718624E0,-1.7402457E0,-1.381113E-1,-1.3120681E-1,2.7190847E0,2.4837103E0,1.1449612E0,2.794281E0,6.446526E0,-7.5084907E-1,-1.8161681E0,4.9606308E-1,-4.421768E-1,-8.4878266E-1,1.0168093E0,3.9582677E0,-5.6973536E-2,2.646656E0,-3.326027E-1,-3.704819E-1,1.3770323E0,2.1436226E0,3.123353E0,7.8808504E-1,3.7741885E-1,-4.8327774E-1,-3.8037556E-1,-1.8354212E0,5.3936154E-1,-1.0737852E0,2.0962076E0,-5.7165885E-1,-4.232408E-1,2.2331367E0,-8.422555E-1,1.7668815E-1,6.550261E-1,2.2145844E0,3.9616807E0,2.596423E-1,-2.989826E-1,-1.2240835E0,2.492094E0,1.2797822E0,5.0719585E0,1.9194285E0,5.910458E0,2.3612514E0,3.5352361E0,-7.0796214E-2,3.6762086E-1,-1.8087772E-1,-3.5894617E-1,-1.2880844E-1,2.3282817E-1,-3.5204835E-2,-3.5782608E-1,8.234861E-3,4.2173725E-1,2.2676643E-2,-1.5804124E-1,4.3266526E-1,7.692972E-2,7.847649E-2,-2.8940314E-1,3.0853862E-1,1.3404045E-1,-7.732465E-2,4.8558435E-1,-2.7943945E-1,3.1674217E-2,4.024833E-1,-1.635978E-1,1.16296925E-1,3.897572E-1,7.589039E-1,3.1449094E-1,2.342193E-1,3.2127775E-2,7.8497094E-1,3.8149026E-1,1.5557064E-1,3.3686155E-1,2.5464067E-1,4.2815548E-1],"categories":[],"categories_nodes":[],"categories_segments":[],"categories_sizes":[],"default_left":[0,0,0,0,0,0,0,0,0,0,0,0,0,0,0,0,0,0,0,0,0,0,0,0,0,0,0,0,0,0,0,0,0,0,0,0,0,0,0,0,0,0,0,0,0,0,0,0,0,0,0,0,0,0,0,0,0,0,0,0,0,0,0,0,0,0,0,0,0,0,0,0,0,0,0,0,0,0,0,0,0,0,0,0,0,0,0,0,0,0,0],"id":13,"left_children":[1,3,5,7,9,11,13,15,17,19,21,23,25,27,29,31,33,-1,35,37,39,41,-1,43,45,47,49,51,53,-1,-1,55,-1,57,59,61,63,65,-1,67,69,-1,-1,71,73,-1,-1,75,77,79,81,83,85,87,89,-1,-1,-1,-1,-1,-1,-1,-1,-1,-1,-1,-1,-1,-1,-1,-1,-1,-1,-1,-1,-1,-1,-1,-1,-1,-1,-1,-1,-1,-1,-1,-1,-1,-1,-1,-1],"loss_changes":[2.15183E4,1.043665E3,1.3945088E3,4.68958E2,2.678502E2,5.24312E2,3.3141992E2,2.6034375E2,3.029617E2,2.5047101E2,1.5304678E2,1.7801831E2,4.3273767E2,2.5773535E2,6.991406E1,2.023793E2,1.4770215E2,0E0,2.9725162E2,1.7292723E2,2.6644495E2,1.4178796E2,0E0,1.9861401E2,1.789905E2,4.0378445E2,3.7655664E2,3.4165735E2,2.4841943E2,0E0,0E0,2.1848862E2,0E0,1.4347852E2,9.12662E1,2.66261E2,1.577066E2,1.4050047E2,0E0,2.1425607E2,1.5917035E2,0E0,0E0,2.0672705E2,3.8056262E2,0E0,0E0,3.0817114E2,2.4702034E2,3.1349072E2,1.0709772E2,2.668014E2,6.352173E1,2.3008765E2,3.7948975E2,0E0,0E0,0E0,0E0,0E0,0E0,0E0,0E0,0E0,0E0,0E0,0E0,0E0,0E0,0E0,0E0,0E0,0E0,0E0,0E0,0E0,0E0,0E0,0E0,0E0,0E0,0E0,0E0,0E0,0E0,0E0,0E0,0E0,0E0,0E0,0E0],"parents":[2147483647,0,0,1,1,2,2,3,3,4,4,5,5,6,6,7,7,8,8,9,9,10,10,11,11,12,12,13,13,14,14,15,15,16,16,18,18,19,19,20,20,21,21,23,23,24,24,25,25,26,26,27,27,28,28,31,31,33,33,34,34,35,35,36,36,37,37,39,39,40,40,43,43,44,44,47,47,48,48,49,49,50,50,51,51,52,52,53,53,54,54],"right_children":[2,4,6,8,10,12,14,16,18,20,22,24,26,28,30,32,34,-1,36,38,40,42,-1,44,46,48,50,52,54,-1,-1,56,-1,58,60,62,64,66,-1,68,70,-1,-1,72,74,-1,-1,76,78,80,82,84,86,88,90,-1,-1,-1,-1,-1,-1,-1,-1,-1,-1,-1,-1,-1,-1,-1,-1,-1,-1,-1,-1,-1,-1,-1,-1,-1,-1,-1,-1,-1,-1,-1,-1,-1,-1,-1,-1],"split_conditions":[9.806666E0,6.3E1,1.8766666E1,6.5266666E0,5.484375E0,-2.3257143E0,6.9E1,-1.8E0,1.6666666E1,8.86E1,4.142857E0,7.9686847E0,2.4875E-1,9.142858E0,2.9032E1,1.238E1,9.75E-1,4.9606308E-1,4.7357142E-1,7.3333335E0,7.5133333E0,1.25E0,-5.6973536E-2,2.1432E1,7E0,6.04E0,1.8E1,2E1,6.970588E0,7.8808504E-1,3.7741885E-1,1.98E2,-3.8037556E-1,3.88125E-1,5.714286E0,9.093333E0,9.093333E0,1.6470588E0,-4.232408E-1,4E0,9.107142E0,1.7668815E-1,6.550261E-1,7.0764923E0,2E0,2.596423E-1,-2.989826E-1,2.4705882E0,7.269231E0,2.235294E0,1.625E1,4.1333332E1,2.0588236E0,2E0,2.65E2,-7.0796214E-2,3.6762086E-1,-1.8087772E-1,-3.5894617E-1,-1.2880844E-1,2.3282817E-1,-3.5204835E-2,-3.5782608E-1,8.234861E-3,4.2173725E-1,2.2676643E-2,-1.5804124E-1,4.3266526E-1,7.692972E-2,7.847649E-2,-2.8940314E-1,3.0853862E-1,1.3404045E-1,-7.732465E-2,4.8558435E-1,-2.7943945E-1,3.1674217E-2,4.024833E-1,-1.635978E-1,1.16296925E-1,3.897572E-1,7.589039E-1,3.1449094E-1,2.342193E-1,3.2127775E-2,7.8497094E-1,3.8149026E-1,1.5557064E-1,3.3686155E-1,2.5464067E-1,4.2815548E-1],"split_indices":[26,6,26,26,25,27,17,18,11,12,18,20,4,17,28,28,4,0,4,17,26,10,0,28,31,1,31,31,1,0,0,12,0,4,12,26,26,21,0,31,0,0,0,20,31,0,0,23,20,21,19,8,23,5,12,0,0,0,0,0,0,0,0,0,0,0,0,0,0,0,0,0,0,0,0,0,0,0,0,0,0,0,0,0,0,0,0,0,0,0,0],"split_type":[0,0,0,0,0,0,0,0,0,0,0,0,0,0,0,0,0,0,0,0,0,0,0,0,0,0,0,0,0,0,0,0,0,0,0,0,0,0,0,0,0,0,0,0,0,0,0,0,0,0,0,0,0,0,0,0,0,0,0,0,0,0,0,0,0,0,0,0,0,0,0,0,0,0,0,0,0,0,0,0,0,0,0,0,0,0,0,0,0,0,0],"sum_hessian":[6.886E3,4.014E3,2.872E3,3.676E3,3.38E2,1.613E3,1.259E3,3.483E3,1.93E2,3.02E2,3.6E1,3.85E2,1.228E3,1.234E3,2.5E1,2.49E2,3.234E3,1E1,1.83E2,1.86E2,1.16E2,2.6E1,1E1,3.64E2,2.1E1,1.63E2,1.065E3,4.17E2,8.17E2,1.5E1,1E1,2.3E2,1.9E1,3.208E3,2.6E1,1.47E2,3.6E1,1.73E2,1.3E1,7E1,4.6E1,1.5E1,1.1E1,2.76E2,8.8E1,1E1,1.1E1,1.26E2,3.7E1,1.039E3,2.6E1,3.95E2,2.2E1,2.89E2,5.28E2,2.19E2,1.1E1,3.162E3,4.6E1,1.3E1,1.3E1,1.15E2,3.2E1,1.9E1,1.7E1,9.7E1,7.6E1,2.8E1,4.2E1,2.6E1,2E1,1.37E2,1.39E2,1.4E1,7.4E1,6.2E1,6.4E1,2.7E1,1E1,9.96E2,4.3E1,1E1,1.6E1,3.12E2,8.3E1,1E1,1.2E1,1.62E2,1.27E2,2.29E2,2.99E2],"tree_param":{"num_deleted":"0","num_feature":"34","num_nodes":"91","size_leaf_vector":"1"}},{"base_weights":[-1.8183617E-2,-1.4526546E0,1.7839359E0,-1.5626069E0,-6.0203536E-3,9.1695434E-1,2.2865865E0,-1.5770141E0,2.4519832E-1,-2.2650617E-1,4.7349268E-1,1.4253668E0,-9.142456E-2,1.1418251E0,2.4456398E0,-8.313068E-1,-1.6400701E0,-1.5606781E0,4.853399E-1,1.3071835E0,5.828874E-1,7.530037E-1,-1.5021731E0,2.230461E-1,3.1777036E0,3.0718913E0,2.1255343E0,1.493168E0,-1.2201157E0,-1.6206744E0,-3.731083E0,-2.1745818E0,2.6109108E-1,4.6667728E-1,7.755388E-2,1.1660385E0,4.5146503E0,6.361946E-1,4.7420296E-1,-4.3273425E0,-5.1923704E-1,6.156024E-1,-5.257332E-1,-1.7375244E-2,4.0474553E0,3.6445692E0,2.0406106E0,1.183766E0,2.5382347E0,2.755743E-1,-3.7712455E-2,-3.912433E-2,-2.1417032E-1,-1.1856482E-1,-1.7019944E-1,-5.058488E-1,-1.099103E-1,-8.437332E-2,-3.3874723E-1,1.2617293E-1,-9.9203795E-2,1.5153868E-1,1.1932323E-2,2.0445378E-2,8.2732934E-1,7.576692E-2,-4.5968404E-1,-8.0187425E-2,-5.8464736E-1,2.9657462E-1,-1.1790738E-1,-3.4905952E-1,9.5826976E-2,5.473183E-1,2.3244195E-1,4.0509E-1,1.6892958E-1,4.6770684E-2,3.0309442E-1,9.113683E-2,6.0211605E-1,3.5240042E-1,2.1089879E-1],"categories":[],"categories_nodes":[],"categories_segments":[],"categories_sizes":[],"default_left":[0,0,0,0,0,0,0,0,0,0,0,0,0,0,0,0,0,0,0,0,0,0,0,0,0,0,0,0,0,0,0,0,0,0,0,0,0,0,0,0,0,0,0,0,0,0,0,0,0,0,0,0,0,0,0,0,0,0,0,0,0,0,0,0,0,0,0,0,0,0,0,0,0,0,0,0,0,0,0,0,0,0,0],"id":14,"left_children":[1,3,5,7,9,11,13,15,-1,17,-1,19,21,23,25,27,29,31,33,35,-1,37,39,41,43,45,47,49,51,53,55,57,-1,-1,59,61,63,-1,65,67,69,71,-1,-1,73,75,77,79,81,-1,-1,-1,-1,-1,-1,-1,-1,-1,-1,-1,-1,-1,-1,-1,-1,-1,-1,-1,-1,-1,-1,-1,-1,-1,-1,-1,-1,-1,-1,-1,-1,-1,-1],"loss_changes":[1.7614797E4,6.034673E2,1.3139854E3,2.078086E2,2.822613E2,5.691966E2,3.451582E2,1.6386816E2,0E0,2.4578654E2,0E0,3.7645154E2,4.4547702E2,4.38864E2,3.2965332E2,2.5126408E2,1.2531641E2,2.3616345E2,2.87805E2,3.206925E2,0E0,3.6290698E2,3.865276E2,3.5390753E2,2.1349341E2,3.2624707E2,4.2958252E2,9.549466E1,1.8020126E2,1.1157422E2,9.575763E1,1.2466162E2,0E0,0E0,1.9757225E2,2.5249591E2,4.843233E2,0E0,3.2547607E2,1.8811523E2,2.4494647E2,2.1862509E2,0E0,0E0,1.2975958E2,2.8076172E2,3.1635303E2,4.438465E2,3.196543E2,0E0,0E0,0E0,0E0,0E0,0E0,0E0,0E0,0E0,0E0,0E0,0E0,0E0,0E0,0E0,0E0,0E0,0E0,0E0,0E0,0E0,0E0,0E0,0E0,0E0,0E0,0E0,0E0,0E0,0E0,0E0,0E0,0E0,0E0],"parents":[2147483647,0,0,1,1,2,2,3,3,4,4,5,5,6,6,7,7,9,9,11,11,12,12,13,13,14,14,15,15,16,16,17,17,18,18,19,19,21,21,22,22,23,23,24,24,25,25,26,26,27,27,28,28,29,29,30,30,31,31,34,34,35,35,36,36,38,38,39,39,40,40,41,41,44,44,45,45,46,46,47,47,48,48],"right_children":[2,4,6,8,10,12,14,16,-1,18,-1,20,22,24,26,28,30,32,34,36,-1,38,40,42,44,46,48,50,52,54,56,58,-1,-1,60,62,64,-1,66,68,70,72,-1,-1,74,76,78,80,82,-1,-1,-1,-1,-1,-1,-1,-1,-1,-1,-1,-1,-1,-1,-1,-1,-1,-1,-1,-1,-1,-1,-1,-1,-1,-1,-1,-1,-1,-1,-1,-1,-1,-1],"split_conditions":[7.84E0,6.6E1,1.57E1,1.764706E-1,2.1333333E2,7.6E1,2.8625E-1,-1.8E0,2.4519832E-1,5.464286E0,4.7349268E-1,7.5E1,1.6E0,5.909091E0,-9.35E-1,1.675E1,2.3571428E1,1.6285715E1,-7.9719195E0,3.6E1,5.828874E-1,8.133333E0,1.06E2,3.59E2,6.2272725E0,3.3E1,2.002E1,1.3333334E-2,7.1426115E0,3.9E1,2.2771428E2,6.9800615E0,2.6109108E-1,4.6667728E-1,8.05E0,7.3987136E0,7E0,6.361946E-1,3.675E1,6.9385667E0,6.7E1,2.5285715E1,-5.257332E-1,-1.7375244E-2,4.385965E0,2.875E0,2.65E2,5.3809524E0,3.257143E1,2.755743E-1,-3.7712455E-2,-3.912433E-2,-2.1417032E-1,-1.1856482E-1,-1.7019944E-1,-5.058488E-1,-1.099103E-1,-8.437332E-2,-3.3874723E-1,1.2617293E-1,-9.9203795E-2,1.5153868E-1,1.1932323E-2,2.0445378E-2,8.2732934E-1,7.576692E-2,-4.5968404E-1,-8.0187425E-2,-5.8464736E-1,2.9657462E-1,-1.1790738E-1,-3.4905952E-1,9.5826976E-2,5.473183E-1,2.3244195E-1,4.0509E-1,1.6892958E-1,4.6770684E-2,3.0309442E-1,9.113683E-2,6.0211605E-1,3.5240042E-1,2.1089879E-1],"split_indices":[26,6,28,14,12,32,4,18,0,1,0,32,18,1,27,19,9,9,7,17,0,26,32,12,0,32,26,26,20,32,12,20,0,0,0,20,32,0,19,20,12,9,0,0,25,23,12,10,9,0,0,0,0,0,0,0,0,0,0,0,0,0,0,0,0,0,0,0,0,0,0,0,0,0,0,0,0,0,0,0,0,0,0],"split_type":[0,0,0,0,0,0,0,0,0,0,0,0,0,0,0,0,0,0,0,0,0,0,0,0,0,0,0,0,0,0,0,0,0,0,0,0,0,0,0,0,0,0,0,0,0,0,0,0,0,0,0,0,0,0,0,0,0,0,0,0,0,0,0,0,0,0,0,0,0,0,0,0,0,0,0,0,0,0,0,0,0,0,0],"sum_hessian":[6.812E3,3.793E3,3.019E3,3.525E3,2.68E2,1.109E3,1.91E3,3.513E3,1.2E1,2.57E2,1.1E1,7.37E2,3.72E2,2.34E2,1.676E3,2.75E2,3.238E3,8.9E1,1.68E2,7.19E2,1.8E1,2.33E2,1.39E2,1.62E2,7.2E1,5.64E2,1.112E3,3.9E1,2.36E2,3.21E3,2.8E1,7.8E1,1.1E1,1.4E1,1.54E2,6.9E2,2.9E1,1E1,2.23E2,3.5E1,1.04E2,1.52E2,1E1,1.5E1,5.7E1,3.61E2,2.03E2,3.4E2,7.72E2,2.3E1,1.6E1,1.25E2,1.11E2,5.08E2,2.702E3,1.8E1,1E1,3.8E1,4E1,7.3E1,8.1E1,5.17E2,1.73E2,1.4E1,1.5E1,2.12E2,1.1E1,1.1E1,2.4E1,1.6E1,8.8E1,1.1E1,1.41E2,3E1,2.7E1,2.98E2,6.3E1,7.9E1,1.24E2,3.23E2,1.7E1,2.32E2,5.4E2],"tree_param":{"num_deleted":"0","num_feature":"34","num_nodes":"83","size_leaf_vector":"1"}},{"base_weights":[2.8870914E-2,-1.3582472E0,1.7355299E0,-1.3913362E0,2.1326933E0,9.073377E-1,2.2294004E0,-1.4807732E0,-3.3672062E-1,1.024097E-2,3.7517998E-1,2.975355E-1,1.616118E0,2.7737858E0,1.939049E0,-2.161068E0,-1.4216443E0,6.441499E-1,-1.2763861E0,1.874754E0,-7.619517E-2,1.2565831E0,3.8292246E0,-1.158737E-1,2.9191313E0,8.0380106E-1,2.2876136E0,-2.0402563E0,-3.5994062E-1,-1.4432011E0,7.501581E-1,1.3573341E-1,3.6397645E0,-3.0586347E-1,-2.365625E0,2.6733842E0,-4.3059292E-1,-5.1365215E-1,1.586867E0,4.0440273E0,1.0457329E0,4.8880706E0,-8.556591E-4,-2.1390343E0,3.1612223E-1,2.110774E0,3.2657578E0,3.5146862E-1,4.552831E0,3.1867056E0,1.8772162E0,-2.1272258E-1,-9.460157E-3,-1.4556962E-1,1.4668335E-1,2.921573E-1,-1.3376535E-1,1.6029255E-1,-6.531957E-2,1.9388002E-1,5.0098413E-1,-1.0663935E-1,4.1560504E-1,7.6250075E-3,-2.8145728E-1,5.66758E-2,3.6179313E-1,-3.0131987E-3,-2.5031373E-1,6.44567E-2,3.3750373E-1,3.817275E-2,5.691358E-1,1.3512276E-1,-7.1765475E-2,5.717041E-1,8.2637526E-2,-4.062828E-1,-2.0783164E-3,1.5714698E-1,4.8957786E-1,9.814187E-2,3.5795343E-1,9.2524104E-2,-2.4252474E-1,6.599325E-1,1.7935167E-1,3.8816783E-1,2.1771307E-1,1.4475839E-1,3.129583E-1],"categories":[],"categories_nodes":[],"categories_segments":[],"categories_sizes":[],"default_left":[0,0,0,0,0,0,0,0,0,0,0,0,0,0,0,0,0,0,0,0,0,0,0,0,0,0,0,0,0,0,0,0,0,0,0,0,0,0,0,0,0,0,0,0,0,0,0,0,0,0,0,0,0,0,0,0,0,0,0,0,0,0,0,0,0,0,0,0,0,0,0,0,0,0,0,0,0,0,0,0,0,0,0,0,0,0,0,0,0,0,0],"id":15,"left_children":[1,3,5,7,9,11,13,15,17,-1,-1,19,21,23,25,27,29,31,33,35,37,39,41,43,45,47,49,51,-1,53,55,57,59,61,63,65,-1,67,69,71,73,75,-1,77,-1,79,81,83,85,87,89,-1,-1,-1,-1,-1,-1,-1,-1,-1,-1,-1,-1,-1,-1,-1,-1,-1,-1,-1,-1,-1,-1,-1,-1,-1,-1,-1,-1,-1,-1,-1,-1,-1,-1,-1,-1,-1,-1,-1,-1],"loss_changes":[1.6273068E4,4.4098828E2,1.2585762E3,3.5386816E2,1.1795659E2,4.978639E2,2.9968262E2,1.3622705E2,2.727208E2,0E0,0E0,3.6619437E2,4.192904E2,2.8131738E2,4.9754443E2,4.0442627E1,1.5038184E2,2.2034383E2,1.5890323E2,5.98905E2,3.667567E2,2.6612836E2,3.0074963E2,2.2555498E2,1.7159326E2,5.0375052E2,3.500879E2,4.311731E1,0E0,1.16964355E2,1.4898022E2,1.4573584E2,3.922641E1,2.7929892E2,7.805011E1,2.0886908E2,0E0,3.8374506E2,1.7474878E2,1.9088403E2,2.3207446E2,1.9056311E2,0E0,8.54922E1,0E0,2.8368756E2,3.147334E2,4.2762915E2,1.6886548E2,2.0273877E2,3.532776E2,0E0,0E0,0E0,0E0,0E0,0E0,0E0,0E0,0E0,0E0,0E0,0E0,0E0,0E0,0E0,0E0,0E0,0E0,0E0,0E0,0E0,0E0,0E0,0E0,0E0,0E0,0E0,0E0,0E0,0E0,0E0,0E0,0E0,0E0,0E0,0E0,0E0,0E0,0E0,0E0],"parents":[2147483647,0,0,1,1,2,2,3,3,4,4,5,5,6,6,7,7,8,8,11,11,12,12,13,13,14,14,15,15,16,16,17,17,18,18,19,19,20,20,21,21,22,22,23,23,24,24,25,25,26,26,27,27,29,29,30,30,31,31,32,32,33,33,34,34,35,35,37,37,38,38,39,39,40,40,41,41,43,43,45,45,46,46,47,47,48,48,49,49,50,50],"right_children":[2,4,6,8,10,12,14,16,18,-1,-1,20,22,24,26,28,30,32,34,36,38,40,42,44,46,48,50,52,-1,54,56,58,60,62,64,66,-1,68,70,72,74,76,-1,78,-1,80,82,84,86,88,90,-1,-1,-1,-1,-1,-1,-1,-1,-1,-1,-1,-1,-1,-1,-1,-1,-1,-1,-1,-1,-1,-1,-1,-1,-1,-1,-1,-1,-1,-1,-1,-1,-1,-1,-1,-1,-1,-1,-1,-1],"split_conditions":[7.84E0,2.2771428E2,1.57E1,6E0,6.9412813E0,4.9510205E-1,-1E0,-3.3333334E-1,1.625E0,1.024097E-2,3.7517998E-1,1.3529412E0,2.8157144E2,3.7826087E0,1.8766666E1,5.038095E-1,1.0030303E0,7.3030853E0,2E0,6.0190477E0,1.5333333E1,5.15E-1,1.2666667E1,2.0352E1,6.285714E0,1E0,3.257143E1,3E0,-3.5994062E-1,7.5133333E0,7.3030305E0,8.1E1,5.1285713E1,3.2E1,4.3E1,2.8E1,-4.3059292E-1,2.8733334E2,6.3333335E0,4.761905E-2,3.9215688E-2,3.6363635E-2,-8.556591E-4,2.33E2,3.1612223E-1,2.6666666E1,-1.2E1,1.9608E1,6.3023257E0,2.162E1,2.6713333E1,-2.1272258E-1,-9.460157E-3,-1.4556962E-1,1.4668335E-1,2.921573E-1,-1.3376535E-1,1.6029255E-1,-6.531957E-2,1.9388002E-1,5.0098413E-1,-1.0663935E-1,4.1560504E-1,7.6250075E-3,-2.8145728E-1,5.66758E-2,3.6179313E-1,-3.0131987E-3,-2.5031373E-1,6.44567E-2,3.3750373E-1,3.817275E-2,5.691358E-1,1.3512276E-1,-7.1765475E-2,5.717041E-1,8.2637526E-2,-4.062828E-1,-2.0783164E-3,1.5714698E-1,4.8957786E-1,9.814187E-2,3.5795343E-1,9.2524104E-2,-2.4252474E-1,6.599325E-1,1.7935167E-1,3.8816783E-1,2.1771307E-1,1.4475839E-1,3.129583E-1],"split_indices":[26,12,28,5,20,4,27,16,21,0,0,21,12,1,26,27,4,20,10,27,17,4,13,28,17,30,9,5,0,26,20,32,12,5,32,8,0,11,1,10,3,3,0,12,0,13,5,28,1,28,26,0,0,0,0,0,0,0,0,0,0,0,0,0,0,0,0,0,0,0,0,0,0,0,0,0,0,0,0,0,0,0,0,0,0,0,0,0,0,0,0],"split_type":[0,0,0,0,0,0,0,0,0,0,0,0,0,0,0,0,0,0,0,0,0,0,0,0,0,0,0,0,0,0,0,0,0,0,0,0,0,0,0,0,0,0,0,0,0,0,0,0,0,0,0,0,0,0,0,0,0,0,0,0,0,0,0,0,0,0,0,0,0,0,0,0,0,0,0,0,0,0,0,0,0,0,0,0,0,0,0,0,0,0,0],"sum_hessian":[6.872E3,3.791E3,3.081E3,3.756E3,3.5E1,1.152E3,1.929E3,3.462E3,2.94E2,1.6E1,1.9E1,6.2E2,5.32E2,6.68E2,1.261E3,2.74E2,3.188E3,1.44E2,1.5E2,1.18E2,5.02E2,4.59E2,7.3E1,3.2E1,6.36E2,2.97E2,9.64E2,2.55E2,1.9E1,3.157E3,3.1E1,1.24E2,2E1,8E1,7E1,1.05E2,1.3E1,3.98E2,1.04E2,3.1E1,4.28E2,5.7E1,1.6E1,2E1,1.2E1,1.93E2,4.43E2,2.66E2,3.1E1,3E2,6.64E2,2.44E2,1.1E1,3.144E3,1.3E1,1.5E1,1.6E1,4.3E1,8.1E1,1E1,1E1,6.9E1,1.1E1,1.1E1,5.9E1,3.3E1,7.2E1,3.21E2,7.7E1,6.9E1,3.5E1,1E1,2.1E1,3.65E2,6.3E1,4.7E1,1E1,1E1,1E1,1.63E2,3E1,5.4E1,3.89E2,2.21E2,4.5E1,1.7E1,1.4E1,1.76E2,1.24E2,4.96E2,1.68E2],"tree_param":{"num_deleted":"0","num_feature":"34","num_nodes":"91","size_leaf_vector":"1"}},{"base_weights":[-1.3252873E-2,-1.1087399E0,1.7195156E0,-1.1951603E0,1.6210936E0,1.3162605E0,2.2158444E0,-1.3197281E0,-2.7371854E-1,5.964331E-1,1.1656704E0,1.7022213E0,5.239492E-1,2.104268E0,4.4297156E0,-1.5293812E-2,-1.3484131E0,-4.6978307E-1,3.205643E0,2.0170712E0,-8.296613E-1,1.0927882E0,2.213742E0,2.3626418E-1,2.3947053E0,2.5994825E0,1.6276572E0,1.2696542E-1,5.3555565E0,-1.6378728E0,1.649282E0,2.0447354E-1,-1.3587186E0,3.9039594E-1,-1.1098796E0,-7.43993E-3,5.260319E-1,3.8469045E0,8.5223025E-1,1.0409005E0,-3.517841E-1,1.2929662E0,-2.68848E0,1.7785491E0,3.2663844E0,2.0788944E0,-1.0273926E-1,4.4998875E0,1.0190986E0,2.8093057E0,-1.6173342E-1,2.0434687E0,3.5736915E-1,6.382404E0,1.788145E-1,7.1094215E-2,-3.0755994E-1,3.680408E-1,-8.751572E-3,-1.368323E-1,1.5397911E-1,-1.775741E-2,1.9775735E-1,-7.266353E-2,-5.509962E-1,6.209681E-1,1.6642073E-1,-1.4908165E-1,2.0328763E-1,3.5955015E-1,-1.8405642E-1,9.1976725E-2,3.3316255E-1,4.289243E-2,-5.5818444E-1,3.4265965E-2,2.2229885E-1,6.9701034E-1,2.7288875E-1,2.897974E-1,-2.2054942E-1,-2.5326142E-1,2.3247665E-2,1.4931068E-1,6.4048684E-1,-4.8434086E-2,4.5674857E-1,2.5698233E-1,5.439447E-1,-1.7456345E-1,2.5944775E-1,4.402701E-3,2.3440602E-1,3.166404E-1,-3.7853014E-2,8.716958E-1,2.999808E-1],"categories":[],"categories_nodes":[],"categories_segments":[],"categories_sizes":[],"default_left":[0,0,0,0,0,0,0,0,0,0,0,0,0,0,0,0,0,0,0,0,0,0,0,0,0,0,0,0,0,0,0,0,0,0,0,0,0,0,0,0,0,0,0,0,0,0,0,0,0,0,0,0,0,0,0,0,0,0,0,0,0,0,0,0,0,0,0,0,0,0,0,0,0,0,0,0,0,0,0,0,0,0,0,0,0,0,0,0,0,0,0,0,0,0,0,0,0],"id":16,"left_children":[1,3,5,7,9,11,13,15,17,-1,19,21,23,25,27,29,31,33,35,37,39,41,43,45,47,49,51,-1,53,55,57,-1,59,61,63,-1,-1,65,67,69,-1,71,73,75,77,79,81,83,85,87,89,91,93,95,-1,-1,-1,-1,-1,-1,-1,-1,-1,-1,-1,-1,-1,-1,-1,-1,-1,-1,-1,-1,-1,-1,-1,-1,-1,-1,-1,-1,-1,-1,-1,-1,-1,-1,-1,-1,-1,-1,-1,-1,-1,-1,-1],"loss_changes":[1.298197E4,9.9041455E2,5.272739E2,4.658838E2,2.48211E2,4.4680078E2,2.8363867E2,1.3385889E2,3.323629E2,0E0,2.0213509E2,3.043308E2,2.5830286E2,2.627124E2,1.5704028E2,2.1337196E2,1.2520117E2,2.5370816E2,1.7561642E2,1.7363312E2,1.8468436E2,3.4485016E2,2.3881714E2,2.6132062E2,1.8075195E2,3.2084473E2,3.0509778E2,0E0,1.4610437E2,1.3726474E2,1.3790063E2,0E0,9.9291504E1,1.7794061E2,4.411811E2,0E0,0E0,1.5469708E2,1.4687871E2,1.6855957E2,0E0,3.233299E2,2.0984924E2,2.4174121E2,2.8954358E2,2.3449307E2,2.8893332E2,1.3363336E2,2.1560364E2,3.0977588E2,1.7915161E2,2.6193933E2,2.9887057E2,2.3444702E2,0E0,0E0,0E0,0E0,0E0,0E0,0E0,0E0,0E0,0E0,0E0,0E0,0E0,0E0,0E0,0E0,0E0,0E0,0E0,0E0,0E0,0E0,0E0,0E0,0E0,0E0,0E0,0E0,0E0,0E0,0E0,0E0,0E0,0E0,0E0,0E0,0E0,0E0,0E0,0E0,0E0,0E0,0E0],"parents":[2147483647,0,0,1,1,2,2,3,3,4,4,5,5,6,6,7,7,8,8,10,10,11,11,12,12,13,13,14,14,15,15,16,16,17,17,18,18,19,19,20,20,21,21,22,22,23,23,24,24,25,25,26,26,28,28,29,29,30,30,32,32,33,33,34,34,37,37,38,38,39,39,41,41,42,42,43,43,44,44,45,45,46,46,47,47,48,48,49,49,50,50,51,51,52,52,53,53],"right_children":[2,4,6,8,10,12,14,16,18,-1,20,22,24,26,28,30,32,34,36,38,40,42,44,46,48,50,52,-1,54,56,58,-1,60,62,64,-1,-1,66,68,70,-1,72,74,76,78,80,82,84,86,88,90,92,94,96,-1,-1,-1,-1,-1,-1,-1,-1,-1,-1,-1,-1,-1,-1,-1,-1,-1,-1,-1,-1,-1,-1,-1,-1,-1,-1,-1,-1,-1,-1,-1,-1,-1,-1,-1,-1,-1,-1,-1,-1,-1,-1,-1],"split_conditions":[1.1666667E1,2.3266667E2,1.9246666E1,5.464286E0,-7.095238E0,5.52381E-1,8.0360365E0,-7.5238094E0,3.7E1,5.964331E-1,1.75E1,8E0,2.0625E0,3.5333332E1,3.448276E-2,-1.1333333E1,2.75E0,4E0,9.5E0,3.887097E0,8.857142E0,3.25E0,6E0,1.3333334E0,3.6363635E-2,6E-2,3.6447618E0,1.2696542E-1,4.295238E1,-1.0895238E2,-8.1E1,2.0447354E-1,3.0666666E1,1.5E2,7.22381E1,-7.43993E-3,5.260319E-1,5.909091E0,2.2736841E-1,1.847619E1,-3.517841E-1,1.6E1,1.36E1,2E0,3.435484E0,6.9066668E0,5E-1,4.161905E1,7.7429113E0,6.4666664E1,4.4E1,5.7555556E0,6.4E0,2.775E1,1.788145E-1,7.1094215E-2,-3.0755994E-1,3.680408E-1,-8.751572E-3,-1.368323E-1,1.5397911E-1,-1.775741E-2,1.9775735E-1,-7.266353E-2,-5.509962E-1,6.209681E-1,1.6642073E-1,-1.4908165E-1,2.0328763E-1,3.5955015E-1,-1.8405642E-1,9.1976725E-2,3.3316255E-1,4.289243E-2,-5.5818444E-1,3.4265965E-2,2.2229885E-1,6.9701034E-1,2.7288875E-1,2.897974E-1,-2.2054942E-1,-2.5326142E-1,2.3247665E-2,1.4931068E-1,6.4048684E-1,-4.8434086E-2,4.5674857E-1,2.5698233E-1,5.439447E-1,-1.7456345E-1,2.5944775E-1,4.402701E-3,2.3440602E-1,3.166404E-1,-3.7853014E-2,8.716958E-1,2.999808E-1],"split_indices":[26,11,26,1,18,27,20,18,15,0,24,16,21,8,2,18,19,31,8,25,0,23,5,16,2,3,27,0,13,13,13,0,8,6,13,0,0,1,4,13,0,31,24,31,25,27,22,13,20,16,15,1,0,19,0,0,0,0,0,0,0,0,0,0,0,0,0,0,0,0,0,0,0,0,0,0,0,0,0,0,0,0,0,0,0,0,0,0,0,0,0,0,0,0,0,0,0],"split_type":[0,0,0,0,0,0,0,0,0,0,0,0,0,0,0,0,0,0,0,0,0,0,0,0,0,0,0,0,0,0,0,0,0,0,0,0,0,0,0,0,0,0,0,0,0,0,0,0,0,0,0,0,0,0,0,0,0,0,0,0,0,0,0,0,0,0,0,0,0,0,0,0,0,0,0,0,0,0,0,0,0,0,0,0,0,0,0,0,0,0,0,0,0,0,0,0,0],"sum_hessian":[6.837E3,4.189E3,2.648E3,4.061E3,1.28E2,1.463E3,1.185E3,3.577E3,4.84E2,1.1E1,1.17E2,9.83E2,4.8E2,1.13E3,5.5E1,7.7E1,3.5E3,4.59E2,2.5E1,8.2E1,3.5E1,4.5E2,5.33E2,4.17E2,6.3E1,5.52E2,5.78E2,1.3E1,4.2E1,3.9E1,3.8E1,1E1,3.49E3,1.96E2,2.63E2,1E1,1.5E1,3.1E1,5.1E1,2.1E1,1.4E1,4.28E2,2.2E1,3.79E2,1.54E2,6.4E1,3.53E2,2.4E1,3.9E1,5.13E2,3.9E1,4.35E2,1.43E2,3.2E1,1E1,1.5E1,2.4E1,1.7E1,2.1E1,3.479E3,1.1E1,1.45E2,5.1E1,2.43E2,2E1,1.4E1,1.7E1,1.7E1,3.4E1,1.1E1,1E1,3.63E2,6.5E1,1.1E1,1.1E1,9E1,2.89E2,1.8E1,1.36E2,5.4E1,1E1,4.2E1,3.11E2,1E1,1.4E1,2.8E1,1.1E1,4.72E2,4.1E1,2.5E1,1.4E1,5.7E1,3.78E2,2.9E1,1.14E2,1.8E1,1.4E1],"tree_param":{"num_deleted":"0","num_feature":"34","num_nodes":"97","size_leaf_vector":"1"}},{"base_weights":[-1.590859E-2,-1.0601948E0,1.4443938E0,-1.1973171E0,-3.976743E-2,8.08406E-1,1.7307123E0,-1.7660173E0,-1.1108338E0,-1.4385957E0,5.0249964E-1,-4.3126902E-1,1.1969141E0,1.3384355E0,2.0326467E0,-1.6979263E0,-4.1495672E-1,-1.1242187E0,2.6515442E-1,-1.2775443E-1,-2.4465714E0,1.5401379E0,-5.319907E-1,1.2640196E0,-9.829907E-1,1.7006197E0,2.6767063E-1,1.436782E0,-3.276251E-1,1.7666001E0,2.8727844E0,-1.820195E0,-8.486079E-1,-1.1584777E0,2.5022134E-1,-3.1552085E-1,1.3134801E0,-3.2355475E0,6.1568927E-2,5.8502305E-1,3.0979822E0,-2.2975786E0,3.3239976E-1,-1.5907298E-1,2.9558673E0,-5.9040606E-1,-3.4008856E0,1.5275372E0,5.023593E0,4.043324E0,-1.5901178E-1,1.3042823E0,3.396647E0,1.9505291E0,2.0298727E-1,6.990825E-1,3.7904456E0,-1.8784021E-1,3.507748E-2,9.49003E-2,-1.8945223E-1,3.718929E-2,-1.1829652E-1,-5.46561E-2,4.412477E-1,-1.2109871E-2,4.302306E-1,-1.4872833E-1,-3.6502686E-1,4.2091686E-1,-5.8618207E-3,1.0396854E-1,4.4789305E-1,-3.141527E-1,7.355985E-2,4.7913384E-1,-2.8287027E-2,4.595141E-1,8.043539E-3,-1.7197381E-1,3.0035883E-2,-5.4487157E-1,-1.24030106E-1,1.366818E-1,6.3676053E-1,6.9739014E-1,2.6165947E-1,7.670469E-1,9.046152E-2,1.13565944E-1,-1.1527755E-1,