{"learner":{"attributes":{"best_iteration":"208","best_score":"2.193592070995255"},"feature_names":["targets","air_yards","snap_share","target_share","air_yards_share","total_touchdowns","delta_targets","rush_attempts","rush_ypa","rush_share","targets_3wk_avg","targets_trend_3v7","air_yards_3wk_avg","air_yards_trend_3v7","snap_share_3wk_avg","snap_share_trend_3v7","fantasy_ppr_3wk_avg","fantasy_ppr_trend_3v7","fantasy_prev_5wk_avg","tds_3wk_avg","tds_trend_3v7","gadget_usage_3wk_avg","yards_per_target","rec_td_rate","catch_rate","fp_per_target","avg_separation","avg_cushion","avg_yac_above_expectation","racr","team_implied_points","is_favored","abs_spread","def_te_ftps","def_te_targets","def_te_yards_per_target","years_exp_filled","is_rookie","is_second_year","is_undrafted","draft_number_filled"],"feature_types":["float","float","float","float","float","float","float","float","float","float","float","float","float","float","float","float","float","float","float","float","float","float","float","float","float","float","float","float","float","float","float","int","float","float","float","float","float","int","int","int","float"],"gradient_booster":{"model":{"cats":{"enc":[],"feature_segments":[],"sorted_idx":[]},"gbtree_model_param":{"num_parallel_tree":"1","num_trees":"300"},"iteration_indptr":[0,1,2,3,4,5,6,7,8,9,10,11,12,13,14,15,16,17,18,19,20,21,22,23,24,25,26,27,28,29,30,31,32,33,34,35,36,37,38,39,40,41,42,43,44,45,46,47,48,49,50,51,52,53,54,55,56,57,58,59,60,61,62,63,64,65,66,67,68,69,70,71,72,73,74,75,76,77,78,79,80,81,82,83,84,85,86,87,88,89,90,91,92,93,94,95,96,97,98,99,100,101,102,103,104,105,106,107,108,109,110,111,112,113,114,115,116,117,118,119,120,121,122,123,124,125,126,127,128,129,130,131,132,133,134,135,136,137,138,139,140,141,142,143,144,145,146,147,148,149,150,151,152,153,154,155,156,157,158,159,160,161,162,163,164,165,166,167,168,169,170,171,172,173,174,175,176,177,178,179,180,181,182,183,184,185,186,187,188,189,190,191,192,193,194,195,196,197,198,199,200,201,202,203,204,205,206,207,208,209,210,211,212,213,214,215,216,217,218,219,220,221,222,223,224,225,226,227,228,229,230,231,232,233,234,235,236,237,238,239,240,241,242,243,244,245,246,247,248,249,250,251,252,253,254,255,256,257,258,259,260,261,262,263,264,265,266,267,268,269,270,271,272,273,274,275,276,277,278,279,280,281,282,283,284,285,286,287,288,289,290,291,292,293,294,295,296,297,298,299,300],"tree_info":[0,0,0,0,0,0,0,0,0,0,0,0,0,0,0,0,0,0,0,0,0,0,0,0,0,0,0,0,0,0,0,0,0,0,0,0,0,0,0,0,0,0,0,0,0,0,0,0,0,0,0,0,0,0,0,0,0,0,0,0,0,0,0,0,0,0,0,0,0,0,0,0,0,0,0,0,0,0,0,0,0,0,0,0,0,0,0,0,0,0,0,0,0,0,0,0,0,0,0,0,0,0,0,0,0,0,0,0,0,0,0,0,0,0,0,0,0,0,0,0,0,0,0,0,0,0,0,0,0,0,0,0,0,0,0,0,0,0,0,0,0,0,0,0,0,0,0,0,0,0,0,0,0,0,0,0,0,0,0,0,0,0,0,0,0,0,0,0,0,0,0,0,0,0,0,0,0,0,0,0,0,0,0,0,0,0,0,0,0,0,0,0,0,0,0,0,0,0,0,0,0,0,0,0,0,0,0,0,0,0,0,0,0,0,0,0,0,0,0,0,0,0,0,0,0,0,0,0,0,0,0,0,0,0,0,0,0,0,0,0,0,0,0,0,0,0,0,0,0,0,0,0,0,0,0,0,0,0,0,0,0,0,0,0,0,0,0,0,0,0,0,0,0,0,0,0,0,0,0,0,0,0,0,0,0,0,0,0,0,0,0,0,0,0,0,0,0,0,0,0],"trees":[{"base_weights":[-7.15423E-3,-1.9518312E0,4.243671E0,-2.686877E0,-4.484463E-1,2.9756012E0,7.4717836E0,-3.0768912E0,-2.0314329E0,-7.57427E-1,1.4582533E0,2.1608229E0,4.0361605E0,5.953506E0,9.446701E0,-3.2345943E0,-2.4808958E0,-3.7221444E-1,-2.1817245E0,-1.0852815E0,5.6224084E-1,4.357041E0,1.0728008E0,1.1495782E0,3.1835015E0,3.9102077E0,8.131743E0,1.2737302E0,6.164379E0,6.1683636E0,1.0069355E1,-2.8870587E0,-3.3575952E0,-1.0598127E0,-2.600877E0,-1.2294668E0,4.0793446E-1,-2.5629275E0,-1.7665374E0,3.5476962E-1,-1.222337E0,2.500278E0,1.6399866E-1,2.9847229E0,7.079851E-1,2.718297E0,5.0796795E-1,2.2214334E0,3.4470743E-1,4.523543E0,2.5807195E0,3.537362E0,5.199501E0,4.9533364E-1,9.710022E-1,-2.5121946E-2,2.821518E-1,5.5759945E0,7.4041386E0,3.7854736E0,8.841574E0,1.0465383E1,5.58946E0,-3.0469948E-1,-2.4156705E-1,-3.4665963E-1,-3.0420613E-1,-2.1567686E-1,1.975054E-1,-2.8942502E-1,-1.9996004E-1,-1.6682759E-1,8.841971E-2,1.4451362E-1,-5.333475E-2,-4.6433058E-2,-2.5976652E-1,-1.1716768E-3,-1.8769996E-1,3.2014267E-3,3.2571054E-1,-1.5782587E-1,-7.780608E-2,4.2278758E-1,4.589918E-2,-3.1377573E-2,1.7632423E-1,1.0178123E-1,5.030725E-1,3.6083907E-1,4.0165287E-2,1.974363E-1,1.9042687E-3,1.6375136E-1,4.882563E-1,-5.2259367E-2,1.2501225E-1,4.1128755E-1,6.908336E-1,3.4364998E-1,1.752611E-1,2.878986E-1,4.324188E-1,4.623525E-1,7.4882334E-1,6.6173214E-1,4.7729445E-1,8.6695164E-1,4.8265296E-1,4.6917805E-1,1.4639422E-1,5.9948266E-1,1.2137669E0,1.0806789E0,7.137796E-1,3.4026182E-1,7.112092E-1],"categories":[],"categories_nodes":[],"categories_segments":[],"categories_sizes":[],"default_left":[0,0,0,0,0,0,0,0,0,0,0,0,0,0,0,0,0,0,0,0,0,0,0,0,0,0,0,0,0,0,0,0,0,0,0,0,0,0,0,0,0,0,0,0,0,0,0,0,0,0,0,0,0,0,0,0,0,0,0,0,0,0,0,0,0,0,0,0,0,0,0,0,0,0,0,0,0,0,0,0,0,0,0,0,0,0,0,0,0,0,0,0,0,0,0,0,0,0,0,0,0,0,0,0,0,0,0,0,0,0,0,0,0,0,0,0,0],"id":0,"left_children":[1,3,5,7,9,11,13,15,17,19,21,23,25,27,29,31,33,35,37,39,41,43,45,47,49,51,53,55,57,59,61,63,65,67,69,71,73,75,77,79,81,83,85,87,-1,89,91,93,95,97,99,101,103,-1,-1,-1,-1,105,107,109,111,113,115,-1,-1,-1,-1,-1,-1,-1,-1,-1,-1,-1,-1,-1,-1,-1,-1,-1,-1,-1,-1,-1,-1,-1,-1,-1,-1,-1,-1,-1,-1,-1,-1,-1,-1,-1,-1,-1,-1,-1,-1,-1,-1,-1,-1,-1,-1,-1,-1,-1,-1,-1,-1,-1,-1],"loss_changes":[7.906065E4,7.250174E3,1.2266375E4,1.1203223E3,1.2712759E3,1.8551875E3,2.4804688E3,2.5148438E2,4.09896E2,8.0362537E2,3.316466E2,1.260106E3,4.5103906E2,4.6681836E2,6.849922E2,8.349414E1,9.647656E1,9.279379E1,2.3446094E2,2.939181E2,2.85159E2,1.0964819E2,2.4677707E2,5.306605E2,4.7863232E2,4.1905078E2,8.734607E1,5.263538E1,2.9426367E2,3.5509863E2,4.8439844E2,3.6140625E1,4.4621094E1,1.6072812E2,8.876221E1,6.268975E1,7.204062E1,5.6020508E1,1.4070654E2,1.2167251E2,2.1350916E2,2.202302E2,2.358892E2,9.548721E1,0E0,1.387687E2,1.4335393E2,4.0223083E2,2.7785272E2,1.547268E2,2.923308E2,3.5483203E2,2.3166602E2,0E0,0E0,0E0,0E0,2.3266699E2,4.310962E2,6.466818E1,1.8996484E2,2.4096094E2,6.5703674E1,0E0,0E0,0E0,0E0,0E0,0E0,0E0,0E0,0E0,0E0,0E0,0E0,0E0,0E0,0E0,0E0,0E0,0E0,0E0,0E0,0E0,0E0,0E0,0E0,0E0,0E0,0E0,0E0,0E0,0E0,0E0,0E0,0E0,0E0,0E0,0E0,0E0,0E0,0E0,0E0,0E0,0E0,0E0,0E0,0E0,0E0,0E0,0E0,0E0,0E0,0E0,0E0,0E0,0E0],"parents":[2147483647,0,0,1,1,2,2,3,3,4,4,5,5,6,6,7,7,8,8,9,9,10,10,11,11,12,12,13,13,14,14,15,15,16,16,17,17,18,18,19,19,20,20,21,21,22,22,23,23,24,24,25,25,26,26,27,27,28,28,29,29,30,30,31,31,32,32,33,33,34,34,35,35,36,36,37,37,38,38,39,39,40,40,41,41,42,42,43,43,45,45,46,46,47,47,48,48,49,49,50,50,51,51,52,52,57,57,58,58,59,59,60,60,61,61,62,62],"right_children":[2,4,6,8,10,12,14,16,18,20,22,24,26,28,30,32,34,36,38,40,42,44,46,48,50,52,54,56,58,60,62,64,66,68,70,72,74,76,78,80,82,84,86,88,-1,90,92,94,96,98,100,102,104,-1,-1,-1,-1,106,108,110,112,114,116,-1,-1,-1,-1,-1,-1,-1,-1,-1,-1,-1,-1,-1,-1,-1,-1,-1,-1,-1,-1,-1,-1,-1,-1,-1,-1,-1,-1,-1,-1,-1,-1,-1,-1,-1,-1,-1,-1,-1,-1,-1,-1,-1,-1,-1,-1,-1,-1,-1,-1,-1,-1,-1,-1],"split_conditions":[3E0,1.3333334E0,6.3333335E0,5E-1,7E-1,7.633333E0,1.26E1,7E-1,-5.6666665E0,4.64E0,-9.3333334E-1,6.3E-1,1.5E0,5E-1,7.45E-1,1.68E2,1.6666668E-2,2.64E0,3.0666667E-1,-4.7619048E-1,4.3E1,2.3E1,9.2E1,1.01E2,5E1,1.126E1,9.466666E0,6.363636E-1,8.8E-1,2.1052632E-1,1E1,2.5666666E-1,3.3333334E-1,2.85E1,3.2E-1,5.0333333E-1,4E-1,3.2E1,4.7E1,1.1111111E-1,2E0,4.5E0,7.4074075E-2,7.0625E0,7.079851E-1,7.907563E0,2E0,1.5789473E-1,4.98E0,9.3E-1,6.666667E-2,7.3E-1,2.0689656E-1,4.9533364E-1,9.710022E-1,-2.5121946E-2,2.821518E-1,1E0,6.5E0,2.75E1,8.333333E0,7.4285716E-2,4.7619047E-4,-3.0469948E-1,-2.4156705E-1,-3.4665963E-1,-3.0420613E-1,-2.1567686E-1,1.975054E-1,-2.8942502E-1,-1.9996004E-1,-1.6682759E-1,8.841971E-2,1.4451362E-1,-5.333475E-2,-4.6433058E-2,-2.5976652E-1,-1.1716768E-3,-1.8769996E-1,3.2014267E-3,3.2571054E-1,-1.5782587E-1,-7.780608E-2,4.2278758E-1,4.589918E-2,-3.1377573E-2,1.7632423E-1,1.0178123E-1,5.030725E-1,3.6083907E-1,4.0165287E-2,1.974363E-1,1.9042687E-3,1.6375136E-1,4.882563E-1,-5.2259367E-2,1.2501225E-1,4.1128755E-1,6.908336E-1,3.4364998E-1,1.752611E-1,2.878986E-1,4.324188E-1,4.623525E-1,7.4882334E-1,6.6173214E-1,4.7729445E-1,8.6695164E-1,4.8265296E-1,4.6917805E-1,1.4639422E-1,5.9948266E-1,1.2137669E0,1.0806789E0,7.137796E-1,3.4026182E-1,7.112092E-1],"split_indices":[10,10,10,10,2,16,18,18,13,18,11,2,8,2,14,40,14,18,14,11,40,1,40,40,40,18,16,24,2,3,36,14,10,30,2,14,14,40,40,3,10,32,3,34,0,35,36,3,18,2,11,2,3,0,0,0,0,31,32,30,10,15,15,0,0,0,0,0,0,0,0,0,0,0,0,0,0,0,0,0,0,0,0,0,0,0,0,0,0,0,0,0,0,0,0,0,0,0,0,0,0,0,0,0,0,0,0,0,0,0,0,0,0,0,0,0,0],"split_type":[0,0,0,0,0,0,0,0,0,0,0,0,0,0,0,0,0,0,0,0,0,0,0,0,0,0,0,0,0,0,0,0,0,0,0,0,0,0,0,0,0,0,0,0,0,0,0,0,0,0,0,0,0,0,0,0,0,0,0,0,0,0,0,0,0,0,0,0,0,0,0,0,0,0,0,0,0,0,0,0,0,0,0,0,0,0,0,0,0,0,0,0,0,0,0,0,0,0,0,0,0,0,0,0,0,0,0,0,0,0,0,0,0,0,0,0,0],"sum_hessian":[9.562E3,6.561E3,3.001E3,4.406E3,2.155E3,2.156E3,8.45E2,2.76E3,1.646E3,1.855E3,3E2,1.221E3,9.35E2,4.8E2,3.65E2,2.179E3,5.81E2,1.37E2,1.509E3,1.486E3,3.69E2,3.4E1,2.66E2,6.15E2,6.06E2,9.09E2,2.6E1,2.1E1,4.59E2,6E1,3.05E2,5.76E2,1.603E3,4.6E1,5.35E2,6.5E1,7.2E1,7.84E2,7.25E2,1.29E2,1.357E3,6.2E1,3.07E2,2.4E1,1E1,6.7E1,1.99E2,2.63E2,3.52E2,1.86E2,4.2E2,7.08E2,2.01E2,1E1,1.6E1,1.1E1,1E1,3.15E2,1.44E2,3.3E1,2.7E1,2.79E2,2.6E1,4.26E2,1.5E2,1.184E3,4.19E2,3.4E1,1.2E1,3.57E2,1.78E2,5.4E1,1.1E1,3.4E1,3.8E1,1.3E1,7.71E2,4.3E1,6.82E2,1.17E2,1.2E1,7.52E2,6.05E2,3.3E1,2.9E1,2.37E2,7E1,1.3E1,1.1E1,4.8E1,1.9E1,4.9E1,1.5E2,2.17E2,4.6E1,1.8E2,1.72E2,1.61E2,2.5E1,2.05E2,2.15E2,3.88E2,3.2E2,1.63E2,3.8E1,1.34E2,1.81E2,9.5E1,4.9E1,2.3E1,1E1,1.6E1,1.1E1,2.51E2,2.8E1,1.2E1,1.4E1],"tree_param":{"num_deleted":"0","num_feature":"41","num_nodes":"117","size_leaf_vector":"1"}},{"base_weights":[1.3812935E-3,-1.6243521E0,3.8642936E0,-2.374315E0,-3.089483E-1,2.7840064E0,6.342687E0,-2.5080988E0,-4.0100816E-1,-8.6912936E-1,1.0975822E0,2.0868633E0,4.529353E0,3.9019384E0,7.0078235E0,-2.8202448E0,-2.0665104E0,-7.521947E-1,2.2673717E0,1.3709534E0,-1.0958365E0,2.531996E0,6.681525E-1,4.143322E0,1.7378529E0,3.7731915E0,5.573148E0,6.2420764E0,3.258916E0,6.3308535E0,9.005079E0,-5.483245E-1,-2.8524218E0,1.0417327E0,-2.1222787E0,-5.0137544E-1,-2.5079386E0,1.2771478E0,4.0416947E-1,4.146675E0,6.502575E-1,-6.56561E-1,-1.6838083E0,4.355728E0,2.0053086E0,3.0874225E-1,2.6303637E0,3.3500133E0,6.231559E0,6.583926E-1,2.3488333E0,2.852909E0,4.2811E0,6.1083856E0,3.72013E0,7.359387E0,3.7212092E-1,2.650562E0,4.68279E0,7.148977E0,4.9325585E0,9.321492E0,3.6415836E-1,1.1860233E-1,-1.320387E-1,-2.964582E-1,-2.3134871E-1,2.7265164E-1,-7.7169235E-3,-1.8691513E-1,-2.4688517E-1,-6.9736235E-2,2.8395185E-1,-1.6340028E-1,-2.9997846E-1,1.594635E-2,2.3803353E-1,5.2443564E-1,1.4745532E-1,-1.0334116E-1,1.1708988E-1,-8.4809944E-2,7.8879826E-2,-1.8715079E-1,-6.1780095E-2,2.502086E-1,5.472343E-1,2.3895343E-1,-7.85589E-2,7.375996E-2,-4.4947732E-2,1.2902755E-1,4.7258076E-1,-9.694901E-3,3.5969174E-1,4.008691E-1,8.231872E-1,5.198138E-2,5.990516E-1,1.7057136E-1,3.167665E-1,1.7409685E-1,3.520589E-1,4.9986824E-1,3.052544E-1,6.8678296E-1,4.816862E-1,2.4028449E-1,5.586838E-1,4.844215E-1,9.5019263E-1,1.4948104E-1,4.1255686E-1,6.476369E-1,1.2513518E-1,5.1239294E-1,7.979607E-1,8.1286335E-1,4.6321398E-1,5.4086894E-1,9.664344E-1],"categories":[],"categories_nodes":[],"categories_segments":[],"categories_sizes":[],"default_left":[0,0,0,0,0,0,0,0,0,0,0,0,0,0,0,0,0,0,0,0,0,0,0,0,0,0,0,0,0,0,0,0,0,0,0,0,0,0,0,0,0,0,0,0,0,0,0,0,0,0,0,0,0,0,0,0,0,0,0,0,0,0,0,0,0,0,0,0,0,0,0,0,0,0,0,0,0,0,0,0,0,0,0,0,0,0,0,0,0,0,0,0,0,0,0,0,0,0,0,0,0,0,0,0,0,0,0,0,0,0,0,0,0,0,0,0,0,0,0,0,0],"id":1,"left_children":[1,3,5,7,9,11,13,15,17,19,21,23,25,27,29,31,33,35,37,39,41,43,45,47,49,51,53,55,57,59,61,63,65,67,69,71,73,75,-1,77,79,81,83,85,87,89,91,93,95,97,99,101,103,105,107,109,-1,111,113,115,117,119,-1,-1,-1,-1,-1,-1,-1,-1,-1,-1,-1,-1,-1,-1,-1,-1,-1,-1,-1,-1,-1,-1,-1,-1,-1,-1,-1,-1,-1,-1,-1,-1,-1,-1,-1,-1,-1,-1,-1,-1,-1,-1,-1,-1,-1,-1,-1,-1,-1,-1,-1,-1,-1,-1,-1,-1,-1,-1,-1],"loss_changes":[5.99809E4,6.630549E3,7.5566406E3,1.1291602E3,1.9250344E3,2.3899912E3,1.3655547E3,5.4677344E2,2.5753357E2,8.8870337E2,4.2703027E2,1.00550977E3,4.2254492E2,2.5954346E2,8.529453E2,1.6993555E2,2.906494E2,1.053132E2,5.1061417E1,3.1937634E2,4.0878735E2,1.449513E2,3.779011E2,3.1707422E2,7.9516504E2,1.415669E2,2.093584E2,8.246118E1,1.1578845E2,5.4358984E2,2.5116406E2,4.709286E1,1.3295508E2,5.6763626E1,1.3881934E2,1.4144649E2,7.9936066E0,2.6746761E1,0E0,8.9060425E1,1.14289825E2,2.5259506E2,1.345044E2,5.8750854E1,1.3699133E2,1.4828299E2,2.2697308E2,1.2800903E2,2.1155469E2,3.2053275E2,4.0061084E2,8.296124E1,1.6987549E2,1.4346973E2,1.2181995E2,9.408093E1,0E0,1.7453552E2,2.565417E2,4.9232812E2,1.4477783E2,1.596875E2,0E0,0E0,0E0,0E0,0E0,0E0,0E0,0E0,0E0,0E0,0E0,0E0,0E0,0E0,0E0,0E0,0E0,0E0,0E0,0E0,0E0,0E0,0E0,0E0,0E0,0E0,0E0,0E0,0E0,0E0,0E0,0E0,0E0,0E0,0E0,0E0,0E0,0E0,0E0,0E0,0E0,0E0,0E0,0E0,0E0,0E0,0E0,0E0,0E0,0E0,0E0,0E0,0E0,0E0,0E0,0E0,0E0,0E0,0E0],"parents":[2147483647,0,0,1,1,2,2,3,3,4,4,5,5,6,6,7,7,8,8,9,9,10,10,11,11,12,12,13,13,14,14,15,15,16,16,17,17,18,18,19,19,20,20,21,21,22,22,23,23,24,24,25,25,26,26,27,27,28,28,29,29,30,30,31,31,32,32,33,33,34,34,35,35,36,36,37,37,39,39,40,40,41,41,42,42,43,43,44,44,45,45,46,46,47,47,48,48,49,49,50,50,51,51,52,52,53,53,54,54,55,55,57,57,58,58,59,59,60,60,61,61],"right_children":[2,4,6,8,10,12,14,16,18,20,22,24,26,28,30,32,34,36,38,40,42,44,46,48,50,52,54,56,58,60,62,64,66,68,70,72,74,76,-1,78,80,82,84,86,88,90,92,94,96,98,100,102,104,106,108,110,-1,112,114,116,118,120,-1,-1,-1,-1,-1,-1,-1,-1,-1,-1,-1,-1,-1,-1,-1,-1,-1,-1,-1,-1,-1,-1,-1,-1,-1,-1,-1,-1,-1,-1,-1,-1,-1,-1,-1,-1,-1,-1,-1,-1,-1,-1,-1,-1,-1,-1,-1,-1,-1,-1,-1,-1,-1,-1,-1,-1,-1,-1,-1],"split_conditions":[5.1E0,1.7333333E0,1.1133333E1,5.6E-1,5.5333334E-1,7.6666665E-1,6.8E-1,4.3333334E-1,7.2333336E-1,-1.4333333E0,-1.6571429E0,-1.3047619E0,1.6666667E-1,6.564815E0,1.75E1,-1.1E1,-3.0190477E0,2.3333333E-1,8.3666664E-1,-1.5238096E0,5.6666666E-1,-4.1571426E0,7.9333335E-1,1.701031E1,5.0333333E-1,8.3E-1,9.5238096E-1,1E0,1.12E1,2.2833333E0,2.7142856E0,6.625E0,2.7666667E-1,6.352941E0,3.3333335E-2,1E-1,1E0,9E0,4.0416947E-1,7E0,2.5E0,3E1,9.756097E-2,3.6666667E0,2.1E0,1.6666667E-1,5E0,1.2E-1,7.5333333E0,3.0303031E-2,7.766667E0,7.633333E0,6.6190475E-1,9.1E-1,7.5438595E0,5E0,3.7212092E-1,6.3E-1,1.65E1,1.3102529E1,-4.1904764E0,7.5666666E-1,3.6415836E-1,1.1860233E-1,-1.320387E-1,-2.964582E-1,-2.3134871E-1,2.7265164E-1,-7.7169235E-3,-1.8691513E-1,-2.4688517E-1,-6.9736235E-2,2.8395185E-1,-1.6340028E-1,-2.9997846E-1,1.594635E-2,2.3803353E-1,5.2443564E-1,1.4745532E-1,-1.0334116E-1,1.1708988E-1,-8.4809944E-2,7.8879826E-2,-1.8715079E-1,-6.1780095E-2,2.502086E-1,5.472343E-1,2.3895343E-1,-7.85589E-2,7.375996E-2,-4.4947732E-2,1.2902755E-1,4.7258076E-1,-9.694901E-3,3.5969174E-1,4.008691E-1,8.231872E-1,5.198138E-2,5.990516E-1,1.7057136E-1,3.167665E-1,1.7409685E-1,3.520589E-1,4.9986824E-1,3.052544E-1,6.8678296E-1,4.816862E-1,2.4028449E-1,5.586838E-1,4.844215E-1,9.5019263E-1,1.4948104E-1,4.1255686E-1,6.476369E-1,1.2513518E-1,5.1239294E-1,7.979607E-1,8.1286335E-1,4.6321398E-1,5.4086894E-1,9.664344E-1],"split_indices":[16,16,16,2,14,14,2,16,14,17,17,17,3,35,16,13,17,17,14,11,17,17,14,4,14,2,11,31,22,17,29,34,14,34,17,17,31,1,0,32,16,1,3,22,25,17,36,2,16,9,16,16,17,2,35,36,0,14,22,4,13,14,0,0,0,0,0,0,0,0,0,0,0,0,0,0,0,0,0,0,0,0,0,0,0,0,0,0,0,0,0,0,0,0,0,0,0,0,0,0,0,0,0,0,0,0,0,0,0,0,0,0,0,0,0,0,0,0,0,0,0],"split_type":[0,0,0,0,0,0,0,0,0,0,0,0,0,0,0,0,0,0,0,0,0,0,0,0,0,0,0,0,0,0,0,0,0,0,0,0,0,0,0,0,0,0,0,0,0,0,0,0,0,0,0,0,0,0,0,0,0,0,0,0,0,0,0,0,0,0,0,0,0,0,0,0,0,0,0,0,0,0,0,0,0,0,0,0,0,0,0,0,0,0,0,0,0,0,0,0,0,0,0,0,0,0,0,0,0,0,0,0,0,0,0,0,0,0,0,0,0,0,0,0,0],"sum_hessian":[9.549E3,6.721E3,2.828E3,4.28E3,2.441E3,1.971E3,8.57E2,4.008E3,2.72E2,1.746E3,6.95E2,1.41E3,5.61E2,1.85E2,6.72E2,2.345E3,1.663E3,2.41E2,3.1E1,1.6E2,1.586E3,1.59E2,5.36E2,2.03E2,1.207E3,3.28E2,2.33E2,3.8E1,1.47E2,5.05E2,1.67E2,3.3E1,2.312E3,2.9E1,1.634E3,2.12E2,2.9E1,2.1E1,1E1,3.2E1,1.28E2,9.09E2,6.77E2,3.4E1,1.25E2,4.54E2,8.2E1,1.49E2,5.4E1,4.37E2,7.7E2,1.19E2,2.09E2,1.79E2,5.4E1,2.5E1,1.3E1,1.05E2,4.2E1,3.16E2,1.89E2,1.57E2,1E1,1E1,2.3E1,1.91E3,4.02E2,1.1E1,1.8E1,9.48E2,6.86E2,2.01E2,1.1E1,1.2E1,1.7E1,1.1E1,1E1,2.2E1,1E1,3E1,9.8E1,8.03E2,1.06E2,5.75E2,1.02E2,1.4E1,2E1,1.1E2,1.5E1,2.9E2,1.64E2,5.1E1,3.1E1,1E1,1.39E2,2.7E1,2.7E1,4.27E2,1E1,4.33E2,3.37E2,4.6E1,7.3E1,1.3E2,7.9E1,1.1E2,6.9E1,3.3E1,2.1E1,1.3E1,1.2E1,6E1,4.5E1,2.7E1,1.5E1,9.4E1,2.22E2,1.4E1,1.75E2,1.4E1,1.43E2],"tree_param":{"num_deleted":"0","num_feature":"41","num_nodes":"121","size_leaf_vector":"1"}},{"base_weights":[-1.5232752E-2,-1.554337E0,3.460001E0,-2.048346E0,2.0090718E-2,2.4689343E0,6.470497E0,-2.4628963E0,-1.4745591E0,7.0057607E-1,-7.4661624E-1,1.5738667E0,3.2930164E0,4.8991547E0,8.293077E0,-1.8508562E0,-2.57511E0,-4.4948405E-1,-1.6593459E0,3.8095555E-1,2.0254579E0,-9.209643E-1,8.1169367E-1,2.630606E0,9.114143E-1,2.6887815E0,4.3045845E0,4.215912E0,6.587921E0,6.0311456E0,8.895691E0,-6.818402E-1,-1.9728631E0,-2.6910188E0,-2.1102676E0,2.667993E-1,-5.6644684E-1,-1.6908077E0,3.6283594E-1,3.02489E-1,4.3956956E-1,1.6228507E0,5.0125736E-1,-1.0854825E0,-1.510221E-1,3.3539864E-1,3.7567988E-1,2.0600917E0,3.7084694E0,2.708134E-2,1.435953E0,1.9985073E0,3.5653753E0,3.8594275E0,5.9029417E0,4.570188E0,1.7273633E0,7.554472E0,4.245667E0,7.2030454E0,3.84863E0,2.8905424E-1,9.120734E0,-1.5005107E-1,1.0555347E-1,-2.2263217E-1,-1.4681165E-1,-2.7383873E-1,-2.2148235E-1,-7.036817E-2,-2.2209144E-1,-8.586068E-2,6.443148E-2,-2.7626703E-2,-1.7705251E-1,9.725083E-2,3.9136056E-3,2.6509717E-1,7.650873E-2,6.761166E-2,-1.1731762E-1,1.0896242E-1,-5.229261E-2,1.3033791E-1,-1.3021013E-1,3.869819E-1,1.4933485E-1,6.2288994E-1,3.2889846E-1,-2.0712582E-2,3.1941736E-1,5.275306E-1,1.3079043E-1,1.2670481E-1,2.9890117E-1,2.2481127E-1,4.3484074E-1,9.624766E-2,4.076403E-1,9.179985E-1,5.2966356E-1,1.9539003E-1,4.8942885E-1,3.6112794E-1,-2.4746655E-2,5.217952E-1,8.830821E-1,2.4952622E-1,6.41319E-1,8.421545E-1,3.3683884E-1,4.9870282E-1,1.9151804E-1,9.6999854E-1,7.249517E-1],"categories":[],"categories_nodes":[],"categories_segments":[],"categories_sizes":[],"default_left":[0,0,0,0,0,0,0,0,0,0,0,0,0,0,0,0,0,0,0,0,0,0,0,0,0,0,0,0,0,0,0,0,0,0,0,0,0,0,0,0,0,0,0,0,0,0,0,0,0,0,0,0,0,0,0,0,0,0,0,0,0,0,0,0,0,0,0,0,0,0,0,0,0,0,0,0,0,0,0,0,0,0,0,0,0,0,0,0,0,0,0,0,0,0,0,0,0,0,0,0,0,0,0,0,0,0,0,0,0,0,0,0,0,0,0],"id":2,"left_children":[1,3,5,7,9,11,13,15,17,19,21,23,25,27,29,31,33,35,37,39,41,43,45,47,49,51,53,55,57,59,61,63,65,67,69,-1,71,73,-1,75,-1,77,-1,79,81,-1,83,85,87,89,91,93,95,97,99,101,103,105,107,109,111,-1,113,-1,-1,-1,-1,-1,-1,-1,-1,-1,-1,-1,-1,-1,-1,-1,-1,-1,-1,-1,-1,-1,-1,-1,-1,-1,-1,-1,-1,-1,-1,-1,-1,-1,-1,-1,-1,-1,-1,-1,-1,-1,-1,-1,-1,-1,-1,-1,-1,-1,-1,-1,-1],"loss_changes":[5.147637E4,5.187842E3,8.797582E3,1.204002E3,8.321652E2,1.6352598E3,2.0528809E3,1.9756445E2,4.0309766E2,3.570516E2,2.045138E2,7.4524414E2,6.956133E2,4.279912E2,4.0570508E2,6.426367E1,1.2831836E2,1.20744896E2,3.06583E2,2.1351585E2,1.8909729E2,8.533795E1,8.2984055E1,2.4509912E2,3.0518555E2,4.327754E2,2.838833E2,2.4248877E2,2.2148389E2,1.6154712E2,3.3041016E2,6.5589035E1,4.9951416E1,3.8754883E1,7.640991E1,0E0,1.1233378E2,2.0203418E2,0E0,1.1818446E2,0E0,1.2672693E2,0E0,8.668469E1,5.5937954E1,0E0,1.0442457E2,2.7217236E2,1.2859009E2,1.8313348E2,1.9614124E2,2.9253882E2,3.1925952E2,2.0979004E2,1.3417139E2,2.0072607E2,1.3854898E2,1.8653369E2,1.1678882E2,1.9124194E2,5.207791E1,0E0,2.0499023E2,0E0,0E0,0E0,0E0,0E0,0E0,0E0,0E0,0E0,0E0,0E0,0E0,0E0,0E0,0E0,0E0,0E0,0E0,0E0,0E0,0E0,0E0,0E0,0E0,0E0,0E0,0E0,0E0,0E0,0E0,0E0,0E0,0E0,0E0,0E0,0E0,0E0,0E0,0E0,0E0,0E0,0E0,0E0,0E0,0E0,0E0,0E0,0E0,0E0,0E0,0E0,0E0],"parents":[2147483647,0,0,1,1,2,2,3,3,4,4,5,5,6,6,7,7,8,8,9,9,10,10,11,11,12,12,13,13,14,14,15,15,16,16,17,17,18,18,19,19,20,20,21,21,22,22,23,23,24,24,25,25,26,26,27,27,28,28,29,29,30,30,31,31,32,32,33,33,34,34,36,36,37,37,39,39,41,41,43,43,44,44,46,46,47,47,48,48,49,49,50,50,51,51,52,52,53,53,54,54,55,55,56,56,57,57,58,58,59,59,60,60,62,62],"right_children":[2,4,6,8,10,12,14,16,18,20,22,24,26,28,30,32,34,36,38,40,42,44,46,48,50,52,54,56,58,60,62,64,66,68,70,-1,72,74,-1,76,-1,78,-1,80,82,-1,84,86,88,90,92,94,96,98,100,102,104,106,108,110,112,-1,114,-1,-1,-1,-1,-1,-1,-1,-1,-1,-1,-1,-1,-1,-1,-1,-1,-1,-1,-1,-1,-1,-1,-1,-1,-1,-1,-1,-1,-1,-1,-1,-1,-1,-1,-1,-1,-1,-1,-1,-1,-1,-1,-1,-1,-1,-1,-1,-1,-1,-1,-1,-1],"split_conditions":[3E0,1.6666666E0,6.5E0,6.666667E-1,9.52381E-2,4.3333335E0,1.26E1,-3.3333334E-1,-3.5714285E0,6.3E0,7.5E-1,9.3E1,9.25E0,8.8E-1,7.3333335E0,1.3333334E-2,1.3333334E0,-2E0,4.347826E-2,9.5E-1,8.1E-1,5.6E-1,-2.9174373E-2,6.8666667E-1,4.766667E0,1.6E-1,2.1052632E-1,1E0,6.5E0,5.9333332E1,5.1875E0,4E0,3.1E-1,3.6E-1,8.5E1,2.667993E-1,6.1E-1,5.2E1,3.6283594E-1,-4.7619048E-1,4.3956956E-1,9.6E1,5.0125736E-1,1.4666666E-1,6.818182E0,3.3539864E-1,4.571429E0,-6.666667E-1,-9.619047E0,1.875E-1,-4.6857142E0,7.1666664E-1,6E0,1.25E1,6.4E-1,6.333333E-1,7.0987654E0,1.9E1,2.1212122E-1,1.904762E-1,1E0,2.8905424E-1,2.8833334E0,-1.5005107E-1,1.0555347E-1,-2.2263217E-1,-1.4681165E-1,-2.7383873E-1,-2.2148235E-1,-7.036817E-2,-2.2209144E-1,-8.586068E-2,6.443148E-2,-2.7626703E-2,-1.7705251E-1,9.725083E-2,3.9136056E-3,2.6509717E-1,7.650873E-2,6.761166E-2,-1.1731762E-1,1.0896242E-1,-5.229261E-2,1.3033791E-1,-1.3021013E-1,3.869819E-1,1.4933485E-1,6.2288994E-1,3.2889846E-1,-2.0712582E-2,3.1941736E-1,5.275306E-1,1.3079043E-1,1.2670481E-1,2.9890117E-1,2.2481127E-1,4.3484074E-1,9.624766E-2,4.076403E-1,9.179985E-1,5.2966356E-1,1.9539003E-1,4.8942885E-1,3.6112794E-1,-2.4746655E-2,5.217952E-1,8.830821E-1,2.4952622E-1,6.41319E-1,8.421545E-1,3.3683884E-1,4.9870282E-1,1.9151804E-1,9.6999854E-1,7.249517E-1],"split_indices":[10,10,10,10,11,10,18,11,13,18,2,40,18,2,10,14,12,11,9,2,2,14,28,14,16,3,3,39,32,12,34,36,2,2,40,0,2,40,0,11,0,40,0,14,35,0,13,11,13,3,17,14,22,30,2,14,35,30,3,11,31,0,17,0,0,0,0,0,0,0,0,0,0,0,0,0,0,0,0,0,0,0,0,0,0,0,0,0,0,0,0,0,0,0,0,0,0,0,0,0,0,0,0,0,0,0,0,0,0,0,0,0,0,0,0],"split_type":[0,0,0,0,0,0,0,0,0,0,0,0,0,0,0,0,0,0,0,0,0,0,0,0,0,0,0,0,0,0,0,0,0,0,0,0,0,0,0,0,0,0,0,0,0,0,0,0,0,0,0,0,0,0,0,0,0,0,0,0,0,0,0,0,0,0,0,0,0,0,0,0,0,0,0,0,0,0,0,0,0,0,0,0,0,0,0,0,0,0,0,0,0,0,0,0,0,0,0,0,0,0,0,0,0,0,0,0,0,0,0,0,0,0,0],"sum_hessian":[9.622E3,6.669E3,2.953E3,5.076E3,1.593E3,2.223E3,7.3E2,2.945E3,2.131E3,8.44E2,7.49E2,1.067E3,1.156E3,3.94E2,3.36E2,4.59E2,2.486E3,3.26E2,1.805E3,6.81E2,1.63E2,6.74E2,7.5E1,4.1E2,6.57E2,7.26E2,4.3E2,2.83E2,1.11E2,7.3E1,2.63E2,4.4E1,4.15E2,1.986E3,5E2,1.1E1,3.15E2,1.795E3,1E1,6.69E2,1.2E1,1.45E2,1.8E1,5.55E2,1.19E2,1E1,6.5E1,2.7E2,1.4E2,2.45E2,4.12E2,4.08E2,3.18E2,3.39E2,9.1E1,2.47E2,3.6E1,7.7E1,3.4E1,4.6E1,2.7E1,1E1,2.53E2,3E1,1.4E1,2.74E2,1.41E2,1.802E3,1.84E2,3.7E1,4.63E2,2.54E2,6.1E1,9.6E1,1.699E3,1.88E2,4.81E2,6.5E1,8E1,2.6E1,5.29E2,2.7E1,9.2E1,4.2E1,2.3E1,6.3E1,2.07E2,1.8E1,1.22E2,2.29E2,1.6E1,1.2E1,4E2,2.36E2,1.72E2,1.2E2,1.98E2,2.4E1,3.15E2,1.2E1,7.9E1,2.8E1,2.19E2,1.8E1,1.8E1,2.9E1,4.8E1,2E1,1.4E1,3.4E1,1.2E1,1.6E1,1.1E1,1.9E2,6.3E1],"tree_param":{"num_deleted":"0","num_feature":"41","num_nodes":"115","size_leaf_vector":"1"}},{"base_weights":[3.4747962E-2,-1.214748E0,3.7184331E0,-1.855449E0,2.7830416E-1,2.8046274E0,5.850978E0,-2.0949762E0,-1.057146E0,1.8567067E0,-6.122728E-2,2.1985173E0,3.5885403E0,4.475106E0,7.2999206E0,-2.2920222E0,-1.6225108E0,-1.4513248E0,-5.3471553E-1,1.400466E0,3.234799E0,-3.7683478E-1,1.0692462E0,1.8778324E0,3.7158062E0,4.204756E0,2.582149E0,3.8017974E0,5.3130836E0,4.2012634E0,7.671406E0,-2.40912E0,-1.9009088E0,5.1614195E-1,-1.6651331E0,-1.8137215E0,-8.535799E-1,1.451938E0,-6.782091E-1,2.9352083E0,9.3995714E-1,3.8072016E0,9.265485E-2,-7.2820765E-1,3.2977718E-1,2.6560717E0,6.2726396E-1,9.067945E-1,2.3021202E0,3.302518E0,7.6836276E-1,3.4950407E0,5.3645434E0,1.7712516E0,3.380573E0,4.247412E0,9.568219E-1,5.904503E0,3.107511E0,1.738206E-1,6.346972E0,4.6297536E0,7.8959017E0,-1.7084847E-1,-2.4547659E-1,-3.5372548E-2,-2.0078254E-1,-1.0671816E-1,2.3404205E-1,-1.8138762E-1,-1.3022572E-1,-1.528442E-1,-2.145748E-1,1.2654057E-1,-9.559726E-2,2.8296453E-1,-4.818008E-2,-8.473511E-2,5.2914303E-2,3.7108597E-1,9.6566714E-2,-8.93803E-2,1.2186831E-1,6.237971E-1,3.3372685E-1,-1.2589636E-1,-4.1378524E-2,-9.443946E-3,1.3991354E-1,3.7302038E-1,1.321042E-1,3.347694E-2,1.7869592E-1,1.8502323E-1,5.1402273E-3,2.2100921E-1,6.6440445E-1,2.4167882E-1,4.2400742E-1,3.3347982E-1,6.17845E-1,4.5212707E-1,7.172622E-1,2.4195354E-1,6.579777E-2,9.3154564E-2,3.7513044E-1,2.5878355E-1,4.622394E-1,2.4040376E-1,-4.59744E-2,5.51869E-1,9.541529E-1,7.401009E-2,5.5653274E-1,8.799778E-1,3.317169E-1,2.426279E-1,6.307595E-1,8.1267434E-1,4.7039452E-1],"categories":[],"categories_nodes":[],"categories_segments":[],"categories_sizes":[],"default_left":[0,0,0,0,0,0,0,0,0,0,0,0,0,0,0,0,0,0,0,0,0,0,0,0,0,0,0,0,0,0,0,0,0,0,0,0,0,0,0,0,0,0,0,0,0,0,0,0,0,0,0,0,0,0,0,0,0,0,0,0,0,0,0,0,0,0,0,0,0,0,0,0,0,0,0,0,0,0,0,0,0,0,0,0,0,0,0,0,0,0,0,0,0,0,0,0,0,0,0,0,0,0,0,0,0,0,0,0,0,0,0,0,0,0,0,0,0,0,0,0,0],"id":3,"left_children":[1,3,5,7,9,11,13,15,17,19,21,23,25,27,29,31,33,35,37,39,41,43,45,47,49,51,53,55,57,59,61,63,65,67,69,71,73,75,77,79,81,83,-1,85,87,89,91,93,95,97,-1,99,101,103,105,107,109,111,113,-1,115,117,119,-1,-1,-1,-1,-1,-1,-1,-1,-1,-1,-1,-1,-1,-1,-1,-1,-1,-1,-1,-1,-1,-1,-1,-1,-1,-1,-1,-1,-1,-1,-1,-1,-1,-1,-1,-1,-1,-1,-1,-1,-1,-1,-1,-1,-1,-1,-1,-1,-1,-1,-1,-1,-1,-1,-1,-1,-1,-1],"loss_changes":[4.41587E4,6.8535996E3,4.7190117E3,9.5634766E2,1.1534077E3,8.012705E2,1.4186426E3,3.5517188E2,2.3789795E2,2.3502039E2,6.3262756E2,4.6159082E2,4.4867676E2,1.9194727E2,3.7411133E2,1.1990137E2,1.0459277E2,1.4142163E2,1.4352074E2,2.007887E2,1.2066992E2,3.4436212E2,2.6975586E2,3.2627612E2,2.4848022E2,3.5823926E2,1.7788513E2,2.6470166E2,1.9688037E2,2.0036786E2,1.7785547E2,6.2583008E1,1.0366943E2,6.893138E1,5.787451E1,3.5555664E1,5.5668823E1,9.194361E1,9.5816284E1,9.7243225E1,1.1506828E2,6.4854614E1,0E0,1.5401144E2,2.0925995E2,1.1552814E2,1.02519936E2,1.968152E2,2.066831E2,1.1680713E2,0E0,1.02805176E2,2.2981982E2,1.01613556E2,1.2543176E2,1.019209E2,6.2607533E1,1.2835791E2,2.1117145E2,0E0,1.2687158E2,7.34259E1,1.7619336E2,0E0,0E0,0E0,0E0,0E0,0E0,0E0,0E0,0E0,0E0,0E0,0E0,0E0,0E0,0E0,0E0,0E0,0E0,0E0,0E0,0E0,0E0,0E0,0E0,0E0,0E0,0E0,0E0,0E0,0E0,0E0,0E0,0E0,0E0,0E0,0E0,0E0,0E0,0E0,0E0,0E0,0E0,0E0,0E0,0E0,0E0,0E0,0E0,0E0,0E0,0E0,0E0,0E0,0E0,0E0,0E0,0E0,0E0],"parents":[2147483647,0,0,1,1,2,2,3,3,4,4,5,5,6,6,7,7,8,8,9,9,10,10,11,11,12,12,13,13,14,14,15,15,16,16,17,17,18,18,19,19,20,20,21,21,22,22,23,23,24,24,25,25,26,26,27,27,28,28,29,29,30,30,31,31,32,32,33,33,34,34,35,35,36,36,37,37,38,38,39,39,40,40,41,41,43,43,44,44,45,45,46,46,47,47,48,48,49,49,51,51,52,52,53,53,54,54,55,55,56,56,57,57,58,58,60,60,61,61,62,62],"right_children":[2,4,6,8,10,12,14,16,18,20,22,24,26,28,30,32,34,36,38,40,42,44,46,48,50,52,54,56,58,60,62,64,66,68,70,72,74,76,78,80,82,84,-1,86,88,90,92,94,96,98,-1,100,102,104,106,108,110,112,114,-1,116,118,120,-1,-1,-1,-1,-1,-1,-1,-1,-1,-1,-1,-1,-1,-1,-1,-1,-1,-1,-1,-1,-1,-1,-1,-1,-1,-1,-1,-1,-1,-1,-1,-1,-1,-1,-1,-1,-1,-1,-1,-1,-1,-1,-1,-1,-1,-1,-1,-1,-1,-1,-1,-1,-1,-1,-1,-1,-1,-1],"split_conditions":[3.5E0,1.6666666E0,6.5E0,3.9E-1,-4.7619048E-1,7.4E-1,1.234E1,1.04E0,4.3333335E0,5.6E0,6.7E-1,1.068E1,3.809524E-1,8.3E-1,7.2E-1,2.0408163E-2,-2.0952382E0,1.36E0,4.5E1,5E1,-2.7142856E0,4.633333E0,8.2E1,4.8E-1,7E1,8.6333334E-1,4.7466664E0,2.06E2,7.5E0,7.6666665E0,4.2333332E1,-3.3333334E-1,6.3E1,6.666667E-1,2E0,1.9E2,9.75E0,6.882353E0,4.266667E0,1.3636364E0,1.8E-1,5.5E0,9.265485E-2,4.255319E-2,1E-1,5E0,6E0,1.01E2,8.987952E0,3.9E1,7.6836276E-1,3.6666667E0,1.43E2,1.1E2,6.6E-1,1.2106331E1,7.0987654E0,2.8333333E0,7.4E0,1.738206E-1,7.3E1,7.2E0,1E1,-1.7084847E-1,-2.4547659E-1,-3.5372548E-2,-2.0078254E-1,-1.0671816E-1,2.3404205E-1,-1.8138762E-1,-1.3022572E-1,-1.528442E-1,-2.145748E-1,1.2654057E-1,-9.559726E-2,2.8296453E-1,-4.818008E-2,-8.473511E-2,5.2914303E-2,3.7108597E-1,9.6566714E-2,-8.93803E-2,1.2186831E-1,6.237971E-1,3.3372685E-1,-1.2589636E-1,-4.1378524E-2,-9.443946E-3,1.3991354E-1,3.7302038E-1,1.321042E-1,3.347694E-2,1.7869592E-1,1.8502323E-1,5.1402273E-3,2.2100921E-1,6.6440445E-1,2.4167882E-1,4.2400742E-1,3.3347982E-1,6.17845E-1,4.5212707E-1,7.172622E-1,2.4195354E-1,6.579777E-2,9.3154564E-2,3.7513044E-1,2.5878355E-1,4.622394E-1,2.4040376E-1,-4.59744E-2,5.51869E-1,9.541529E-1,7.401009E-2,5.5653274E-1,8.799778E-1,3.317169E-1,2.426279E-1,6.307595E-1,8.1267434E-1,4.7039452E-1],"split_indices":[10,10,10,2,11,2,18,18,12,16,2,18,11,2,14,3,11,18,40,40,13,16,40,2,1,14,27,40,32,10,12,11,40,12,1,40,30,34,18,29,2,33,0,3,3,36,36,40,35,12,0,29,40,40,14,4,35,11,33,0,1,33,36,0,0,0,0,0,0,0,0,0,0,0,0,0,0,0,0,0,0,0,0,0,0,0,0,0,0,0,0,0,0,0,0,0,0,0,0,0,0,0,0,0,0,0,0,0,0,0,0,0,0,0,0,0,0,0,0,0,0],"split_type":[0,0,0,0,0,0,0,0,0,0,0,0,0,0,0,0,0,0,0,0,0,0,0,0,0,0,0,0,0,0,0,0,0,0,0,0,0,0,0,0,0,0,0,0,0,0,0,0,0,0,0,0,0,0,0,0,0,0,0,0,0,0,0,0,0,0,0,0,0,0,0,0,0,0,0,0,0,0,0,0,0,0,0,0,0,0,0,0,0,0,0,0,0,0,0,0,0,0,0,0,0,0,0,0,0,0,0,0,0,0,0,0,0,0,0,0,0,0,0,0,0],"sum_hessian":[9.592E3,7.163E3,2.429E3,5.012E3,2.151E3,1.702E3,7.27E2,3.854E3,1.158E3,3.8E2,1.771E3,9.62E2,7.4E2,3.75E2,3.52E2,2.717E3,1.137E3,6.59E2,4.99E2,2.87E2,9.3E1,1.385E3,3.86E2,7.96E2,1.66E2,4.57E2,2.83E2,2.11E2,1.64E2,3.9E1,3.13E2,2.087E3,6.3E2,2.2E1,1.115E3,4.09E2,2.5E2,3.3E1,4.66E2,6.5E1,2.22E2,7.4E1,1.9E1,9.25E2,4.6E2,8.3E1,3.03E2,2.43E2,5.53E2,1.52E2,1.4E1,2.86E2,1.71E2,1.42E2,1.41E2,1.82E2,2.9E1,1.28E2,3.6E1,1.9E1,2E1,2.3E1,2.9E2,1.3E2,1.957E3,4.1E1,5.89E2,1.2E1,1E1,7.88E2,3.27E2,2.23E2,1.86E2,1.1E1,2.39E2,1.9E1,1.4E1,4.09E2,5.7E1,4.6E1,1.9E1,2.9E1,1.93E2,1E1,6.4E1,3.43E2,5.82E2,3.3E2,1.3E2,4.5E1,3.8E1,2.43E2,6E1,1.15E2,1.28E2,5.43E2,1E1,8E1,7.2E1,2.72E2,1.4E1,1.19E2,5.2E1,8.9E1,5.3E1,1.9E1,1.22E2,3.5E1,1.47E2,1.4E1,1.5E1,1.18E2,1E1,1.9E1,1.7E1,1E1,1E1,1.1E1,1.2E1,2.69E2,2.1E1],"tree_param":{"num_deleted":"0","num_feature":"41","num_nodes":"121","size_leaf_vector":"1"}},{"base_weights":[6.8603675E-3,-1.2716331E0,2.8488595E0,-1.664713E0,-1.9175202E-2,1.9986403E0,4.9906178E0,-1.9726452E0,-1.1436062E0,-2.654278E-1,1.8011109E0,1.024333E0,2.5129385E0,3.9308338E0,6.3726544E0,-2.1569762E0,-1.6284437E0,-1.3530498E0,-3.7175927E-1,3.5018918E-1,-8.789067E-1,6.119207E-1,1.4737868E0,4.9989375E-1,2.2148724E0,2.3029284E0,4.0683284E0,1.9134785E0,4.1392856E0,5.4046497E0,7.612783E0,-4.777276E-2,-2.1715305E0,-1.7036439E0,2.7718982E-1,-1.5083876E0,-8.2152176E-1,1.3978079E-1,-4.5352665E-1,-2.9822478E-1,7.0820004E-1,-4.0866697E-1,-1.1392429E0,1.1290112E0,3.3473916E0,2.0327118E-1,2.3519664E0,2.4639122E0,-7.998078E-2,2.1556883E0,4.2679086E0,4.5275564E0,1.5534767E0,3.1799533E0,6.7178255E-1,4.2588854E0,1.12530425E-1,5.7837653E0,1.7352432E0,7.9040875E0,3.4099E-1,-2.2586675E-1,-1.8533495E-1,-1.4919873E-1,-1.9180922E-1,-6.1500896E-2,2.928587E-1,-1.716977E-1,-1.14349E-1,-2.3764854E-2,-1.3323064E-1,-3.3570144E-3,-7.552206E-2,-8.265985E-2,3.0495409E-2,2.1346755E-1,4.3533877E-2,-7.804037E-2,5.831662E-2,-1.2019938E-1,4.3355893E-2,9.057542E-2,3.888123E-1,5.013618E-1,1.8885101E-1,8.2042634E-2,-5.102716E-2,-3.6209393E-2,3.3506057E-1,1.5332869E-1,3.3537346E-1,3.158735E-1,1.89324E-1,2.006152E-1,5.465119E-1,4.9823982E-1,1.8821524E-1,2.2978662E-2,2.7662042E-1,1.0101503E-1,5.08476E-1,2.107909E-1,-4.2616222E-2,3.8204643E-1,5.214867E-1,1.71194E-1,6.05015E-1,2.9842672E-1,3.2846976E-2,4.228649E-1,8.229103E-1],"categories":[],"categories_nodes":[],"categories_segments":[],"categories_sizes":[],"default_left":[0,0,0,0,0,0,0,0,0,0,0,0,0,0,0,0,0,0,0,0,0,0,0,0,0,0,0,0,0,0,0,0,0,0,0,0,0,0,0,0,0,0,0,0,0,0,0,0,0,0,0,0,0,0,0,0,0,0,0,0,0,0,0,0,0,0,0,0,0,0,0,0,0,0,0,0,0,0,0,0,0,0,0,0,0,0,0,0,0,0,0,0,0,0,0,0,0,0,0,0,0,0,0,0,0,0,0,0,0,0,0],"id":4,"left_children":[1,3,5,7,9,11,13,15,17,19,21,23,25,27,29,31,33,35,37,39,41,-1,43,45,47,49,51,53,55,57,59,-1,61,63,65,67,69,-1,71,73,75,77,79,81,83,85,87,89,-1,91,93,95,97,99,101,103,-1,105,107,109,-1,-1,-1,-1,-1,-1,-1,-1,-1,-1,-1,-1,-1,-1,-1,-1,-1,-1,-1,-1,-1,-1,-1,-1,-1,-1,-1,-1,-1,-1,-1,-1,-1,-1,-1,-1,-1,-1,-1,-1,-1,-1,-1,-1,-1,-1,-1,-1,-1,-1,-1],"loss_changes":[3.4932242E4,3.2645156E3,5.421959E3,8.076133E2,7.109546E2,1.0682432E3,1.2155176E3,1.9767871E2,3.029297E2,5.2791003E2,2.5811737E2,4.6092328E2,4.4728418E2,1.94771E2,3.9821973E2,4.935742E1,1.5953955E2,1.2062891E2,5.8800488E1,1.622444E2,8.52287E1,0E0,1.1055798E2,2.8244568E2,1.71646E2,3.4782568E2,1.8352344E2,7.177487E1,1.5237305E2,2.8071045E2,1.6649121E2,0E0,5.2484375E1,4.5614014E1,1.0352076E2,8.4882324E1,9.98898E1,0E0,4.8753494E1,7.960933E1,1.7422412E2,9.2999E1,4.49339E1,8.949295E1,5.6164062E1,1.9638179E2,1.9364929E2,1.6792883E2,0E0,2.9675488E2,2.1919897E2,1.578728E2,4.2706795E1,8.9923904E1,4.0317993E1,1.5568896E2,0E0,1.9464453E2,3.5918724E1,1.4080469E2,0E0,0E0,0E0,0E0,0E0,0E0,0E0,0E0,0E0,0E0,0E0,0E0,0E0,0E0,0E0,0E0,0E0,0E0,0E0,0E0,0E0,0E0,0E0,0E0,0E0,0E0,0E0,0E0,0E0,0E0,0E0,0E0,0E0,0E0,0E0,0E0,0E0,0E0,0E0,0E0,0E0,0E0,0E0,0E0,0E0,0E0,0E0,0E0,0E0,0E0,0E0],"parents":[2147483647,0,0,1,1,2,2,3,3,4,4,5,5,6,6,7,7,8,8,9,9,10,10,11,11,12,12,13,13,14,14,15,15,16,16,17,17,18,18,19,19,20,20,22,22,23,23,24,24,25,25,26,26,27,27,28,28,29,29,30,30,32,32,33,33,34,34,35,35,36,36,38,38,39,39,40,40,41,41,42,42,43,43,44,44,45,45,46,46,47,47,49,49,50,50,51,51,52,52,53,53,54,54,55,55,57,57,58,58,59,59],"right_children":[2,4,6,8,10,12,14,16,18,20,22,24,26,28,30,32,34,36,38,40,42,-1,44,46,48,50,52,54,56,58,60,-1,62,64,66,68,70,-1,72,74,76,78,80,82,84,86,88,90,-1,92,94,96,98,100,102,104,-1,106,108,110,-1,-1,-1,-1,-1,-1,-1,-1,-1,-1,-1,-1,-1,-1,-1,-1,-1,-1,-1,-1,-1,-1,-1,-1,-1,-1,-1,-1,-1,-1,-1,-1,-1,-1,-1,-1,-1,-1,-1,-1,-1,-1,-1,-1,-1,-1,-1,-1,-1,-1,-1],"split_conditions":[3E0,1.6666666E0,6.3333335E0,9.4E-1,7.5E-1,5.4E0,1.26E1,1E0,4.9E-1,9.52381E-2,-1.6666666E0,7.3E-1,2.0689656E-1,5.9E-1,2.3762856E1,-8.333333E-1,6.4E-1,2.98E0,2.9E-1,4.255319E-2,4E-1,6.119207E-1,8.6333334E-1,7.766667E0,8.4E0,3.3333334E-1,1E0,7E0,8.9275E0,1E0,1.02E1,-4.777276E-2,2.6E-1,1E0,1.9E1,1E0,6.875E0,1.3978079E-1,7.140187E0,4.98E0,-8.666667E-1,4.5E0,5.1266665E0,1.0666667E0,6.9E0,5.2380955E-1,3.25E0,7.2347827E0,-7.998078E-2,-7.5E-1,7.02E0,2.95E1,3.6E1,5.3333332E1,8.55E0,6.438E0,1.12530425E-1,5E0,1.5702794E1,1.15E1,3.4099E-1,-2.2586675E-1,-1.8533495E-1,-1.4919873E-1,-1.9180922E-1,-6.1500896E-2,2.928587E-1,-1.716977E-1,-1.14349E-1,-2.3764854E-2,-1.3323064E-1,-3.3570144E-3,-7.552206E-2,-8.265985E-2,3.0495409E-2,2.1346755E-1,4.3533877E-2,-7.804037E-2,5.831662E-2,-1.2019938E-1,4.3355893E-2,9.057542E-2,3.888123E-1,5.013618E-1,1.8885101E-1,8.2042634E-2,-5.102716E-2,-3.6209393E-2,3.3506057E-1,1.5332869E-1,3.3537346E-1,3.158735E-1,1.89324E-1,2.006152E-1,5.465119E-1,4.9823982E-1,1.8821524E-1,2.2978662E-2,2.7662042E-1,1.0101503E-1,5.08476E-1,2.107909E-1,-4.2616222E-2,3.8204643E-1,5.214867E-1,1.71194E-1,6.05015E-1,2.9842672E-1,3.2846976E-2,4.228649E-1,8.229103E-1],"split_indices":[10,10,10,18,2,18,18,12,2,11,11,2,3,2,4,11,2,18,14,3,11,0,14,16,35,21,39,10,27,39,33,0,2,39,1,1,34,0,35,18,11,16,27,11,33,11,18,35,0,11,18,30,12,12,18,27,0,33,4,30,0,0,0,0,0,0,0,0,0,0,0,0,0,0,0,0,0,0,0,0,0,0,0,0,0,0,0,0,0,0,0,0,0,0,0,0,0,0,0,0,0,0,0,0,0,0,0,0,0,0,0],"split_type":[0,0,0,0,0,0,0,0,0,0,0,0,0,0,0,0,0,0,0,0,0,0,0,0,0,0,0,0,0,0,0,0,0,0,0,0,0,0,0,0,0,0,0,0,0,0,0,0,0,0,0,0,0,0,0,0,0,0,0,0,0,0,0,0,0,0,0,0,0,0,0,0,0,0,0,0,0,0,0,0,0,0,0,0,0,0,0,0,0,0,0,0,0,0,0,0,0,0,0,0,0,0,0,0,0,0,0,0,0,0,0],"sum_hessian":[9.612E3,6.63E3,2.982E3,5.046E3,1.584E3,2.136E3,8.46E2,3.17E3,1.876E3,1.396E3,1.88E2,7.39E2,1.397E3,4.81E2,3.65E2,2.061E3,1.109E3,1.475E3,4.01E2,6.97E2,6.99E2,1.2E1,1.76E2,5.14E2,2.25E2,1.233E3,1.64E2,4.6E1,4.35E2,2.08E2,1.57E2,1.8E1,2.043E3,1.067E3,4.2E1,1.14E3,3.35E2,1.7E1,3.84E2,2.48E2,4.49E2,2.5E2,4.49E2,1.5E2,2.6E1,4.44E2,7E1,2.08E2,1.7E1,1.149E3,8.4E1,1.38E2,2.6E1,2.2E1,2.4E1,4.18E2,1.7E1,1.88E2,2E1,1.46E2,1.1E1,1.599E3,4.44E2,5.41E2,5.26E2,3.2E1,1E1,7.23E2,4.17E2,1.57E2,1.78E2,1.61E2,2.23E2,1.32E2,1.16E2,7.1E1,3.78E2,1.82E2,6.8E1,4.32E2,1.7E1,1.4E2,1E1,1.1E1,1.5E1,2.38E2,2.06E2,1.9E1,5.1E1,1.03E2,1.05E2,2.36E2,9.13E2,3E1,5.4E1,1.17E2,2.1E1,1.3E1,1.3E1,1.1E1,1.1E1,1E1,1.4E1,2.9E2,1.28E2,1.2E1,1.76E2,1E1,1E1,1.3E1,1.33E2],"tree_param":{"num_deleted":"0","num_feature":"41","num_nodes":"111","size_leaf_vector":"1"}},{"base_weights":[6.905436E-3,-1.0516537E0,2.7115524E0,-1.5935645E0,-9.18141E-2,1.96492E0,4.734601E0,-1.7694397E0,-1.0070205E0,1.0103108E0,-3.6026308E-1,8.5140014E-1,2.3590772E0,3.572893E0,5.9087653E0,-1.9169941E0,-1.4625067E0,-1.289251E0,-4.9766082E-1,-6.9028264E-1,1.2548432E0,-5.460196E-1,5.6794E-1,1.3550491E0,-5.201228E-1,1.8929205E0,2.925132E0,2.9236817E0,4.481353E0,4.986039E0,6.9432845E0,-1.9509418E0,-8.8718903E-1,6.6355765E-2,-1.4957857E0,-1.3880261E0,1.04691714E-1,-9.527499E-1,1.1310303E-3,-1.0497245E0,7.729342E-2,9.7742474E-1,2.7081811E0,-7.642731E-1,2.8762147E-2,1.1992781E0,6.7132614E-3,6.421165E-1,2.3752618E0,-1.1480613E0,9.522949E-1,1.4196693E0,2.496084E0,2.516516E0,3.9229243E0,2.4725714E0,5.2503657E0,5.252423E0,2.9128523E0,6.458863E0,3.8796883E0,7.2217298E0,2.2619608E-1,-1.9695014E-1,-9.9816546E-2,1.4225716E-2,-1.7694543E-1,-1.5955131E-1,-1.0677119E-1,-1.4610045E-1,-8.825661E-2,-1.837726E-1,1.0411941E-1,-1.0693848E-1,1.0848471E-1,5.219795E-2,-1.14289574E-1,-4.6195645E-2,-2.101635E-1,7.720043E-2,2.8390017E-1,5.0213367E-1,1.9726504E-1,-7.930444E-2,2.4962008E-1,-4.4487026E-2,5.60129E-2,2.257133E-1,8.607075E-3,-1.5639817E-2,2.3168993E-1,1.7428848E-1,3.1509917E-2,5.021352E-1,1.8160215E-1,-2.0573993E-1,-3.9684203E-2,2.2376935E-1,-7.891398E-2,5.302493E-1,1.3213827E-1,1.6223077E-1,3.072382E-1,1.0667463E-1,2.763849E-1,2.892441E-1,4.749206E-1,2.205886E-1,5.872372E-1,4.031976E-1,6.177069E-1,4.6353826E-1,7.703948E-1,5.595368E-2,3.8270682E-1,4.5643497E-1,8.690842E-1,2.185372E-1,5.7531685E-1,9.6863186E-1,6.2911886E-1],"categories":[],"categories_nodes":[],"categories_segments":[],"categories_sizes":[],"default_left":[0,0,0,0,0,0,0,0,0,0,0,0,0,0,0,0,0,0,0,0,0,0,0,0,0,0,0,0,0,0,0,0,0,0,0,0,0,0,0,0,0,0,0,0,0,0,0,0,0,0,0,0,0,0,0,0,0,0,0,0,0,0,0,0,0,0,0,0,0,0,0,0,0,0,0,0,0,0,0,0,0,0,0,0,0,0,0,0,0,0,0,0,0,0,0,0,0,0,0,0,0,0,0,0,0,0,0,0,0,0,0,0,0,0,0,0,0,0,0,0,0],"id":5,"left_children":[1,3,5,7,9,11,13,15,17,19,21,23,25,27,29,31,33,35,37,39,41,43,45,47,49,51,53,55,57,59,61,63,65,-1,67,69,71,73,75,77,-1,79,81,83,85,87,89,91,93,95,97,99,101,103,105,107,109,111,113,115,117,119,-1,-1,-1,-1,-1,-1,-1,-1,-1,-1,-1,-1,-1,-1,-1,-1,-1,-1,-1,-1,-1,-1,-1,-1,-1,-1,-1,-1,-1,-1,-1,-1,-1,-1,-1,-1,-1,-1,-1,-1,-1,-1,-1,-1,-1,-1,-1,-1,-1,-1,-1,-1,-1,-1,-1,-1,-1,-1,-1],"loss_changes":[2.7928834E4,3.646608E3,4.1354375E3,4.604707E2,7.491966E2,8.784287E2,9.8691016E2,1.5326367E2,1.482904E2,2.0712793E2,3.5135675E2,3.6404773E2,3.8525488E2,2.0747656E2,3.1475684E2,7.9515625E1,8.044873E1,9.1844604E1,8.42161E1,3.394568E1,1.7233429E2,2.1290747E2,1.2046205E2,2.7850183E2,1.3238474E2,2.2909619E2,2.6207324E2,2.1897766E2,1.7095166E2,2.9594482E2,2.0525879E2,3.7802734E1,6.9278305E1,0E0,4.5512207E1,2.1654785E1,8.3771965E1,4.7265182E1,1.0666045E2,3.0561386E1,0E0,1.3776889E2,1.0749106E2,1.173634E2,1.1803195E2,1.8822359E2,6.8566376E1,8.152405E1,2.2468958E2,6.749477E1,9.801868E1,1.681615E2,1.7478491E2,1.6773364E2,1.4974536E2,1.5659497E2,1.4612183E1,1.18583496E2,1.11884766E2,3.1129858E2,3.5246814E2,3.0600586E2,0E0,0E0,0E0,0E0,0E0,0E0,0E0,0E0,0E0,0E0,0E0,0E0,0E0,0E0,0E0,0E0,0E0,0E0,0E0,0E0,0E0,0E0,0E0,0E0,0E0,0E0,0E0,0E0,0E0,0E0,0E0,0E0,0E0,0E0,0E0,0E0,0E0,0E0,0E0,0E0,0E0,0E0,0E0,0E0,0E0,0E0,0E0,0E0,0E0,0E0,0E0,0E0,0E0,0E0,0E0,0E0,0E0,0E0,0E0],"parents":[2147483647,0,0,1,1,2,2,3,3,4,4,5,5,6,6,7,7,8,8,9,9,10,10,11,11,12,12,13,13,14,14,15,15,16,16,17,17,18,18,19,19,20,20,21,21,22,22,23,23,24,24,25,25,26,26,27,27,28,28,29,29,30,30,31,31,32,32,34,34,35,35,36,36,37,37,38,38,39,39,41,41,42,42,43,43,44,44,45,45,46,46,47,47,48,48,49,49,50,50,51,51,52,52,53,53,54,54,55,55,56,56,57,57,58,58,59,59,60,60,61,61],"right_children":[2,4,6,8,10,12,14,16,18,20,22,24,26,28,30,32,34,36,38,40,42,44,46,48,50,52,54,56,58,60,62,64,66,-1,68,70,72,74,76,78,-1,80,82,84,86,88,90,92,94,96,98,100,102,104,106,108,110,112,114,116,118,120,-1,-1,-1,-1,-1,-1,-1,-1,-1,-1,-1,-1,-1,-1,-1,-1,-1,-1,-1,-1,-1,-1,-1,-1,-1,-1,-1,-1,-1,-1,-1,-1,-1,-1,-1,-1,-1,-1,-1,-1,-1,-1,-1,-1,-1,-1,-1,-1,-1,-1,-1,-1,-1,-1,-1,-1,-1,-1,-1],"split_conditions":[3.3333333E0,1.3333334E0,6.6666665E0,3.6E-1,-3.809524E-1,5.5E-1,1.234E1,6.2E-1,1.5E0,1.8E-1,6.7E-1,8.095238E-1,7.86E0,8.4E-1,8.666667E0,5.263158E-2,-2.0952382E0,6.5E-1,1.5E0,-4.2857143E-1,5.6E0,3.8666666E0,2.6190476E-2,7.4666667E0,6.4E0,4.5E0,1.7948718E-1,1.075E1,6.5E0,0E0,1.1E1,1.7666666E1,1.28E0,6.6355765E-2,2.6E0,1E0,2.1276595E-2,7.4E-1,6E0,6E0,7.729342E-2,3.4E1,-1.8095238E0,1.1223109E0,5E-2,7.2184873E0,5.693333E0,3E0,-8.6190474E-1,4E0,7.86E0,1.24E0,5.8E0,-7.639179E-2,0E0,1.1E1,8.8E0,3.8976052E0,7E0,7.0625E0,8.6E-1,-6.666667E-2,2.2619608E-1,-1.9695014E-1,-9.9816546E-2,1.4225716E-2,-1.7694543E-1,-1.5955131E-1,-1.0677119E-1,-1.4610045E-1,-8.825661E-2,-1.837726E-1,1.0411941E-1,-1.0693848E-1,1.0848471E-1,5.219795E-2,-1.14289574E-1,-4.6195645E-2,-2.101635E-1,7.720043E-2,2.8390017E-1,5.0213367E-1,1.9726504E-1,-7.930444E-2,2.4962008E-1,-4.4487026E-2,5.60129E-2,2.257133E-1,8.607075E-3,-1.5639817E-2,2.3168993E-1,1.7428848E-1,3.1509917E-2,5.021352E-1,1.8160215E-1,-2.0573993E-1,-3.9684203E-2,2.2376935E-1,-7.891398E-2,5.302493E-1,1.3213827E-1,1.6223077E-1,3.072382E-1,1.0667463E-1,2.763849E-1,2.892441E-1,4.749206E-1,2.205886E-1,5.872372E-1,4.031976E-1,6.177069E-1,4.6353826E-1,7.703948E-1,5.595368E-2,3.8270682E-1,4.5643497E-1,8.690842E-1,2.185372E-1,5.7531685E-1,9.6863186E-1,6.2911886E-1],"split_indices":[10,10,10,2,11,2,18,18,18,2,2,11,18,2,10,3,11,2,16,17,16,18,15,16,18,10,3,22,32,11,32,22,25,0,18,37,3,2,36,32,0,1,11,28,3,35,27,32,17,32,18,18,22,28,28,36,18,26,0,34,2,20,0,0,0,0,0,0,0,0,0,0,0,0,0,0,0,0,0,0,0,0,0,0,0,0,0,0,0,0,0,0,0,0,0,0,0,0,0,0,0,0,0,0,0,0,0,0,0,0,0,0,0,0,0,0,0,0,0,0,0],"split_type":[0,0,0,0,0,0,0,0,0,0,0,0,0,0,0,0,0,0,0,0,0,0,0,0,0,0,0,0,0,0,0,0,0,0,0,0,0,0,0,0,0,0,0,0,0,0,0,0,0,0,0,0,0,0,0,0,0,0,0,0,0,0,0,0,0,0,0,0,0,0,0,0,0,0,0,0,0,0,0,0,0,0,0,0,0,0,0,0,0,0,0,0,0,0,0,0,0,0,0,0,0,0,0,0,0,0,0,0,0,0,0,0,0,0,0,0,0,0,0,0,0],"sum_hessian":[9.753E3,7.01E3,2.743E3,4.48E3,2.53E3,2.005E3,7.38E2,3.445E3,1.035E3,4.95E2,2.035E3,5.25E2,1.48E3,3.73E2,3.65E2,2.323E3,1.122E3,6.65E2,3.7E2,6.2E1,4.33E2,1.696E3,3.39E2,3.84E2,1.41E2,8.14E2,6.66E2,2.2E2,1.53E2,1.96E2,1.69E2,2.248E3,7.5E1,1.7E1,1.105E3,6.21E2,4.4E1,1.93E2,1.77E2,5E1,1.2E1,3.65E2,6.8E1,1.229E3,4.67E2,1.59E2,1.8E2,2.27E2,1.57E2,9.9E1,4.2E1,4.58E2,3.56E2,4.75E2,1.91E2,1.86E2,3.4E1,1.01E2,5.2E1,8.2E1,1.14E2,1.59E2,1E1,2.204E3,4.4E1,3.5E1,4E1,8.94E2,2.11E2,5.41E2,8E1,1.4E1,3E1,1.83E2,1E1,1.22E2,5.5E1,3.3E1,1.7E1,3.3E2,3.5E1,1.5E1,5.3E1,1.219E3,1E1,2.47E2,2.2E2,8.1E1,7.8E1,1.69E2,1.1E1,5.1E1,1.76E2,2.6E1,1.31E2,4.4E1,5.5E1,2.4E1,1.8E1,1E1,4.48E2,1.43E2,2.13E2,7E1,4.05E2,8.7E1,1.04E2,1.74E2,1.2E1,1.7E1,1.7E1,8.3E1,1.8E1,1.5E1,3.7E1,4.6E1,3.6E1,6.1E1,5.3E1,4.1E1,1.18E2],"tree_param":{"num_deleted":"0","num_feature":"41","num_nodes":"121","size_leaf_vector":"1"}},{"base_weights":[2.3792913E-2,-1.008654E0,2.3204951E0,-1.4246082E0,-1.779799E-1,1.5427296E0,3.8643606E0,-1.6042314E0,-9.813225E-1,-4.096381E-1,8.8774633E-1,8.723616E-1,1.9998857E0,3.32857E0,5.724634E0,-1.0342449E0,-1.6883117E0,-1.012008E0,2.0824523E-1,-6.874975E-1,5.7604592E-2,1.3179022E0,-1.1259489E-1,2.0892253E0,6.0042316E-1,2.8654895E0,1.775832E0,3.5323327E0,1.531594E0,5.9735794E0,8.702939E-2,-1.1500379E0,8.615359E-1,-1.7942339E0,-1.3162944E0,-1.1549007E0,-4.178273E-1,-8.9854276E-1,-2.8141963E-1,5.05714E-1,-6.819129E-1,1.0341281E0,3.6198385E0,1.9777666E-1,-4.0733856E-1,2.6285958E0,6.8718575E-2,3.633584E-1,2.4478445E0,4.1232347E0,2.1410425E0,1.4897345E0,2.647492E0,3.936717E0,2.713653E0,2.6357932E0,5.052519E-3,6.705902E0,4.225502E0,8.350753E-2,-1.2614042E-1,2.0945774E-1,-7.8611106E-2,-1.614369E-1,-1.9293962E-1,-1.792465E-2,-1.3726436E-1,5.100897E-2,-1.1836294E-1,-5.891924E-2,1.3615519E-1,4.8727583E-2,-9.854782E-2,2.0139111E-2,-6.5980524E-2,1.0580055E-1,4.8436467E-3,-8.063847E-2,1.2433421E-1,2.2231522E-1,6.258344E-2,1.2890437E-1,5.326385E-1,-2.1140149E-2,-1.58193E-1,3.008482E-1,-9.144544E-2,-9.461453E-2,2.0921992E-1,2.5918065E-2,3.6421344E-1,4.6993142E-1,1.4246058E-1,3.2273626E-1,6.3404256E-1,1.5373309E-1,5.7208747E-1,1.421284E-1,5.710253E-1,-4.3000158E-2,2.8785145E-1,3.4039018E-1,5.136917E-1,1.915977E-1,3.8403544E-1,3.998602E-1,2.1801228E-2,1.5456949E-1,-1.9210665E-1,5.040402E-1,7.675437E-1,3.35967E-1,7.769621E-1],"categories":[],"categories_nodes":[],"categories_segments":[],"categories_sizes":[],"default_left":[0,0,0,0,0,0,0,0,0,0,0,0,0,0,0,0,0,0,0,0,0,0,0,0,0,0,0,0,0,0,0,0,0,0,0,0,0,0,0,0,0,0,0,0,0,0,0,0,0,0,0,0,0,0,0,0,0,0,0,0,0,0,0,0,0,0,0,0,0,0,0,0,0,0,0,0,0,0,0,0,0,0,0,0,0,0,0,0,0,0,0,0,0,0,0,0,0,0,0,0,0,0,0,0,0,0,0,0,0,0,0,0,0],"id":6,"left_children":[1,3,5,7,9,11,13,15,17,19,21,23,25,27,29,31,33,35,-1,37,39,41,43,45,47,49,51,53,55,57,-1,59,61,63,65,67,69,71,73,75,77,79,81,-1,83,85,87,89,91,93,95,97,99,101,103,105,107,109,111,-1,-1,-1,-1,-1,-1,-1,-1,-1,-1,-1,-1,-1,-1,-1,-1,-1,-1,-1,-1,-1,-1,-1,-1,-1,-1,-1,-1,-1,-1,-1,-1,-1,-1,-1,-1,-1,-1,-1,-1,-1,-1,-1,-1,-1,-1,-1,-1,-1,-1,-1,-1,-1,-1],"loss_changes":[2.2815877E4,2.2933247E3,3.577123E3,3.506045E2,5.474591E2,6.068906E2,9.7666504E2,1.490249E2,1.22256226E2,2.3645593E2,1.7054825E2,2.6579156E2,2.237627E2,2.7945898E2,2.6308057E2,9.0334656E1,1.0560742E2,1.070061E2,0E0,9.761749E1,2.256865E2,1.7720139E2,7.474011E1,1.6002032E2,2.8860114E2,2.1076367E2,2.304729E2,2.2039746E2,1.3652075E2,2.4177783E2,0E0,8.5946014E1,5.0405388E1,4.866748E1,3.8901733E1,4.9393677E1,7.6118324E1,9.095813E1,7.1746826E1,1.0703017E2,6.259005E1,1.1900552E2,1.1246234E2,0E0,2.4061054E1,1.5888177E2,6.769335E1,1.9956085E2,1.660896E2,1.5234692E2,3.261891E2,1.970011E2,1.6547205E2,2.79875E2,2.0294763E2,1.53992E2,1.068305E2,1.9868164E2,1.7335645E2,0E0,0E0,0E0,0E0,0E0,0E0,0E0,0E0,0E0,0E0,0E0,0E0,0E0,0E0,0E0,0E0,0E0,0E0,0E0,0E0,0E0,0E0,0E0,0E0,0E0,0E0,0E0,0E0,0E0,0E0,0E0,0E0,0E0,0E0,0E0,0E0,0E0,0E0,0E0,0E0,0E0,0E0,0E0,0E0,0E0,0E0,0E0,0E0,0E0,0E0,0E0,0E0,0E0,0E0],"parents":[2147483647,0,0,1,1,2,2,3,3,4,4,5,5,6,6,7,7,8,8,9,9,10,10,11,11,12,12,13,13,14,14,15,15,16,16,17,17,19,19,20,20,21,21,22,22,23,23,24,24,25,25,26,26,27,27,28,28,29,29,31,31,32,32,33,33,34,34,35,35,36,36,37,37,38,38,39,39,40,40,41,41,42,42,44,44,45,45,46,46,47,47,48,48,49,49,50,50,51,51,52,52,53,53,54,54,55,55,56,56,57,57,58,58],"right_children":[2,4,6,8,10,12,14,16,18,20,22,24,26,28,30,32,34,36,-1,38,40,42,44,46,48,50,52,54,56,58,-1,60,62,64,66,68,70,72,74,76,78,80,82,-1,84,86,88,90,92,94,96,98,100,102,104,106,108,110,112,-1,-1,-1,-1,-1,-1,-1,-1,-1,-1,-1,-1,-1,-1,-1,-1,-1,-1,-1,-1,-1,-1,-1,-1,-1,-1,-1,-1,-1,-1,-1,-1,-1,-1,-1,-1,-1,-1,-1,-1,-1,-1,-1,-1,-1,-1,-1,-1,-1,-1,-1,-1,-1,-1],"split_conditions":[3E0,1.3333334E0,6E0,3E-1,6.066667E-1,4E0,8.666667E0,-2.5E0,1E0,1.4E1,8.47619E-2,-1.3047619E0,-1.3047619E0,1E0,1.4E1,1.075E1,3E0,4.9E-1,2.0824523E-1,4.6E-1,1.0476191E-2,2.3666666E1,1E0,-5.714286E-1,3.2E0,-8.333333E0,9.833333E0,2.65E1,4.5238096E-2,1.25E-1,8.702939E-2,-2.6809523E-1,-8.238095E-1,1E0,1E-2,-1.3761905E1,1E0,-8.666667E0,7.180328E0,4E0,1.4705883E-1,-3.3333334E-3,4.5E0,1.9777666E-1,9.4E0,8.058824E0,2E0,2.2229818E1,5.1666665E-1,0E0,5.2E1,9.159292E0,1.3E1,8.25E0,8.3E-1,7.25E0,6.944E0,2.0533897E1,2.88E0,8.350753E-2,-1.2614042E-1,2.0945774E-1,-7.8611106E-2,-1.614369E-1,-1.9293962E-1,-1.792465E-2,-1.3726436E-1,5.100897E-2,-1.1836294E-1,-5.891924E-2,1.3615519E-1,4.8727583E-2,-9.854782E-2,2.0139111E-2,-6.5980524E-2,1.0580055E-1,4.8436467E-3,-8.063847E-2,1.2433421E-1,2.2231522E-1,6.258344E-2,1.2890437E-1,5.326385E-1,-2.1140149E-2,-1.58193E-1,3.008482E-1,-9.144544E-2,-9.461453E-2,2.0921992E-1,2.5918065E-2,3.6421344E-1,4.6993142E-1,1.4246058E-1,3.2273626E-1,6.3404256E-1,1.5373309E-1,5.7208747E-1,1.421284E-1,5.710253E-1,-4.3000158E-2,2.8785145E-1,3.4039018E-1,5.136917E-1,1.915977E-1,3.8403544E-1,3.998602E-1,2.1801228E-2,1.5456949E-1,-1.9210665E-1,5.040402E-1,7.675437E-1,3.35967E-1,7.769621E-1],"split_indices":[10,10,10,14,14,10,10,13,7,12,15,17,17,39,22,22,12,14,0,14,15,12,36,13,25,13,22,30,15,23,0,15,17,39,14,13,37,13,35,32,3,15,32,0,33,34,6,4,14,20,12,35,1,22,14,22,35,4,25,0,0,0,0,0,0,0,0,0,0,0,0,0,0,0,0,0,0,0,0,0,0,0,0,0,0,0,0,0,0,0,0,0,0,0,0,0,0,0,0,0,0,0,0,0,0,0,0,0,0,0,0,0,0],"split_type":[0,0,0,0,0,0,0,0,0,0,0,0,0,0,0,0,0,0,0,0,0,0,0,0,0,0,0,0,0,0,0,0,0,0,0,0,0,0,0,0,0,0,0,0,0,0,0,0,0,0,0,0,0,0,0,0,0,0,0,0,0,0,0,0,0,0,0,0,0,0,0,0,0,0,0,0,0,0,0,0,0,0,0,0,0,0,0,0,0,0,0,0,0,0,0,0,0,0,0,0,0,0,0,0,0,0,0,0,0,0,0,0,0],"sum_hessian":[9.62E3,6.637E3,2.983E3,4.422E3,2.215E3,1.985E3,9.98E2,3.145E3,1.277E3,1.82E3,3.95E2,8.06E2,1.179E3,7.77E2,2.21E2,4.06E2,2.739E3,1.265E3,1.2E1,1.141E3,6.79E2,2.76E2,1.19E2,1.46E2,6.6E2,2.4E2,9.39E2,6.97E2,8E1,2.1E2,1.1E1,3.83E2,2.3E1,2.129E3,6.1E2,1.019E3,2.46E2,7.5E2,3.91E2,4.23E2,2.56E2,2.47E2,2.9E1,1.4E1,1.05E2,1.15E2,3.1E1,5.86E2,7.4E1,8.6E1,1.54E2,7.09E2,2.3E2,4.64E2,2.33E2,4.6E1,3.4E1,1.46E2,6.4E1,2E1,3.63E2,1.3E1,1E1,9.19E2,1.21E3,2.9E1,5.81E2,1.7E1,1.002E3,2.25E2,2.1E1,4.4E1,7.06E2,1.72E2,2.19E2,1.91E2,2.32E2,2.41E2,1.5E1,6.2E1,1.85E2,1.3E1,1.6E1,9.1E1,1.4E1,1.04E2,1.1E1,2.1E1,1E1,5.69E2,1.7E1,2.2E1,5.2E1,6.3E1,2.3E1,1.33E2,2.1E1,6.99E2,1E1,1.6E1,2.14E2,3.24E2,1.4E2,1.38E2,9.5E1,2.9E1,1.7E1,1.9E1,1.5E1,5.6E1,9E1,5.3E1,1.1E1],"tree_param":{"num_deleted":"0","num_feature":"41","num_nodes":"113","size_leaf_vector":"1"}},{"base_weights":[2.8166098E-3,-9.060267E-1,1.9870379E0,-1.190321E0,5.390446E-2,1.3502743E0,3.512306E0,-1.4204401E0,-7.19134E-1,-1.7180467E-1,1.3414149E0,9.223275E-1,2.2042606E0,1.9800117E0,4.37665E0,-1.4862334E0,-9.8441774E-1,2.2807586E-1,-7.551697E-1,2.5635216E-1,-5.522753E-1,2.3831346E0,4.509352E-1,5.98697E-1,1.6883687E0,2.7510414E0,1.5250294E0,1.5984268E0,3.5173209E0,3.619073E0,5.173695E0,-1.072121E0,-1.529366E0,-7.4954575E-1,-1.6680368E0,-7.810927E-1,2.3206542E-1,1.0677059E-1,2.062017E0,-7.4624527E-1,4.6535045E-1,1.5816791E0,4.1935577E0,-6.7531385E-2,1.5560701E0,3.0450425E-1,1.243625E0,7.372753E-1,2.1612823E0,1.7998654E0,3.3105183E0,3.9013517E0,1.2821385E0,2.0219774E0,5.896493E-1,1.5898017E0,4.512824E0,2.9072595E0,4.621043E0,1.8215903E0,5.4602475E0,6.713263E-2,-1.2077709E-1,-1.5958576E-1,-1.2017306E-1,-8.365586E-2,1.6695139E-1,-1.7900436E-1,-7.434561E-2,-3.2405414E-2,-9.092683E-2,-6.4578797E-3,1.2805788E-1,-2.178949E-3,2.7175504E-1,-7.967412E-2,1.8877028E-1,-5.311778E-2,1.3507663E-1,3.7799507E-1,8.983055E-2,2.0022355E-1,5.47217E-1,-4.671285E-2,1.4236097E-1,2.0366244E-1,1.4769281E-2,7.019832E-2,-2.6399745E-2,1.5873338E-1,-1.6789963E-2,4.2003207E-2,3.5851225E-1,1.9038396E-1,4.0305096E-1,4.5356026E-1,1.5006104E-1,3.8817418E-1,2.471629E-1,5.675916E-1,1.2806635E-1,1.8671716E-2,1.7584275E-1,-7.561234E-2,2.2760351E-1,-9.282359E-3,2.446496E-1,3.4263808E-1,-8.651919E-3,2.9605094E-1,6.753284E-1,3.2322586E-1,-8.896789E-3,2.8071246E-1,6.272659E-1,-7.767957E-2,3.8801023E-1,5.701883E-1,2.0156384E-1],"categories":[],"categories_nodes":[],"categories_segments":[],"categories_sizes":[],"default_left":[0,0,0,0,0,0,0,0,0,0,0,0,0,0,0,0,0,0,0,0,0,0,0,0,0,0,0,0,0,0,0,0,0,0,0,0,0,0,0,0,0,0,0,0,0,0,0,0,0,0,0,0,0,0,0,0,0,0,0,0,0,0,0,0,0,0,0,0,0,0,0,0,0,0,0,0,0,0,0,0,0,0,0,0,0,0,0,0,0,0,0,0,0,0,0,0,0,0,0,0,0,0,0,0,0,0,0,0,0,0,0,0,0,0,0,0,0,0,0],"id":7,"left_children":[1,3,5,7,9,11,13,15,17,19,21,23,25,27,29,31,33,-1,35,37,39,41,43,45,47,49,51,53,55,57,59,61,63,65,67,69,-1,71,73,75,77,79,81,83,85,87,89,91,93,95,97,99,101,103,105,107,109,111,113,115,117,-1,-1,-1,-1,-1,-1,-1,-1,-1,-1,-1,-1,-1,-1,-1,-1,-1,-1,-1,-1,-1,-1,-1,-1,-1,-1,-1,-1,-1,-1,-1,-1,-1,-1,-1,-1,-1,-1,-1,-1,-1,-1,-1,-1,-1,-1,-1,-1,-1,-1,-1,-1,-1,-1,-1,-1,-1,-1],"loss_changes":[1.7261627E4,1.7916724E3,2.9157617E3,5.481719E2,4.3642535E2,7.738401E2,1.1634531E3,9.613135E1,1.8160608E2,2.0832916E2,2.0671454E2,3.5003577E2,2.5874927E2,1.8268103E2,3.2243652E2,5.1124023E1,7.08425E1,0E0,1.3297614E2,1.6237654E2,1.339795E2,1.4281744E2,7.0008095E1,1.8878525E2,1.8731628E2,2.0211621E2,1.7854346E2,1.0947015E2,1.13713135E2,1.955376E2,2.5228516E2,6.750339E1,5.6313477E1,7.212103E1,1.1528961E1,9.530994E1,0E0,1.1211283E2,6.28954E1,7.7183014E1,9.689275E1,1.06268036E2,7.590082E1,5.071688E1,2.6094482E1,1.5519899E2,1.516344E2,1.2588204E2,1.2706775E2,1.1354028E2,1.07808105E2,1.275979E2,1.5097537E2,1.3017621E2,9.907241E1,7.1106445E1,1.2260065E2,1.6972375E2,3.418994E2,1.2603664E2,1.9742432E2,0E0,0E0,0E0,0E0,0E0,0E0,0E0,0E0,0E0,0E0,0E0,0E0,0E0,0E0,0E0,0E0,0E0,0E0,0E0,0E0,0E0,0E0,0E0,0E0,0E0,0E0,0E0,0E0,0E0,0E0,0E0,0E0,0E0,0E0,0E0,0E0,0E0,0E0,0E0,0E0,0E0,0E0,0E0,0E0,0E0,0E0,0E0,0E0,0E0,0E0,0E0,0E0,0E0,0E0,0E0,0E0,0E0,0E0],"parents":[2147483647,0,0,1,1,2,2,3,3,4,4,5,5,6,6,7,7,8,8,9,9,10,10,11,11,12,12,13,13,14,14,15,15,16,16,18,18,19,19,20,20,21,21,22,22,23,23,24,24,25,25,26,26,27,27,28,28,29,29,30,30,31,31,32,32,33,33,34,34,35,35,37,37,38,38,39,39,40,40,41,41,42,42,43,43,44,44,45,45,46,46,47,47,48,48,49,49,50,50,51,51,52,52,53,53,54,54,55,55,56,56,57,57,58,58,59,59,60,60],"right_children":[2,4,6,8,10,12,14,16,18,20,22,24,26,28,30,32,34,-1,36,38,40,42,44,46,48,50,52,54,56,58,60,62,64,66,68,70,-1,72,74,76,78,80,82,84,86,88,90,92,94,96,98,100,102,104,106,108,110,112,114,116,118,-1,-1,-1,-1,-1,-1,-1,-1,-1,-1,-1,-1,-1,-1,-1,-1,-1,-1,-1,-1,-1,-1,-1,-1,-1,-1,-1,-1,-1,-1,-1,-1,-1,-1,-1,-1,-1,-1,-1,-1,-1,-1,-1,-1,-1,-1,-1,-1,-1,-1,-1,-1,-1,-1,-1,-1,-1,-1],"split_conditions":[4.8333335E0,4.5333335E-1,1.052E1,1.2E0,7.2333336E-1,1.6E-1,1.5384616E-1,1.4E0,-1.7E1,1.6666667E-3,2E-3,7.033333E-1,1.5714286E-2,1.7142856E-2,2.2744333E1,-2.5E0,7.470588E0,2.2807586E-1,1.724138E-1,1E0,4.266667E0,8.666667E-1,5E0,7.633333E0,8.3E-1,7.766667E0,1.375E1,7.375E0,6.470588E0,1.2888889E0,1.9518452E0,6.666667E-3,2.5E-2,1.4E1,1.7142856E-2,-1.7142857E0,2.3206542E-1,5.94E0,6.125E0,6.2525E0,6.75E-1,6.7909093E0,2.025E1,7.9016395E0,4.133333E0,5.2380953E-3,7.5E0,1.0633333E1,9.4E0,1.7E1,4.428571E0,8.366667E0,-2.660936E-1,-1.3887022E-1,9.656487E0,6.675E0,8.566667E-1,1.4761905E1,1.3533334E1,1.5814656E-2,1.4333333E1,6.713263E-2,-1.2077709E-1,-1.5958576E-1,-1.2017306E-1,-8.365586E-2,1.6695139E-1,-1.7900436E-1,-7.434561E-2,-3.2405414E-2,-9.092683E-2,-6.4578797E-3,1.2805788E-1,-2.178949E-3,2.7175504E-1,-7.967412E-2,1.8877028E-1,-5.311778E-2,1.3507663E-1,3.7799507E-1,8.983055E-2,2.0022355E-1,5.47217E-1,-4.671285E-2,1.4236097E-1,2.0366244E-1,1.4769281E-2,7.019832E-2,-2.6399745E-2,1.5873338E-1,-1.6789963E-2,4.2003207E-2,3.5851225E-1,1.9038396E-1,4.0305096E-1,4.5356026E-1,1.5006104E-1,3.8817418E-1,2.471629E-1,5.675916E-1,1.2806635E-1,1.8671716E-2,1.7584275E-1,-7.561234E-2,2.2760351E-1,-9.282359E-3,2.446496E-1,3.4263808E-1,-8.651919E-3,2.9605094E-1,6.753284E-1,3.2322586E-1,-8.896789E-3,2.8071246E-1,6.272659E-1,-7.767957E-2,3.8801023E-1,5.701883E-1,2.0156384E-1],"split_indices":[16,14,18,16,14,3,3,18,13,15,15,14,15,15,4,13,34,0,3,37,18,14,36,16,29,16,30,34,34,29,26,14,3,32,15,13,0,18,34,27,25,35,30,35,16,15,32,16,18,1,13,16,28,28,4,35,14,13,16,28,22,0,0,0,0,0,0,0,0,0,0,0,0,0,0,0,0,0,0,0,0,0,0,0,0,0,0,0,0,0,0,0,0,0,0,0,0,0,0,0,0,0,0,0,0,0,0,0,0,0,0,0,0,0,0,0,0,0,0],"split_type":[0,0,0,0,0,0,0,0,0,0,0,0,0,0,0,0,0,0,0,0,0,0,0,0,0,0,0,0,0,0,0,0,0,0,0,0,0,0,0,0,0,0,0,0,0,0,0,0,0,0,0,0,0,0,0,0,0,0,0,0,0,0,0,0,0,0,0,0,0,0,0,0,0,0,0,0,0,0,0,0,0,0,0,0,0,0,0,0,0,0,0,0,0,0,0,0,0,0,0,0,0,0,0,0,0,0,0,0,0,0,0,0,0,0,0,0,0,0,0],"sum_hessian":[9.57E3,6.564E3,3.006E3,5.064E3,1.5E3,2.122E3,8.84E2,3.401E3,1.663E3,1.277E3,2.23E2,1.415E3,7.07E2,3.2E2,5.64E2,2.953E3,4.48E2,1.9E1,1.644E3,6.01E2,6.76E2,1.02E2,1.21E2,9.96E2,4.19E2,3.9E2,3.17E2,2.58E2,6.2E1,2.92E2,2.72E2,2.81E2,2.672E3,3.35E2,1.13E2,1.631E3,1.3E1,5.56E2,4.5E1,5.68E2,1.08E2,7.2E1,3E1,8.3E1,3.8E1,6.85E2,3.11E2,1.4E2,2.79E2,1.46E2,2.44E2,2.8E1,2.89E2,1.81E2,7.7E1,2.2E1,4E1,1.73E2,1.19E2,2.2E1,2.5E2,2E1,2.61E2,2.218E3,4.54E2,3.24E2,1.1E1,9.9E1,1.4E1,3.58E2,1.273E3,4.86E2,7E1,1.1E1,3.4E1,5.58E2,1E1,5.1E1,5.7E1,1.6E1,5.6E1,1.2E1,1.8E1,6.6E1,1.7E1,2.8E1,1E1,4.03E2,2.82E2,2.5E2,6.1E1,1.27E2,1.3E1,2.47E2,3.2E1,1.3E1,1.33E2,1.43E2,1.01E2,1.6E1,1.2E1,8.8E1,2.01E2,1.5E1,1.66E2,5.7E1,2E1,1E1,1.2E1,2.5E1,1.5E1,1.56E2,1.7E1,5.8E1,6.1E1,1E1,1.2E1,2.33E2,1.7E1],"tree_param":{"num_deleted":"0","num_feature":"41","num_nodes":"119","size_leaf_vector":"1"}},{"base_weights":[2.1914579E-2,-9.029927E-1,1.7423514E0,-1.2559338E0,-3.9320397E-1,1.1994447E0,3.631486E0,-1.2958502E0,-2.0476365E-1,1.1441686E0,-4.992204E-1,6.2673193E-1,1.7832146E0,2.867639E0,4.579958E0,-1.0247606E0,-1.4234927E0,-4.5800143E-1,2.4501935E-1,1.7064298E0,-8.470706E-1,-6.192226E-1,5.8793867E-1,1.3228552E0,1.8091837E-1,2.0756598E0,9.69742E-1,3.2928765E0,1.6358413E0,5.7211204E0,3.854193E0,-1.0425812E0,7.372507E-2,-1.2415711E0,-1.5028443E0,1.2806786E0,-8.838331E-1,3.0615735E0,9.6892506E-1,-2.5167186E-2,-1.2415847E0,2.9445445E-2,-7.4695224E-1,3.7878495E-1,2.6242301E0,1.0244726E0,3.7449048E0,1.8350208E0,4.505658E-2,1.893253E0,6.923495E0,-6.322995E-2,1.3656919E0,1.9685756E0,3.7547176E0,1.1299733E0,3.8304552E-1,6.750378E0,3.6955762E0,4.947626E0,2.8161922E0,-1.0730163E-1,7.0026773E-3,-9.55006E-2,-1.4259905E-1,-1.5531832E-1,-1.1985525E-1,3.7231657E-1,-9.0435885E-2,-1.771043E-1,-5.3618845E-2,3.8100225E-1,6.858375E-2,1.5523885E-1,-2.742824E-2,-2.1353947E-1,-3.187936E-2,-3.0115752E-2,1.4041352E-1,-7.7058315E-2,2.5570333E-1,-3.0739794E-2,7.287763E-2,5.350979E-1,-9.39757E-3,1.3692506E-1,-4.6548855E-2,4.6236044E-1,1.0348856E-1,4.639363E-1,1.1252784E-1,-6.422227E-2,2.886464E-2,2.2325973E-1,1.1901549E-1,4.4939142E-1,9.7013694E-1,1.3270418E-1,-8.470409E-2,1.185924E-1,4.2856765E-1,2.9691455E-1,8.4374875E-2,3.196472E-1,4.76715E-1,2.6376224E-1,6.328972E-2,4.7317314E-1,7.8037304E-1,1.15541555E-1,5.0572026E-1,3.274995E-1,5.8929867E-1,2.104111E-1,5.666047E-1],"categories":[],"categories_nodes":[],"categories_segments":[],"categories_sizes":[],"default_left":[0,0,0,0,0,0,0,0,0,0,0,0,0,0,0,0,0,0,0,0,0,0,0,0,0,0,0,0,0,0,0,0,0,0,0,0,0,0,0,0,0,0,0,0,0,0,0,0,0,0,0,0,0,0,0,0,0,0,0,0,0,0,0,0,0,0,0,0,0,0,0,0,0,0,0,0,0,0,0,0,0,0,0,0,0,0,0,0,0,0,0,0,0,0,0,0,0,0,0,0,0,0,0,0,0,0,0,0,0,0,0,0,0,0,0],"id":8,"left_children":[1,3,5,7,9,11,13,15,17,19,21,23,25,27,29,31,33,35,-1,37,39,41,43,45,47,49,51,53,55,57,59,61,-1,63,65,67,69,71,73,-1,75,77,79,81,83,85,87,89,91,93,95,97,99,101,103,105,-1,107,109,111,113,-1,-1,-1,-1,-1,-1,-1,-1,-1,-1,-1,-1,-1,-1,-1,-1,-1,-1,-1,-1,-1,-1,-1,-1,-1,-1,-1,-1,-1,-1,-1,-1,-1,-1,-1,-1,-1,-1,-1,-1,-1,-1,-1,-1,-1,-1,-1,-1,-1,-1,-1,-1,-1,-1],"loss_changes":[1.5260018E4,1.1217007E3,3.4345615E3,1.5435254E2,4.1667642E2,8.701526E2,5.287832E2,1.2138086E2,9.255981E1,1.8617888E2,3.1203644E2,4.084801E2,3.0487305E2,2.1304077E2,2.5291797E2,3.6564575E1,3.2938965E1,9.368003E1,0E0,1.2595938E2,8.378578E0,1.783241E2,1.0036966E2,3.6763E2,1.8059969E2,8.25187E2,1.4037512E2,1.815979E2,1.16681854E2,2.3982373E2,2.1987329E2,3.8305786E1,0E0,3.7640137E1,2.3780273E1,1.3679022E2,3.0202202E1,7.740219E1,6.2081917E1,0E0,1.7464844E1,1.6176202E2,1.423515E2,5.2338318E1,1.635639E2,2.3642828E2,1.285675E2,1.1619142E2,1.2474157E2,2.1565479E2,1.8587122E2,1.05736244E2,1.25097626E2,8.978314E1,1.1362427E2,6.577814E1,0E0,1.3956177E2,1.4980054E2,1.3724316E2,2.072453E2,0E0,0E0,0E0,0E0,0E0,0E0,0E0,0E0,0E0,0E0,0E0,0E0,0E0,0E0,0E0,0E0,0E0,0E0,0E0,0E0,0E0,0E0,0E0,0E0,0E0,0E0,0E0,0E0,0E0,0E0,0E0,0E0,0E0,0E0,0E0,0E0,0E0,0E0,0E0,0E0,0E0,0E0,0E0,0E0,0E0,0E0,0E0,0E0,0E0,0E0,0E0,0E0,0E0,0E0],"parents":[2147483647,0,0,1,1,2,2,3,3,4,4,5,5,6,6,7,7,8,8,9,9,10,10,11,11,12,12,13,13,14,14,15,15,16,16,17,17,19,19,20,20,21,21,22,22,23,23,24,24,25,25,26,26,27,27,28,28,29,29,30,30,31,31,33,33,34,34,35,35,36,36,37,37,38,38,40,40,41,41,42,42,43,43,44,44,45,45,46,46,47,47,48,48,49,49,50,50,51,51,52,52,53,53,54,54,55,55,57,57,58,58,59,59,60,60],"right_children":[2,4,6,8,10,12,14,16,18,20,22,24,26,28,30,32,34,36,-1,38,40,42,44,46,48,50,52,54,56,58,60,62,-1,64,66,68,70,72,74,-1,76,78,80,82,84,86,88,90,92,94,96,98,100,102,104,106,-1,108,110,112,114,-1,-1,-1,-1,-1,-1,-1,-1,-1,-1,-1,-1,-1,-1,-1,-1,-1,-1,-1,-1,-1,-1,-1,-1,-1,-1,-1,-1,-1,-1,-1,-1,-1,-1,-1,-1,-1,-1,-1,-1,-1,-1,-1,-1,-1,-1,-1,-1,-1,-1,-1,-1,-1,-1],"split_conditions":[2.5E0,1E0,6.6666665E0,3.1E0,4.3E1,6.6E-1,1.4333333E1,1.62E2,6.5833335E0,1.2E1,7E-1,9.1E1,1.47E2,1.4285715E0,5E-1,4.1666665E0,-4.761905E-2,-1.5619047E-1,2.4501935E-1,-5E-1,3.0333333E0,-3.3333334E-1,9.4E-1,8.6E1,-8.666667E0,1.45E2,1.0857143E0,6.734375E0,1.104E1,6E0,7.212766E0,9.6666664E-2,7.372507E-2,7.0987654E0,6E-1,6.8235292E0,1.5E-1,7.5E0,2.6190476E-2,-2.5167186E-2,5.4054055E-2,7.5E-2,4.1666668E-2,6.1E0,1.96E0,5.8E1,9E0,1.5E0,6.25E-2,9.6E1,5E-1,1.97E2,2.236235E0,7.3333335E0,1.2173913E0,6.6875E0,3.8304552E-1,8.5E-1,8.5E0,5.8E1,1.13E2,-1.0730163E-1,7.0026773E-3,-9.55006E-2,-1.4259905E-1,-1.5531832E-1,-1.1985525E-1,3.7231657E-1,-9.0435885E-2,-1.771043E-1,-5.3618845E-2,3.8100225E-1,6.858375E-2,1.5523885E-1,-2.742824E-2,-2.1353947E-1,-3.187936E-2,-3.0115752E-2,1.4041352E-1,-7.7058315E-2,2.5570333E-1,-3.0739794E-2,7.287763E-2,5.350979E-1,-9.39757E-3,1.3692506E-1,-4.6548855E-2,4.6236044E-1,1.0348856E-1,4.639363E-1,1.1252784E-1,-6.422227E-2,2.886464E-2,2.2325973E-1,1.1901549E-1,4.4939142E-1,9.7013694E-1,1.3270418E-1,-8.470409E-2,1.185924E-1,4.2856765E-1,2.9691455E-1,8.4374875E-2,3.196472E-1,4.76715E-1,2.6376224E-1,6.328972E-2,4.7317314E-1,7.8037304E-1,1.15541555E-1,5.0572026E-1,3.274995E-1,5.8929867E-1,2.104111E-1,5.666047E-1],"split_indices":[10,10,10,18,40,2,16,40,22,36,2,40,40,11,19,13,11,15,0,11,16,11,2,40,13,40,25,35,18,36,35,15,0,35,25,34,2,32,15,0,3,3,9,33,18,40,33,32,3,40,19,40,28,10,29,34,0,2,10,40,1,0,0,0,0,0,0,0,0,0,0,0,0,0,0,0,0,0,0,0,0,0,0,0,0,0,0,0,0,0,0,0,0,0,0,0,0,0,0,0,0,0,0,0,0,0,0,0,0,0,0,0,0,0,0],"split_type":[0,0,0,0,0,0,0,0,0,0,0,0,0,0,0,0,0,0,0,0,0,0,0,0,0,0,0,0,0,0,0,0,0,0,0,0,0,0,0,0,0,0,0,0,0,0,0,0,0,0,0,0,0,0,0,0,0,0,0,0,0,0,0,0,0,0,0,0,0,0,0,0,0,0,0,0,0,0,0,0,0,0,0,0,0,0,0,0,0,0,0,0,0,0,0,0,0,0,0,0,0,0,0,0,0,0,0,0,0,0,0,0,0,0,0],"sum_hessian":[9.588E3,6.236E3,3.352E3,3.684E3,2.552E3,2.605E3,7.47E2,3.549E3,1.35E2,1.64E2,2.388E3,1.316E3,1.289E3,4.16E2,3.31E2,1.139E3,2.41E3,1.24E2,1.1E1,1.28E2,3.6E1,2.151E3,2.37E2,5.13E2,8.03E2,9.47E2,3.42E2,3.08E2,1.08E2,1.26E2,2.05E2,1.128E3,1.1E1,7.37E2,1.673E3,2.4E1,1E2,4.4E1,8.4E1,1.5E1,2.1E1,3.54E2,1.797E3,2.16E2,2.1E1,4.58E2,5.5E1,6E1,7.43E2,9.14E2,3.3E1,9.5E1,2.47E2,8.1E1,2.27E2,8.9E1,1.9E1,8.2E1,4.4E1,9.8E1,1.07E2,1.098E3,3E1,2.91E2,4.46E2,1.432E3,2.41E2,1.1E1,1.3E1,2.7E1,7.3E1,3.3E1,1.1E1,5.7E1,2.7E1,1E1,1.1E1,2.86E2,6.8E1,1.785E3,1.2E1,7.3E1,1.43E2,1E1,1.1E1,3.72E2,8.6E1,4.1E1,1.4E1,1.1E1,4.9E1,1.94E2,5.49E2,6.15E2,2.99E2,1.9E1,1.4E1,3.4E1,6.1E1,2.34E2,1.3E1,4.2E1,3.9E1,1.49E2,7.8E1,2.1E1,6.8E1,3E1,5.2E1,1.6E1,2.8E1,3.7E1,6.1E1,8.7E1,2E1],"tree_param":{"num_deleted":"0","num_feature":"41","num_nodes":"115","size_leaf_vector":"1"}},{"base_weights":[3.924314E-3,-7.5889397E-1,1.6722395E0,-1.032393E0,-5.7040505E-2,1.1324998E0,3.227318E0,-1.1905243E0,-5.2065015E-1,1.2028581E0,-2.2814104E-1,7.441864E-1,1.9424247E0,2.3103142E0,4.0550623E0,-8.824448E-1,-1.3036814E0,-8.5123557E-1,-1.105032E-1,9.966312E-1,3.782851E-1,1.07549E0,-3.1695303E-1,6.956868E-1,7.303341E-1,2.3819656E0,1.3443941E0,2.7831416E0,6.6731673E-1,3.2222793E0,4.9941716E0,-1.0501348E0,-6.1825067E-1,4.955808E-2,-1.31276E0,-8.974666E-1,1.7898712E-1,1.2778172E0,-2.2720729E-1,2.872304E0,6.6059434E-1,3.0815518E-1,6.197846E-1,3.3757827E-1,-3.460316E-1,1.0683981E0,-7.9359524E-2,1.768972E0,3.0351539E0,1.1356193E0,4.8636076E-1,3.5422304E0,1.6659532E0,-1.9034725E-1,1.3002006E0,3.6771157E0,1.3120316E-1,5.831927E0,3.6430242E0,-1.18399E-1,-7.470825E-2,-7.5101264E-2,3.6492873E-2,-1.1330419E-1,-1.3846181E-1,1.14909604E-1,-9.334912E-2,4.387855E-2,3.1290734E-1,-1.2185907E-2,-1.3382183E-1,1.2976927E-1,5.257298E-1,8.501681E-3,1.6186021E-1,-3.2923643E-2,1.7719185E-1,-4.286928E-2,8.2625784E-2,1.7096607E-1,6.899871E-2,-6.643717E-2,4.918191E-2,5.7929856E-1,1.5465897E-1,2.757266E-1,6.820372E-1,-6.496944E-2,1.3267079E-1,2.5269476E-1,5.22649E-1,2.1823399E-1,-1.3241024E-1,1.4248992E-3,2.1466993E-1,2.0011745E-1,4.9584427E-1,1.28699E-1,-1.0333307E-1,4.5390183E-1,8.9070636E-1,5.4141873E-1,1.4641467E-1],"categories":[],"categories_nodes":[],"categories_segments":[],"categories_sizes":[],"default_left":[0,0,0,0,0,0,0,0,0,0,0,0,0,0,0,0,0,0,0,0,0,0,0,0,0,0,0,0,0,0,0,0,0,0,0,0,0,0,0,0,0,0,0,0,0,0,0,0,0,0,0,0,0,0,0,0,0,0,0,0,0,0,0,0,0,0,0,0,0,0,0,0,0,0,0,0,0,0,0,0,0,0,0,0,0,0,0,0,0,0,0,0,0,0,0,0,0,0,0,0,0,0,0],"id":9,"left_children":[1,3,5,7,9,11,13,15,17,19,21,23,25,27,29,31,33,35,37,39,-1,41,43,45,-1,47,49,51,53,55,57,59,61,-1,63,65,-1,67,69,71,73,-1,75,-1,77,79,81,83,85,87,-1,89,91,-1,93,95,97,99,101,-1,-1,-1,-1,-1,-1,-1,-1,-1,-1,-1,-1,-1,-1,-1,-1,-1,-1,-1,-1,-1,-1,-1,-1,-1,-1,-1,-1,-1,-1,-1,-1,-1,-1,-1,-1,-1,-1,-1,-1,-1,-1,-1,-1],"loss_changes":[1.2208253E4,1.2635889E3,2.522752E3,3.8271045E2,3.9843094E2,7.0178687E2,5.788906E2,1.2497803E2,1.5176517E2,1.1381604E2,1.887118E2,4.7622925E2,1.8710767E2,2.855791E2,3.014297E2,4.25459E1,4.3840332E1,7.730908E1,8.146369E1,1.27943375E2,0E0,9.3164116E1,1.6481445E2,4.3425427E2,0E0,1.6119727E2,2.2150629E2,2.374878E2,1.3914381E2,3.0601147E2,1.9268896E2,2.3251709E1,5.000554E1,0E0,3.2408203E1,4.6045807E1,0E0,5.9204254E1,5.4027855E1,1.0959622E2,9.691016E1,0E0,9.461573E1,0E0,1.469682E2,2.4512097E2,1.6372435E2,1.8522723E2,1.9156812E2,1.0081979E2,0E0,2.7749292E2,1.850846E2,0E0,7.399124E1,3.9808862E2,4.0362526E1,4.1679565E2,2.8150897E2,0E0,0E0,0E0,0E0,0E0,0E0,0E0,0E0,0E0,0E0,0E0,0E0,0E0,0E0,0E0,0E0,0E0,0E0,0E0,0E0,0E0,0E0,0E0,0E0,0E0,0E0,0E0,0E0,0E0,0E0,0E0,0E0,0E0,0E0,0E0,0E0,0E0,0E0,0E0,0E0,0E0,0E0,0E0,0E0],"parents":[2147483647,0,0,1,1,2,2,3,3,4,4,5,5,6,6,7,7,8,8,9,9,10,10,11,11,12,12,13,13,14,14,15,15,16,16,17,17,18,18,19,19,21,21,22,22,23,23,25,25,26,26,27,27,28,28,29,29,30,30,31,31,32,32,34,34,35,35,37,37,38,38,39,39,40,40,42,42,44,44,45,45,46,46,47,47,48,48,49,49,51,51,52,52,54,54,55,55,56,56,57,57,58,58],"right_children":[2,4,6,8,10,12,14,16,18,20,22,24,26,28,30,32,34,36,38,40,-1,42,44,46,-1,48,50,52,54,56,58,60,62,-1,64,66,-1,68,70,72,74,-1,76,-1,78,80,82,84,86,88,-1,90,92,-1,94,96,98,100,102,-1,-1,-1,-1,-1,-1,-1,-1,-1,-1,-1,-1,-1,-1,-1,-1,-1,-1,-1,-1,-1,-1,-1,-1,-1,-1,-1,-1,-1,-1,-1,-1,-1,-1,-1,-1,-1,-1,-1,-1,-1,-1,-1,-1],"split_conditions":[4.8333335E0,8.333333E0,1.104E1,3.9E-1,4.4E1,1.627907E-1,1.764706E-1,1.45E2,1.5666667E0,2.235127E0,-2.6095238E0,5.263158E-2,1.6666668E-2,1.49E2,8.8E-1,2E0,-2.0952382E0,4.0666666E0,4.5E1,1.8867925E-2,3.782851E-1,3.1E-1,5.25E0,1.47E2,7.303341E-1,7.7E-1,2.8333333E0,1E0,1.76E2,1.47E2,6E0,2.4E-1,1E0,4.955808E-2,0E0,8.5E0,1.7898712E-1,3.3E0,9.7E0,3.4E1,6.2E-1,3.0815518E-1,6.5E-1,3.3757827E-1,4E0,3.3333334E-1,5.5E-1,5.3E0,1.8E0,4.5833334E-1,4.8636076E-1,1.428E1,8.117647E0,-1.9034725E-1,1.2111111E0,4.5E1,7.2941175E0,5E0,6.4E1,-1.18399E-1,-7.470825E-2,-7.5101264E-2,3.6492873E-2,-1.1330419E-1,-1.3846181E-1,1.14909604E-1,-9.334912E-2,4.387855E-2,3.1290734E-1,-1.2185907E-2,-1.3382183E-1,1.2976927E-1,5.257298E-1,8.501681E-3,1.6186021E-1,-3.2923643E-2,1.7719185E-1,-4.286928E-2,8.2625784E-2,1.7096607E-1,6.899871E-2,-6.643717E-2,4.918191E-2,5.7929856E-1,1.5465897E-1,2.757266E-1,6.820372E-1,-6.496944E-2,1.3267079E-1,2.5269476E-1,5.22649E-1,2.1823399E-1,-1.3241024E-1,1.4248992E-3,2.1466993E-1,2.0011745E-1,4.9584427E-1,1.28699E-1,-1.0333307E-1,4.5390183E-1,8.9070636E-1,5.4141873E-1,1.4641467E-1],"split_indices":[16,12,18,2,40,3,3,40,18,26,17,9,15,40,2,12,11,16,40,3,0,2,30,40,0,2,11,31,40,40,36,2,38,0,11,30,0,16,33,40,2,0,2,0,6,19,2,16,11,29,0,18,34,0,25,40,34,36,40,0,0,0,0,0,0,0,0,0,0,0,0,0,0,0,0,0,0,0,0,0,0,0,0,0,0,0,0,0,0,0,0,0,0,0,0,0,0,0,0,0,0,0,0],"split_type":[0,0,0,0,0,0,0,0,0,0,0,0,0,0,0,0,0,0,0,0,0,0,0,0,0,0,0,0,0,0,0,0,0,0,0,0,0,0,0,0,0,0,0,0,0,0,0,0,0,0,0,0,0,0,0,0,0,0,0,0,0,0,0,0,0,0,0,0,0,0,0,0,0,0,0,0,0,0,0,0,0,0,0,0,0,0,0,0,0,0,0,0,0,0,0,0,0,0,0,0,0,0,0],"sum_hessian":[9.591E3,6.582E3,3.009E3,4.736E3,1.846E3,2.235E3,7.74E2,3.617E3,1.119E3,2.2E2,1.626E3,1.512E3,7.23E2,3.69E2,4.05E2,9.74E2,2.643E3,6.19E2,5E2,2.05E2,1.5E1,1.03E2,1.523E3,1.502E3,1E1,4.15E2,3.08E2,2.86E2,8.3E1,2.17E2,1.88E2,5.94E2,3.8E2,1.3E1,2.63E3,6.09E2,1E1,3.8E1,4.62E2,3E1,1.75E2,1.8E1,8.5E1,1.1E1,1.512E3,1.014E3,4.88E2,2.16E2,1.99E2,2.92E2,1.6E1,1.69E2,1.17E2,1.6E1,6.7E1,1.89E2,2.8E1,1.14E2,7.4E1,4.1E2,1.84E2,3.35E2,4.5E1,7.56E2,1.874E3,1E1,5.99E2,2.7E1,1.1E1,4.23E2,3.9E1,1.9E1,1.1E1,1.1E2,6.5E1,4.7E1,3.8E1,1.413E3,9.9E1,3.75E2,6.39E2,2.41E2,2.47E2,1E1,2.06E2,1.87E2,1.2E1,2.8E1,2.64E2,1.07E2,6.2E1,1E2,1.7E1,2.7E1,4E1,8.3E1,1.06E2,1.4E1,1.4E1,8.2E1,3.2E1,4E1,3.4E1],"tree_param":{"num_deleted":"0","num_feature":"41","num_nodes":"103","size_leaf_vector":"1"}},{"base_weights":[2.1146405E-2,-6.707443E-1,1.5526226E0,-9.3215036E-1,-1.1035914E-1,9.3815917E-1,2.503825E0,-1.1178045E0,-6.8774176E-1,-2.4743794E-1,1.2013513E0,8.9554864E-1,6.014446E-1,2.0039384E0,3.6046557E0,-1.1731043E0,-7.362334E-1,1.0539544E0,-7.2187245E-1,3.922176E-2,-7.578992E-1,1.7113165E0,2.9070905E-1,1.6251275E-1,1.2257842E0,1.8893174E0,5.683833E0,2.9047155E0,4.6635585E0,-7.211203E-1,-1.2243886E0,6.7844816E-2,-7.9677093E-1,3.164896E-1,1.8701465E-1,-7.7168524E-1,2.3209071E-1,-4.983084E-2,1.0316377E0,-7.9512566E-1,7.582243E-2,4.3741074E-1,1.3459376E0,-3.2623652E-2,1.6556557E-1,7.1277356E-1,-4.8149422E-1,1.4730272E0,7.081256E-1,8.10696E-1,2.2165618E0,3.172714E-1,7.2508675E-1,-8.863087E-3,3.1521695E0,5.805223E0,3.3737245E0,8.707001E-2,-9.630373E-2,-1.3614741E-1,-1.15233794E-1,-8.4795676E-2,6.949076E-2,-5.8475256E-2,1.432905E-1,-8.436758E-2,-4.8553377E-2,1.4058901E-1,-3.76776E-2,4.7863476E-2,-1.8306624E-2,3.8842997E-1,4.4896837E-2,-9.404191E-2,-3.2813605E-2,3.342328E-1,7.475995E-2,1.200493E-1,-4.340177E-2,-5.851542E-2,1.0963573E-1,2.1433328E-1,-6.85586E-2,7.048117E-2,1.726772E-1,4.646813E-1,5.9664793E-2,6.1174583E-2,3.9021128E-1,1.738809E-1,2.8377512E-1,3.3895215E-1,-6.3232385E-2,8.550899E-2,6.5536267E-1,6.4757293E-1,2.6856264E-1],"categories":[],"categories_nodes":[],"categories_segments":[],"categories_sizes":[],"default_left":[0,0,0,0,0,0,0,0,0,0,0,0,0,0,0,0,0,0,0,0,0,0,0,0,0,0,0,0,0,0,0,0,0,0,0,0,0,0,0,0,0,0,0,0,0,0,0,0,0,0,0,0,0,0,0,0,0,0,0,0,0,0,0,0,0,0,0,0,0,0,0,0,0,0,0,0,0,0,0,0,0,0,0,0,0,0,0,0,0,0,0,0,0,0,0,0,0],"id":10,"left_children":[1,3,5,7,9,11,13,15,17,19,21,23,-1,25,27,29,31,33,35,37,39,41,43,45,47,49,51,53,55,57,59,-1,61,-1,63,65,67,69,71,73,-1,-1,75,77,-1,79,81,83,85,87,89,-1,-1,-1,91,93,95,-1,-1,-1,-1,-1,-1,-1,-1,-1,-1,-1,-1,-1,-1,-1,-1,-1,-1,-1,-1,-1,-1,-1,-1,-1,-1,-1,-1,-1,-1,-1,-1,-1,-1,-1,-1,-1,-1,-1,-1],"loss_changes":[1.0208304E4,9.7199243E2,1.749919E3,2.0455542E2,3.8005112E2,3.889347E2,6.3991797E2,5.336548E1,1.17035645E2,2.7995648E2,9.238162E1,4.3771338E2,0E0,3.3133594E2,2.577212E2,5.1108887E1,2.8630905E1,6.895038E1,9.136926E1,1.0840188E2,3.9433563E1,1.1864743E2,3.227124E1,1.9985452E2,1.5855737E2,2.7634546E2,7.14353E1,1.6545898E2,1.9246313E2,8.9793945E1,1.831372E1,0E0,2.4640396E1,0E0,2.7760942E1,3.716504E1,6.9139694E1,7.936965E1,1.661341E2,4.5286957E1,0E0,0E0,1.3367613E2,3.0218971E1,0E0,1.5199219E2,1.4075293E2,1.6310962E2,1.7505318E2,1.11394905E2,1.7431812E2,0E0,0E0,0E0,1.8718396E2,2.722483E2,1.3202246E2,0E0,0E0,0E0,0E0,0E0,0E0,0E0,0E0,0E0,0E0,0E0,0E0,0E0,0E0,0E0,0E0,0E0,0E0,0E0,0E0,0E0,0E0,0E0,0E0,0E0,0E0,0E0,0E0,0E0,0E0,0E0,0E0,0E0,0E0,0E0,0E0,0E0,0E0,0E0,0E0],"parents":[2147483647,0,0,1,1,2,2,3,3,4,4,5,5,6,6,7,7,8,8,9,9,10,10,11,11,13,13,14,14,15,15,16,16,17,17,18,18,19,19,20,20,21,21,22,22,23,23,24,24,25,25,26,26,27,27,28,28,29,29,30,30,32,32,34,34,35,35,36,36,37,37,38,38,39,39,42,42,43,43,45,45,46,46,47,47,48,48,49,49,50,50,54,54,55,55,56,56],"right_children":[2,4,6,8,10,12,14,16,18,20,22,24,-1,26,28,30,32,34,36,38,40,42,44,46,48,50,52,54,56,58,60,-1,62,-1,64,66,68,70,72,74,-1,-1,76,78,-1,80,82,84,86,88,90,-1,-1,-1,92,94,96,-1,-1,-1,-1,-1,-1,-1,-1,-1,-1,-1,-1,-1,-1,-1,-1,-1,-1,-1,-1,-1,-1,-1,-1,-1,-1,-1,-1,-1,-1,-1,-1,-1,-1,-1,-1,-1,-1,-1,-1],"split_conditions":[4.866667E0,2E0,9.25E0,2.4E-1,7.1E-1,2E0,8.8E-1,1E0,-3.3666666E0,5.6666666E-1,1.55E0,5.2E-1,6.014446E-1,4.0676727E1,2.2744333E1,-1.0142857E0,5.789855E0,3.5333332E-1,7E-1,7E-1,4.1006703E0,2.52E0,7E0,3.809524E-1,1.4285715E-1,5.9E-1,2.6387405E0,-1.2438457E0,3.1436098E1,5.75E0,-3.3333334E-3,6.7844816E-2,7.047619E-1,3.164896E-1,5.6E-1,4.6E-1,1E0,-1.2571429E0,2.175E0,2.74E0,7.582243E-2,4.3741074E-1,3.2E0,-2.3809525E-3,1.6556557E-1,2E0,5E-2,0E0,-1.0380952E-1,2.6363637E0,1.0769231E0,3.172714E-1,7.2508675E-1,-8.863087E-3,1.3E1,1.275E1,0E0,8.707001E-2,-9.630373E-2,-1.3614741E-1,-1.15233794E-1,-8.4795676E-2,6.949076E-2,-5.8475256E-2,1.432905E-1,-8.436758E-2,-4.8553377E-2,1.4058901E-1,-3.76776E-2,4.7863476E-2,-1.8306624E-2,3.8842997E-1,4.4896837E-2,-9.404191E-2,-3.2813605E-2,3.342328E-1,7.475995E-2,1.200493E-1,-4.340177E-2,-5.851542E-2,1.0963573E-1,2.1433328E-1,-6.85586E-2,7.048117E-2,1.726772E-1,4.646813E-1,5.9664793E-2,6.1174583E-2,3.9021128E-1,1.738809E-1,2.8377512E-1,3.3895215E-1,-6.3232385E-2,8.550899E-2,6.5536267E-1,6.4757293E-1,2.6856264E-1],"split_indices":[16,16,18,2,14,7,2,6,17,17,25,2,0,4,4,17,35,14,2,2,26,18,36,11,20,2,26,28,4,34,15,0,17,0,14,14,16,17,18,18,0,0,16,15,0,0,14,20,15,29,29,0,0,0,22,30,6,0,0,0,0,0,0,0,0,0,0,0,0,0,0,0,0,0,0,0,0,0,0,0,0,0,0,0,0,0,0,0,0,0,0,0,0,0,0,0,0],"split_type":[0,0,0,0,0,0,0,0,0,0,0,0,0,0,0,0,0,0,0,0,0,0,0,0,0,0,0,0,0,0,0,0,0,0,0,0,0,0,0,0,0,0,0,0,0,0,0,0,0,0,0,0,0,0,0,0,0,0,0,0,0,0,0,0,0,0,0,0,0,0,0,0,0,0,0,0,0,0,0,0,0,0,0,0,0,0,0,0,0,0,0,0,0,0,0,0,0],"sum_hessian":[9.632E3,6.635E3,2.997E3,4.524E3,2.111E3,1.822E3,1.175E3,2.569E3,1.955E3,1.912E3,1.99E2,1.808E3,1.4E1,8.1E2,3.65E2,2.242E3,3.27E2,3.7E1,1.918E3,1.225E3,6.87E2,1.27E2,7.2E1,5.62E2,1.246E3,7.87E2,2.3E1,2.22E2,1.43E2,2.3E2,2.012E3,1.3E1,3.14E2,1E1,2.7E1,1.823E3,9.5E1,1.125E3,1E2,6.71E2,1.6E1,1.4E1,1.13E2,5.9E1,1.3E1,3.03E2,2.59E2,8.42E2,4.04E2,1.84E2,6.03E2,1E1,1.3E1,1.7E1,2.05E2,7.4E1,6.9E1,3E1,2E2,6.87E2,1.325E3,3.04E2,1E1,1.7E1,1E1,1.455E3,3.68E2,3.2E1,6.3E1,2.26E2,8.99E2,1.6E1,8.4E1,5.11E2,1.6E2,2.5E1,8.8E1,1.4E1,4.5E1,6.9E1,2.34E2,1.8E1,2.41E2,2.1E2,6.32E2,1E1,3.94E2,1.74E2,1E1,3.43E2,2.6E2,1.93E2,1.2E1,1E1,6.4E1,1.1E1,5.8E1],"tree_param":{"num_deleted":"0","num_feature":"41","num_nodes":"97","size_leaf_vector":"1"}},{"base_weights":[-2.1030936E-2,-7.3847604E-1,1.1467249E0,-9.7669506E-1,-4.5237383E-1,6.703144E-1,2.2654958E0,-7.519756E-1,-1.0536611E0,-1.9496591E-1,-6.9894564E-1,9.033699E-1,9.859459E-2,1.7731774E0,2.949947E0,-8.0096865E-1,7.8630906E-1,-1.0715103E0,-1.936759E-1,-2.85676E-1,8.539444E-1,7.7425724E-1,-7.392222E-1,7.633592E-1,2.0931282E0,-2.4070562E-1,1.1772805E0,1.5185156E0,3.0108743E0,-1.8896972E-1,3.1815276E0,-8.822066E-1,-2.9854456E-1,1.6164963E-1,-4.9271874E-2,-9.6627647E-1,-1.1635009E0,-1.112542E0,1.5016718E-1,-5.5145377E-1,7.026898E-2,-4.8225206E-1,1.2139273E0,1.6601483E0,-7.997172E-2,-7.5914097E-1,1.7290963E-1,-2.696995E-1,8.619612E-1,2.7549512E0,8.652257E-1,-3.7919265E-1,1.0198678E0,-1.2953779E0,1.5184422E0,1.9952396E0,4.8792535E-1,2.3661427E0,7.490769E-1,1.529486E-1,-1.1619458E0,4.0199285E0,2.538656E0,-1.4267594E-2,-9.486791E-2,6.588466E-2,-6.2167156E-2,-8.957087E-2,-1.2800588E-1,-1.1842737E-1,-2.7995706E-2,-3.5206557E-3,-1.6496095E-1,1.6572757E-1,-6.0936462E-2,2.3607898E-1,-1.2001226E-3,-1.822353E-1,1.14534475E-1,1.8195345E-1,2.8762465E-2,2.666881E-1,2.2792961E-2,-8.461523E-2,-3.8494933E-2,-4.8214283E-2,2.3041387E-1,7.8683935E-2,2.0272164E-1,3.2982773E-1,8.800922E-2,-7.167223E-2,2.1329932E-1,-5.8574386E-2,2.9353753E-2,1.6695999E-1,-8.673729E-2,-3.883408E-2,-2.1671112E-1,1.8027346E-1,-7.612851E-2,1.8338667E-1,3.9175847E-1,2.1281226E-1,1.1593956E-2,6.793971E-2,3.0969948E-1,-2.3416972E-1,1.2343697E-2,2.889163E-1,5.6532645E-1,1.522334E-1,3.4239846E-1],"categories":[],"categories_nodes":[],"categories_segments":[],"categories_sizes":[],"default_left":[0,0,0,0,0,0,0,0,0,0,0,0,0,0,0,0,0,0,0,0,0,0,0,0,0,0,0,0,0,0,0,0,0,0,0,0,0,0,0,0,0,0,0,0,0,0,0,0,0,0,0,0,0,0,0,0,0,0,0,0,0,0,0,0,0,0,0,0,0,0,0,0,0,0,0,0,0,0,0,0,0,0,0,0,0,0,0,0,0,0,0,0,0,0,0,0,0,0,0,0,0,0,0,0,0,0,0,0,0,0,0,0,0],"id":11,"left_children":[1,3,5,7,9,11,13,15,17,19,21,23,25,27,29,31,33,35,37,39,41,43,45,47,49,51,53,55,57,59,61,63,65,-1,-1,67,69,71,-1,73,75,77,79,81,-1,83,-1,85,87,89,91,93,95,97,99,101,103,105,-1,-1,107,109,111,-1,-1,-1,-1,-1,-1,-1,-1,-1,-1,-1,-1,-1,-1,-1,-1,-1,-1,-1,-1,-1,-1,-1,-1,-1,-1,-1,-1,-1,-1,-1,-1,-1,-1,-1,-1,-1,-1,-1,-1,-1,-1,-1,-1,-1,-1,-1,-1,-1,-1],"loss_changes":[7.993466E3,4.023545E2,1.9337837E3,5.496875E1,1.7040631E2,3.3941272E2,3.6004248E2,6.28815E1,3.661743E1,1.2545706E2,8.1980896E1,2.9991003E2,2.707562E2,1.949458E2,3.2916504E2,3.2430054E1,2.8404127E1,2.1624756E1,7.9560555E1,1.1469669E2,5.1091232E1,5.2919334E1,6.699817E1,1.6535022E2,1.5202069E2,9.867136E1,1.512799E2,2.579453E2,2.913271E2,5.5281696E1,2.1670703E2,3.3734863E1,3.5367146E1,0E0,0E0,2.3254883E1,2.2592285E1,1.9035782E1,0E0,8.977908E1,9.782954E1,5.2253536E1,4.6037636E1,3.399681E1,0E0,4.2847412E1,0E0,7.875578E1,1.27958374E2,1.22392334E2,1.3790564E2,7.076018E1,7.011542E1,1.6553703E1,1.0247745E2,1.0449292E2,1.0225513E2,1.1500824E2,0E0,0E0,3.213412E1,3.1795947E2,2.116344E2,0E0,0E0,0E0,0E0,0E0,0E0,0E0,0E0,0E0,0E0,0E0,0E0,0E0,0E0,0E0,0E0,0E0,0E0,0E0,0E0,0E0,0E0,0E0,0E0,0E0,0E0,0E0,0E0,0E0,0E0,0E0,0E0,0E0,0E0,0E0,0E0,0E0,0E0,0E0,0E0,0E0,0E0,0E0,0E0,0E0,0E0,0E0,0E0,0E0,0E0],"parents":[2147483647,0,0,1,1,2,2,3,3,4,4,5,5,6,6,7,7,8,8,9,9,10,10,11,11,12,12,13,13,14,14,15,15,16,16,17,17,18,18,19,19,20,20,21,21,22,22,23,23,24,24,25,25,26,26,27,27,28,28,29,29,30,30,31,31,32,32,35,35,36,36,37,37,39,39,40,40,41,41,42,42,43,43,45,45,47,47,48,48,49,49,50,50,51,51,52,52,53,53,54,54,55,55,56,56,57,57,60,60,61,61,62,62],"right_children":[2,4,6,8,10,12,14,16,18,20,22,24,26,28,30,32,34,36,38,40,42,44,46,48,50,52,54,56,58,60,62,64,66,-1,-1,68,70,72,-1,74,76,78,80,82,-1,84,-1,86,88,90,92,94,96,98,100,102,104,106,-1,-1,108,110,112,-1,-1,-1,-1,-1,-1,-1,-1,-1,-1,-1,-1,-1,-1,-1,-1,-1,-1,-1,-1,-1,-1,-1,-1,-1,-1,-1,-1,-1,-1,-1,-1,-1,-1,-1,-1,-1,-1,-1,-1,-1,-1,-1,-1,-1,-1,-1,-1,-1,-1],"split_conditions":[2.3333333E0,2.5E0,5.6666665E0,-2.4285714E-1,4.761905E-2,5.3333336E-1,1.32E1,1.1E1,3.3E0,1.7666666E1,1E-2,8.566667E-1,5.145E0,8.039371E0,5.9E-1,3.6666665E-2,2.3333333E-1,1E0,7.5E-3,4.1E-1,6.352941E0,3E0,8.8E-1,1.0666667E1,9.3333334E-1,1.5E1,3.4333333E-1,1E0,1.8380953E1,7.0163937E0,4.6666667E-1,1.3333334E-2,2E0,1.6164963E-1,-4.9271874E-2,7E0,4.5333335E-1,6.1875E0,1.5016718E-1,-1.6666666E0,-3.0769232E-1,4.8E-1,5E0,4.761905E-2,-7.997172E-2,1.05E1,1.7290963E-1,7.6E-1,4.9E1,1.5384616E-1,1.3043478E-1,7.3E-1,2.0357144E0,2.9E-1,2.25E-1,8.375E0,3.2E1,1.18E0,7.490769E-1,1.529486E-1,6.1333332E1,5.627143E0,8.333333E0,-1.4267594E-2,-9.486791E-2,6.588466E-2,-6.2167156E-2,-8.957087E-2,-1.2800588E-1,-1.1842737E-1,-2.7995706E-2,-3.5206557E-3,-1.6496095E-1,1.6572757E-1,-6.0936462E-2,2.3607898E-1,-1.2001226E-3,-1.822353E-1,1.14534475E-1,1.8195345E-1,2.8762465E-2,2.666881E-1,2.2792961E-2,-8.461523E-2,-3.8494933E-2,-4.8214283E-2,2.3041387E-1,7.8683935E-2,2.0272164E-1,3.2982773E-1,8.800922E-2,-7.167223E-2,2.1329932E-1,-5.8574386E-2,2.9353753E-2,1.6695999E-1,-8.673729E-2,-3.883408E-2,-2.1671112E-1,1.8027346E-1,-7.612851E-2,1.8338667E-1,3.9175847E-1,2.1281226E-1,1.1593956E-2,6.793971E-2,3.0969948E-1,-2.3416972E-1,1.2343697E-2,2.889163E-1,5.6532645E-1,1.522334E-1,3.4239846E-1],"split_indices":[10,12,10,17,13,11,16,36,16,12,14,14,27,35,2,15,16,39,15,2,35,36,2,12,14,22,14,11,13,35,11,14,36,0,0,36,14,34,0,11,29,2,36,20,0,22,0,14,12,23,3,2,29,14,3,34,12,25,0,0,12,27,10,0,0,0,0,0,0,0,0,0,0,0,0,0,0,0,0,0,0,0,0,0,0,0,0,0,0,0,0,0,0,0,0,0,0,0,0,0,0,0,0,0,0,0,0,0,0,0,0,0,0],"split_type":[0,0,0,0,0,0,0,0,0,0,0,0,0,0,0,0,0,0,0,0,0,0,0,0,0,0,0,0,0,0,0,0,0,0,0,0,0,0,0,0,0,0,0,0,0,0,0,0,0,0,0,0,0,0,0,0,0,0,0,0,0,0,0,0,0,0,0,0,0,0,0,0,0,0,0,0,0,0,0,0,0,0,0,0,0,0,0,0,0,0,0,0,0,0,0,0,0,0,0,0,0,0,0,0,0,0,0,0,0,0,0,0,0],"sum_hessian":[9.539E3,5.909E3,3.63E3,3.223E3,2.686E3,2.547E3,1.083E3,8.25E2,2.398E3,1.315E3,1.371E3,1.809E3,7.38E2,6.32E2,4.51E2,8E2,2.5E1,2.349E3,4.9E1,1.211E3,1.04E2,3.6E1,1.335E3,1.62E3,1.89E2,5.62E2,1.76E2,5.26E2,1.06E2,3.1E1,4.2E2,6.88E2,1.12E2,1.5E1,1E1,1.101E3,1.248E3,3.2E1,1.7E1,6.93E2,5.18E2,2.2E1,8.2E1,2.3E1,1.3E1,1.325E3,1E1,1.41E2,1.479E3,1.22E2,6.7E1,5.07E2,5.5E1,2.1E1,1.55E2,3.59E2,1.67E2,9.4E1,1.2E1,1.1E1,2E1,1.8E2,2.4E2,5.7E1,6.31E2,2.8E1,8.4E1,9.02E2,1.99E2,1.219E3,2.9E1,1.1E1,2.1E1,1.7E1,6.76E2,1.7E1,5.01E2,1.2E1,1E1,4.9E1,3.3E1,1.3E1,1E1,1.074E3,2.51E2,1.31E2,1E1,1.391E3,8.8E1,9.4E1,2.8E1,3E1,3.7E1,3.88E2,1.19E2,4.1E1,1.4E1,1.1E1,1E1,1.38E2,1.7E1,3.33E2,2.6E1,3E1,1.37E2,2.9E1,6.5E1,1E1,1E1,1.08E2,7.2E1,1.13E2,1.27E2],"tree_param":{"num_deleted":"0","num_feature":"41","num_nodes":"113","size_leaf_vector":"1"}},{"base_weights":[-7.897723E-3,-4.956478E-1,1.4436173E0,-7.388561E-1,6.71618E-2,1.0218356E0,2.4244218E0,-8.486347E-1,-3.6816353E-1,9.3783903E-1,-1.2948075E-1,9.1129076E-1,2.4324198E0,1.7600259E0,3.1532311E0,-8.9889485E-1,-5.245114E-1,1.7751558E0,-4.1559207E-1,6.3526726E-1,1.9846028E0,7.618215E-2,-6.057738E-1,6.725511E-1,1.4189386E0,1.6039268E0,4.919667E0,2.3657637E0,1.2115464E0,1.485284E0,3.543876E0,-5.111941E-1,-9.452217E-1,-4.4419092E-1,-1.2722465E0,-2.7607605E-2,3.1610486E-1,5.6846017E-1,-4.727039E-1,3.613728E-1,4.6147373E-1,4.0362853E-1,3.0018337E0,-5.6062084E-2,7.9045445E-1,-7.0462465E-1,1.1364831E0,2.3873825E-1,9.1709536E-1,5.415906E-1,1.326315E0,1.0564764E0,3.826277E-1,6.199222E-1,2.1459611E-1,5.1380503E-1,2.0451078E0,4.3566194E-1,9.899807E-1,-5.566853E-2,2.305161E0,-2.9195277E-2,3.7331502E0,-5.7086077E-2,1.4283371E-1,-1.00497715E-1,-7.6833494E-2,-7.618152E-2,-1.8669883E-2,-1.8484616E-1,-8.594546E-2,-8.807112E-3,2.3115177E-1,-3.388469E-2,-8.5783385E-2,2.9238883E-1,3.1911623E-2,1.376766E-1,-1.0505482E-1,5.946224E-1,2.0190027E-1,-8.5861115E-3,2.7474338E-1,1.1187358E-1,-6.722928E-2,-8.785889E-2,9.647217E-3,3.5211426E-1,-3.0392408E-2,3.684541E-2,-2.1534844E-1,1.3980842E-1,6.577866E-2,1.156526E-1,2.6757878E-1,7.124824E-2,3.024397E-1,1.2953225E-1,3.100094E-1,1.0045724E-2,1.4517292E-1,3.2590538E-1,-1.0672697E-3,3.5235462E-1,6.261521E-1],"categories":[],"categories_nodes":[],"categories_segments":[],"categories_sizes":[],"default_left":[0,0,0,0,0,0,0,0,0,0,0,0,0,0,0,0,0,0,0,0,0,0,0,0,0,0,0,0,0,0,0,0,0,0,0,0,0,0,0,0,0,0,0,0,0,0,0,0,0,0,0,0,0,0,0,0,0,0,0,0,0,0,0,0,0,0,0,0,0,0,0,0,0,0,0,0,0,0,0,0,0,0,0,0,0,0,0,0,0,0,0,0,0,0,0,0,0,0,0,0,0,0,0,0,0],"id":12,"left_children":[1,3,5,7,9,11,13,15,17,19,21,23,25,27,29,31,33,35,37,39,41,43,45,47,49,51,53,55,57,59,61,63,65,67,69,-1,-1,71,73,-1,75,77,79,81,83,85,87,89,91,-1,93,95,-1,-1,-1,-1,97,-1,99,-1,101,-1,103,-1,-1,-1,-1,-1,-1,-1,-1,-1,-1,-1,-1,-1,-1,-1,-1,-1,-1,-1,-1,-1,-1,-1,-1,-1,-1,-1,-1,-1,-1,-1,-1,-1,-1,-1,-1,-1,-1,-1,-1,-1,-1],"loss_changes":[6.7838394E3,9.817528E2,9.945049E2,2.0348389E2,3.7079578E2,2.6084192E2,3.4502393E2,6.245874E1,1.1723381E2,1.2511102E2,1.7313405E2,1.8883813E2,2.4351056E2,1.2371521E2,2.1887817E2,5.956006E1,3.0725327E1,7.194238E1,6.332625E1,1.5931754E2,1.4191962E2,1.16700424E2,9.259596E1,1.1297528E2,1.7792352E2,1.091039E2,9.316998E1,1.4950305E2,1.3644882E2,1.1345224E2,2.029248E2,4.236075E1,3.0779053E1,3.846064E1,1.0304176E1,0E0,0E0,7.115463E1,5.4406357E1,0E0,1.02477196E2,5.2390457E1,1.4426175E2,8.736962E1,9.34293E1,7.046268E1,1.0068169E2,1.2057278E2,8.414258E1,0E0,1.0917706E2,4.9293587E1,0E0,0E0,0E0,0E0,1.24919556E2,0E0,7.789403E1,0E0,1.0606949E2,0E0,1.1837549E2,0E0,0E0,0E0,0E0,0E0,0E0,0E0,0E0,0E0,0E0,0E0,0E0,0E0,0E0,0E0,0E0,0E0,0E0,0E0,0E0,0E0,0E0,0E0,0E0,0E0,0E0,0E0,0E0,0E0,0E0,0E0,0E0,0E0,0E0,0E0,0E0,0E0,0E0,0E0,0E0,0E0,0E0],"parents":[2147483647,0,0,1,1,2,2,3,3,4,4,5,5,6,6,7,7,8,8,9,9,10,10,11,11,12,12,13,13,14,14,15,15,16,16,17,17,18,18,19,19,20,20,21,21,22,22,23,23,24,24,25,25,26,26,27,27,28,28,29,29,30,30,31,31,32,32,33,33,34,34,37,37,38,38,40,40,41,41,42,42,43,43,44,44,45,45,46,46,47,47,48,48,50,50,51,51,56,56,58,58,60,60,62,62],"right_children":[2,4,6,8,10,12,14,16,18,20,22,24,26,28,30,32,34,36,38,40,42,44,46,48,50,52,54,56,58,60,62,64,66,68,70,-1,-1,72,74,-1,76,78,80,82,84,86,88,90,92,-1,94,96,-1,-1,-1,-1,98,-1,100,-1,102,-1,104,-1,-1,-1,-1,-1,-1,-1,-1,-1,-1,-1,-1,-1,-1,-1,-1,-1,-1,-1,-1,-1,-1,-1,-1,-1,-1,-1,-1,-1,-1,-1,-1,-1,-1,-1,-1,-1,-1,-1,-1,-1,-1],"split_conditions":[3.5E0,1.6666666E0,6.6666665E0,3.9E-1,-4.7619048E-1,3.3333334E-1,1.234E1,3.2E-1,8.5E0,5.7E0,5.3333336E-1,9.25E0,8.3E-1,1E0,7.3333335E0,-3.142857E0,1.76E0,-2.6666668E-1,-7.380953E-2,1.025E1,5.6E-1,3.4E1,4.1006703E0,3E0,3.7E-1,7E0,7.4E0,-8.3333336E-2,5.56E0,7.6666665E-1,5.25E0,1.2E1,3.3333333E0,7.6666665E-1,-2.3809525E-3,-2.7607605E-2,3.1610486E-1,8E0,6E0,3.613728E-1,-2.2857144E0,4.5666668E-1,-5E-2,4.442895E0,9.1E0,6.366667E0,2E0,1.95E1,1.95E1,5.415906E-1,1E0,7.9333335E-1,3.826277E-1,6.199222E-1,2.1459611E-1,5.1380503E-1,2.2744333E1,4.3566194E-1,7.7E-1,-5.566853E-2,2E0,-2.9195277E-2,9.285714E-1,-5.7086077E-2,1.4283371E-1,-1.00497715E-1,-7.6833494E-2,-7.618152E-2,-1.8669883E-2,-1.8484616E-1,-8.594546E-2,-8.807112E-3,2.3115177E-1,-3.388469E-2,-8.5783385E-2,2.9238883E-1,3.1911623E-2,1.376766E-1,-1.0505482E-1,5.946224E-1,2.0190027E-1,-8.5861115E-3,2.7474338E-1,1.1187358E-1,-6.722928E-2,-8.785889E-2,9.647217E-3,3.5211426E-1,-3.0392408E-2,3.684541E-2,-2.1534844E-1,1.3980842E-1,6.577866E-2,1.156526E-1,2.6757878E-1,7.124824E-2,3.024397E-1,1.2953225E-1,3.100094E-1,1.0045724E-2,1.4517292E-1,3.2590538E-1,-1.0672697E-3,3.5235462E-1,6.261521E-1],"split_indices":[10,10,10,2,11,21,18,14,30,16,11,18,14,31,10,13,29,11,15,30,2,1,26,36,14,36,33,11,18,14,34,32,12,16,15,0,0,1,36,0,11,14,15,26,33,16,36,13,30,0,38,14,0,0,0,0,4,0,2,0,6,0,24,0,0,0,0,0,0,0,0,0,0,0,0,0,0,0,0,0,0,0,0,0,0,0,0,0,0,0,0,0,0,0,0,0,0,0,0,0,0,0,0,0,0],"split_type":[0,0,0,0,0,0,0,0,0,0,0,0,0,0,0,0,0,0,0,0,0,0,0,0,0,0,0,0,0,0,0,0,0,0,0,0,0,0,0,0,0,0,0,0,0,0,0,0,0,0,0,0,0,0,0,0,0,0,0,0,0,0,0,0,0,0,0,0,0,0,0,0,0,0,0,0,0,0,0,0,0,0,0,0,0,0,0,0,0,0,0,0,0,0,0,0,0,0,0,0,0,0,0,0,0],"sum_hessian":[9.58E3,7.171E3,2.409E3,5.007E3,2.164E3,1.686E3,7.23E2,3.862E3,1.145E3,3.98E2,1.766E3,1.565E3,1.21E2,3.8E2,3.43E2,3.342E3,5.2E2,2.4E1,1.121E3,3.1E2,8.8E1,1.234E3,5.32E2,1.066E3,4.99E2,9.2E1,2.9E1,1.79E2,2.01E2,6.6E1,2.77E2,3.58E2,2.984E3,4.71E2,4.9E1,1E1,1.4E1,6.1E1,1.06E3,1.6E1,2.94E2,3.5E1,5.3E1,1.042E3,1.92E2,5.04E2,2.8E1,3.85E2,6.81E2,1E1,4.89E2,7.5E1,1.7E1,1.9E1,1E1,1.7E1,1.62E2,1.2E1,1.89E2,1.9E1,4.7E1,1.3E1,2.64E2,3.48E2,1E1,2.227E3,7.57E2,2.1E2,2.61E2,1.9E1,3E1,4.5E1,1.6E1,7.88E2,2.72E2,1.5E1,2.79E2,2.1E1,1.4E1,1.2E1,4.1E1,1.032E3,1E1,1.57E2,3.5E1,4.14E2,9E1,1E1,1.8E1,3.66E2,1.9E1,2.37E2,4.44E2,4.36E2,5.3E1,6.5E1,1E1,9.6E1,6.6E1,6.5E1,1.24E2,3.3E1,1.4E1,2.46E2,1.8E1],"tree_param":{"num_deleted":"0","num_feature":"41","num_nodes":"105","size_leaf_vector":"1"}},{"base_weights":[1.5162254E-2,-3.9968795E-1,1.4413687E0,-5.859871E-1,3.2698116E-1,1.2907544E0,3.1789992E0,-7.824358E-1,-3.4915173E-1,5.573692E-1,-2.7713385E-1,1.1488576E0,2.8764753E0,3.5308757E0,-2.7838275E-2,-5.783411E-1,-8.561413E-1,-1.2256268E-1,-5.774911E-1,1.6363608E0,4.3978965E-1,-3.7048462E-1,2.709866E-1,8.0567944E-1,1.4693195E0,1.7831926E0,3.812834E0,5.6581607E0,2.7118745E0,-7.83388E-1,1.1453349E-1,-8.847274E-1,-4.892402E-1,-1.9189024E-1,7.3843664E-1,2.3485687E-1,-6.054056E-1,1.3732314E0,3.8557655E-1,-2.3124741E-1,6.325471E-1,-4.5248646E-1,2.1874559E-1,6.5705E-1,1.7183584E0,1.9152954E0,1.0421503E0,2.2005804E0,-1.1654063E-2,4.511535E0,3.867067E-2,3.2004616E-1,6.7342753E0,1.8876845E0,5.792616E0,-8.34344E-2,4.202172E-2,2.2844504E-1,-4.853266E-3,-8.922373E-2,7.106359E-2,1.1057516E-1,-7.1246974E-2,1.440968E-1,-2.2597283E-2,-6.562399E-2,1.0451084E-1,5.336262E-2,-6.354215E-2,1.732729E-1,-1.6602698E-1,1.1888792E-1,-5.2618694E-2,3.4233168E-1,5.8823306E-2,2.3253785E-1,-5.2947886E-2,7.655568E-2,-8.3144836E-2,4.1900206E-1,1.17898405E-1,7.38614E-2,2.2976242E-1,4.144202E-1,9.557853E-2,1.5737222E-1,4.785822E-1,5.067467E-1,9.174209E-2,4.097328E-1,8.922272E-1,-5.504673E-3,2.564215E-1,9.0872127E-1,2.7902463E-1],"categories":[],"categories_nodes":[],"categories_segments":[],"categories_sizes":[],"default_left":[0,0,0,0,0,0,0,0,0,0,0,0,0,0,0,0,0,0,0,0,0,0,0,0,0,0,0,0,0,0,0,0,0,0,0,0,0,0,0,0,0,0,0,0,0,0,0,0,0,0,0,0,0,0,0,0,0,0,0,0,0,0,0,0,0,0,0,0,0,0,0,0,0,0,0,0,0,0,0,0,0,0,0,0,0,0,0,0,0,0,0,0,0,0,0],"id":13,"left_children":[1,3,5,7,9,11,13,15,17,19,21,23,25,27,-1,29,31,33,35,37,39,41,-1,43,45,47,49,51,53,55,57,59,61,63,65,-1,67,69,-1,71,73,75,-1,77,79,81,83,85,-1,87,-1,-1,89,91,93,-1,-1,-1,-1,-1,-1,-1,-1,-1,-1,-1,-1,-1,-1,-1,-1,-1,-1,-1,-1,-1,-1,-1,-1,-1,-1,-1,-1,-1,-1,-1,-1,-1,-1,-1,-1,-1,-1,-1,-1],"loss_changes":[5.7503477E3,1.0194512E3,5.690464E2,2.7855713E2,2.1407547E2,4.505376E2,2.126665E2,4.8770386E1,1.406081E2,1.4048373E2,1.195104E2,2.0260083E2,1.621123E2,2.5993115E2,0E0,1.2397638E2,2.4781006E1,8.167959E1,1.1201596E2,5.8360107E1,1.3014038E2,8.761897E1,0E0,1.20549866E2,1.8031934E2,6.210463E1,2.0891321E2,9.217212E1,2.8360284E2,4.162625E1,7.087887E1,2.7339478E1,6.3452496E1,7.072547E1,4.4312035E1,0E0,4.6220703E1,1.10839874E2,0E0,9.486715E1,9.457266E1,8.699492E1,0E0,1.2548538E2,1.6170389E2,2.0839648E2,1.2758209E2,9.618558E1,0E0,1.4121118E2,0E0,0E0,1.3076184E2,1.2237259E2,2.1204266E2,0E0,0E0,0E0,0E0,0E0,0E0,0E0,0E0,0E0,0E0,0E0,0E0,0E0,0E0,0E0,0E0,0E0,0E0,0E0,0E0,0E0,0E0,0E0,0E0,0E0,0E0,0E0,0E0,0E0,0E0,0E0,0E0,0E0,0E0,0E0,0E0,0E0,0E0,0E0,0E0],"parents":[2147483647,0,0,1,1,2,2,3,3,4,4,5,5,6,6,7,7,8,8,9,9,10,10,11,11,12,12,13,13,15,15,16,16,17,17,18,18,19,19,20,20,21,21,23,23,24,24,25,25,26,26,27,27,28,28,29,29,30,30,31,31,32,32,33,33,34,34,36,36,37,37,39,39,40,40,41,41,43,43,44,44,45,45,46,46,47,47,49,49,52,52,53,53,54,54],"right_children":[2,4,6,8,10,12,14,16,18,20,22,24,26,28,-1,30,32,34,36,38,40,42,-1,44,46,48,50,52,54,56,58,60,62,64,66,-1,68,70,-1,72,74,76,-1,78,80,82,84,86,-1,88,-1,-1,90,92,94,-1,-1,-1,-1,-1,-1,-1,-1,-1,-1,-1,-1,-1,-1,-1,-1,-1,-1,-1,-1,-1,-1,-1,-1,-1,-1,-1,-1,-1,-1,-1,-1,-1,-1,-1,-1,-1,-1,-1,-1],"split_conditions":[4E0,2.3333333E0,9E0,2.5E0,5.3333336E-1,3.3333334E-1,1.05E1,-1.4285715E-1,2.857143E-1,-1.1904762E0,1.7400514E0,7.4E-1,7.8E-1,0E0,-2.7838275E-2,7E-1,4E-2,1.7666666E1,6.5E0,1.8518518E-1,5E-2,8.6333334E-1,2.709866E-1,2.3762856E1,1E0,7.3333335E-1,6.1904762E-2,6.5E0,9.5E-1,6.1904762E-2,-1.4285715E-1,4.0333333E0,5E-1,-1.7142857E0,6.352941E0,2.3485687E-1,1.6666668E-2,8.058824E0,3.8557655E-1,5.5E0,8E0,1.2666667E-1,2.1874559E-1,1.8333334E0,5.7E0,6.3E0,-4.6857142E0,1.18E1,-1.1654063E-2,3.9E0,3.867067E-2,3.2004616E-1,8.095238E-3,4.761905E-2,9.9E-1,-8.34344E-2,4.202172E-2,2.2844504E-1,-4.853266E-3,-8.922373E-2,7.106359E-2,1.1057516E-1,-7.1246974E-2,1.440968E-1,-2.2597283E-2,-6.562399E-2,1.0451084E-1,5.336262E-2,-6.354215E-2,1.732729E-1,-1.6602698E-1,1.1888792E-1,-5.2618694E-2,3.4233168E-1,5.8823306E-2,2.3253785E-1,-5.2947886E-2,7.655568E-2,-8.3144836E-2,4.1900206E-1,1.17898405E-1,7.38614E-2,2.2976242E-1,4.144202E-1,9.557853E-2,1.5737222E-1,4.785822E-1,5.067467E-1,9.174209E-2,4.097328E-1,8.922272E-1,-5.504673E-3,2.564215E-1,9.0872127E-1,2.7902463E-1],"split_indices":[10,10,10,12,11,21,32,11,13,11,28,2,14,20,0,16,3,12,30,3,3,14,0,4,31,14,15,22,14,15,20,16,10,11,35,0,14,34,0,33,30,14,0,11,33,33,17,22,0,17,0,0,15,20,2,0,0,0,0,0,0,0,0,0,0,0,0,0,0,0,0,0,0,0,0,0,0,0,0,0,0,0,0,0,0,0,0,0,0,0,0,0,0,0,0],"split_type":[0,0,0,0,0,0,0,0,0,0,0,0,0,0,0,0,0,0,0,0,0,0,0,0,0,0,0,0,0,0,0,0,0,0,0,0,0,0,0,0,0,0,0,0,0,0,0,0,0,0,0,0,0,0,0,0,0,0,0,0,0,0,0,0,0,0,0,0,0,0,0,0,0,0,0,0,0,0,0,0,0,0,0,0,0,0,0,0,0,0,0,0,0,0,0],"sum_hessian":[9.717E3,7.528E3,2.189E3,5.992E3,1.536E3,2.016E3,1.73E2,3.274E3,2.718E3,1.112E3,4.24E2,1.852E3,1.64E2,1.57E2,1.6E1,8.71E2,2.403E3,1.365E3,1.353E3,1.08E2,1.004E3,4.12E2,1.2E1,8.96E2,9.56E2,7.7E1,8.7E1,4.2E1,1.15E2,6.72E2,1.99E2,2.228E3,1.75E2,1.264E3,1.01E2,1.2E1,1.341E3,9.8E1,1E1,2.24E2,7.8E2,4E2,1.2E1,7.72E2,1.24E2,4.66E2,4.9E2,6.3E1,1.4E1,7.2E1,1.5E1,1.4E1,2.8E1,9.2E1,2.3E1,6.45E2,2.7E1,1.3E1,1.86E2,2.218E3,1E1,2.1E1,1.54E2,2.5E1,1.239E3,1.8E1,8.3E1,3.4E1,1.307E3,8.8E1,1E1,3.8E1,1.86E2,1.1E1,7.69E2,1E1,3.9E2,7.2E2,5.2E1,2.1E1,1.03E2,1.15E2,3.51E2,1.2E1,4.78E2,5.2E1,1.1E1,6.2E1,1E1,1.4E1,1.4E1,2.4E1,6.8E1,1E1,1.3E1],"tree_param":{"num_deleted":"0","num_feature":"41","num_nodes":"95","size_leaf_vector":"1"}},{"base_weights":[1.264812E-2,-3.679214E-1,1.3371735E0,-6.0345757E-1,1.22079544E-1,1.1581397E0,2.6118743E0,-7.3167807E-1,-3.3172637E-1,7.048984E-1,-1.299386E-1,1.3891168E0,4.7007447E-1,2.0301244E0,3.7075698E0,-1.9410871E-1,-7.682165E-1,2.5585604E-1,-3.531293E-1,3.7312186E-1,1.4398863E0,-2.6238018E-1,4.5627722E-1,1.2563307E0,4.570145E0,3.3638874E-1,5.1849E-1,2.3856168E0,-2.911032E-1,6.345529E0,2.2828314E0,1.2235566E0,-5.886077E-1,-4.37051E-1,-8.0896497E-1,-3.6947164E-1,2.0486112E-1,2.2958964E-1,3.2401805E0,1.6508843E0,-7.0851624E-1,-8.282092E-2,-6.575517E-1,2.8958473E-1,3.737483E-1,2.122708E0,1.0500711E0,6.074551E0,5.313128E-3,5.263842E-1,-1.7974126E0,4.302768E0,1.8130001E0,2.0203207E-1,-2.0864289E-1,4.0158153E-1,9.2623776E-1,-4.6084516E-2,3.5655313E0,4.2794028E-1,-1.605977E-2,-7.764553E-2,1.5868472E-1,-5.700758E-2,9.151692E-2,-8.15124E-2,7.1556754E-2,-1.5127148E-2,-5.866632E-2,-1.079713E-3,1.4941017E-1,5.3678715E-1,1.336982E-1,1.8790497E-1,-9.769173E-4,-1.6905062E-1,3.378844E-2,-5.9351932E-2,1.3584556E-2,-7.227464E-2,1.897402E-1,-6.2061477E-2,7.120326E-2,1.7323601E-1,4.0432388E-1,8.461005E-2,1.6457325E-1,6.798188E-1,3.9373478E-1,-3.976798E-2,9.349468E-2,-8.502944E-2,-3.1929743E-1,2.241746E-1,6.010247E-1,1.0742239E-1,3.7648916E-1,7.287735E-2,4.714232E-1],"categories":[],"categories_nodes":[],"categories_segments":[],"categories_sizes":[],"default_left":[0,0,0,0,0,0,0,0,0,0,0,0,0,0,0,0,0,0,0,0,0,0,0,0,0,0,0,0,0,0,0,0,0,0,0,0,0,0,0,0,0,0,0,0,0,0,0,0,0,0,0,0,0,0,0,0,0,0,0,0,0,0,0,0,0,0,0,0,0,0,0,0,0,0,0,0,0,0,0,0,0,0,0,0,0,0,0,0,0,0,0,0,0,0,0,0,0,0,0],"id":14,"left_children":[1,3,5,7,9,11,13,15,17,19,21,23,25,27,29,31,33,-1,35,37,39,41,43,45,47,49,-1,51,53,55,57,59,61,63,65,67,-1,69,71,73,75,77,79,81,-1,83,85,87,-1,89,91,93,95,-1,-1,-1,-1,-1,97,-1,-1,-1,-1,-1,-1,-1,-1,-1,-1,-1,-1,-1,-1,-1,-1,-1,-1,-1,-1,-1,-1,-1,-1,-1,-1,-1,-1,-1,-1,-1,-1,-1,-1,-1,-1,-1,-1,-1,-1],"loss_changes":[4.837586E3,8.604772E2,4.8581055E2,1.7518408E2,3.556903E2,2.9813037E2,1.6011487E2,6.7026245E1,1.0087027E2,1.7771838E2,1.3140788E2,5.885698E2,2.9702045E2,1.4427557E2,3.237704E2,1.2319978E2,4.2855835E1,0E0,6.3753235E1,2.0707129E2,1.0407071E2,9.786581E1,1.6956682E2,2.3937158E2,3.8022095E2,1.8824672E2,0E0,1.5796582E2,1.0380946E2,1.7346204E2,2.12802E2,2.0371588E2,7.152059E1,6.401896E1,2.7343506E1,7.550026E1,0E0,1.4653064E2,9.000931E1,7.8451416E1,2.2149849E1,1.0616962E2,7.3162674E1,1.15026436E2,0E0,1.871615E2,1.3152576E2,3.81886E1,0E0,1.608255E2,4.7511986E1,1.0617767E2,1.6611295E2,0E0,0E0,0E0,0E0,0E0,1.3016638E2,0E0,0E0,0E0,0E0,0E0,0E0,0E0,0E0,0E0,0E0,0E0,0E0,0E0,0E0,0E0,0E0,0E0,0E0,0E0,0E0,0E0,0E0,0E0,0E0,0E0,0E0,0E0,0E0,0E0,0E0,0E0,0E0,0E0,0E0,0E0,0E0,0E0,0E0,0E0,0E0],"parents":[2147483647,0,0,1,1,2,2,3,3,4,4,5,5,6,6,7,7,8,8,9,9,10,10,11,11,12,12,13,13,14,14,15,15,16,16,18,18,19,19,20,20,21,21,22,22,23,23,24,24,25,25,27,27,28,28,29,29,30,30,31,31,32,32,33,33,34,34,35,35,37,37,38,38,39,39,40,40,41,41,42,42,43,43,45,45,46,46,47,47,49,49,50,50,51,51,52,52,58,58],"right_children":[2,4,6,8,10,12,14,16,18,20,22,24,26,28,30,32,34,-1,36,38,40,42,44,46,48,50,-1,52,54,56,58,60,62,64,66,68,-1,70,72,74,76,78,80,82,-1,84,86,88,-1,90,92,94,96,-1,-1,-1,-1,-1,98,-1,-1,-1,-1,-1,-1,-1,-1,-1,-1,-1,-1,-1,-1,-1,-1,-1,-1,-1,-1,-1,-1,-1,-1,-1,-1,-1,-1,-1,-1,-1,-1,-1,-1,-1,-1,-1,-1,-1,-1],"split_conditions":[4E0,1.6666666E0,8.333333E0,3.0666667E-1,9.1E1,1.47E2,2.2E-2,7.5E1,6.5E0,6.4E-1,6E0,1.45E2,2.5714285E0,1.3333334E-2,1.0476191E0,8.6666666E-2,-3E0,2.5585604E-1,1E0,8.6E1,9.4E0,5E-1,9.2E0,-4.1666666E-1,8.333333E0,1E0,5.1849E-1,-6.666667E-2,2.413793E-1,1.5333333E0,2.2229818E1,4.3E1,1E0,1.8714286E0,9.190476E0,1.58E2,2.0486112E-1,1E0,7.6E0,3.4666668E1,6.8666667E-1,1.0666667E1,6E0,3.9E-1,3.737483E-1,7E0,5.2E1,2.236235E0,5.313128E-3,2.04E2,7.5E0,-8.6190474E-1,3.296527E1,2.0203207E-1,-2.0864289E-1,4.0158153E-1,9.2623776E-1,-4.6084516E-2,5.833333E-1,4.2794028E-1,-1.605977E-2,-7.764553E-2,1.5868472E-1,-5.700758E-2,9.151692E-2,-8.15124E-2,7.1556754E-2,-1.5127148E-2,-5.866632E-2,-1.079713E-3,1.4941017E-1,5.3678715E-1,1.336982E-1,1.8790497E-1,-9.769173E-4,-1.6905062E-1,3.378844E-2,-5.9351932E-2,1.3584556E-2,-7.227464E-2,1.897402E-1,-6.2061477E-2,7.120326E-2,1.7323601E-1,4.0432388E-1,8.461005E-2,1.6457325E-1,6.798188E-1,3.9373478E-1,-3.976798E-2,9.349468E-2,-8.502944E-2,-3.1929743E-1,2.241746E-1,6.010247E-1,1.0742239E-1,3.7648916E-1,7.287735E-2,4.714232E-1],"split_indices":[10,10,10,14,40,40,15,40,30,2,36,40,11,15,11,14,13,0,7,40,33,11,16,11,13,38,0,20,3,17,4,40,38,25,13,40,0,38,33,12,14,12,6,2,0,10,12,28,0,40,32,17,4,0,0,0,0,0,24,0,0,0,0,0,0,0,0,0,0,0,0,0,0,0,0,0,0,0,0,0,0,0,0,0,0,0,0,0,0,0,0,0,0,0,0,0,0,0,0],"split_type":[0,0,0,0,0,0,0,0,0,0,0,0,0,0,0,0,0,0,0,0,0,0,0,0,0,0,0,0,0,0,0,0,0,0,0,0,0,0,0,0,0,0,0,0,0,0,0,0,0,0,0,0,0,0,0,0,0,0,0,0,0,0,0,0,0,0,0,0,0,0,0,0,0,0,0,0,0,0,0,0,0,0,0,0,0,0,0,0,0,0,0,0,0,0,0,0,0,0,0],"sum_hessian":[9.595E3,7.454E3,2.141E3,5.034E3,2.42E3,1.879E3,2.62E2,3.419E3,1.615E3,7.3E2,1.69E3,1.406E3,4.73E2,1.73E2,8.9E1,2.18E2,3.201E3,1.1E1,1.604E3,5.04E2,2.26E2,1.379E3,3.11E2,1.351E3,5.5E1,4.61E2,1.2E1,1.5E2,2.3E1,3E1,5.9E1,4.7E1,1.71E2,3.52E2,2.849E3,1.594E3,1E1,4.81E2,2.3E1,2.06E2,2E1,9.49E2,4.3E2,2.97E2,1.4E1,2.58E2,1.093E3,4.1E1,1.4E1,4.24E2,3.7E1,3.3E1,1.17E2,1E1,1.3E1,1.8E1,1.2E1,1.9E1,4E1,1.4E1,3.3E1,1.58E2,1.3E1,3.21E2,3.1E1,2.838E3,1.1E1,7.96E2,7.98E2,4.05E2,7.6E1,1E1,1.3E1,1.81E2,2.5E1,1E1,1E1,2.84E2,6.65E2,4.2E2,1E1,9.4E1,2.03E2,2.16E2,4.2E1,8.16E2,2.77E2,2.9E1,1.2E1,1.3E2,2.94E2,2.3E1,1.4E1,1.6E1,1.7E1,8.6E1,3.1E1,1.2E1,2.8E1],"tree_param":{"num_deleted":"0","num_feature":"41","num_nodes":"99","size_leaf_vector":"1"}},{"base_weights":[4.0790504E-3,-3.2926303E-1,1.144858E0,-5.76579E-1,5.067864E-2,8.823755E-1,1.9813083E0,-3.479468E-1,-7.0548767E-1,8.3440155E-1,-1.22569256E-1,8.3995545E-1,4.1753817E0,1.2489603E0,2.6173081E0,-4.105705E-1,9.1219985E-1,-7.1540976E-1,1.9708608E-1,9.6862334E-1,-1.5455672E0,3.9652577E-1,-2.7792627E-1,1.1098199E-1,9.792534E-1,6.576907E-1,1.3942759E-1,2.3615317E0,4.653833E-1,3.1450799E0,1.3757457E0,-4.450145E-1,5.2490383E-1,1.969076E0,-1.9516535E-1,3.3159834E-1,-7.309339E-1,7.86025E-1,2.269476E0,-4.773922E-2,-2.0826386E-1,3.2859978E-1,2.5428364E-1,-8.5831696E-1,-1.702156E-1,1.4440995E0,-2.8431487E-1,9.3483305E-1,3.100254E0,3.0302327E0,2.0747103E-1,1.3875443E0,-5.424684E-1,2.6904287E0,6.272369E0,6.245902E-1,5.893225E-1,3.0805573E-2,-4.9243093E-2,1.6354947E-1,-1.881792E-2,1.024233E-1,3.852655E-1,9.269657E-2,-9.351208E-2,1.3594937E-1,-6.213321E-2,-1.3163781E-1,-7.120507E-2,3.996896E-2,1.6759284E-1,4.3598118E-1,1.5689652E-1,-1.7584388E-1,3.9939463E-2,-6.8699546E-2,-2.020479E-1,-3.1909574E-2,4.339625E-2,-4.4958647E-2,2.3788145E-1,-5.4738697E-2,1.0166198E-1,9.9949144E-2,-6.1632942E-2,1.1486888E-1,6.0118836E-1,3.8064036E-1,4.605319E-2,1.9121131E-1,-1.7985673E-1,-1.730532E-1,1.9418423E-1,-1.165385E-1,2.5654107E-1,2.0908923E-1,4.1956708E-1,3.3264813E-1,9.451465E-1,-1.1250819E-1,1.5402411E-1],"categories":[],"categories_nodes":[],"categories_segments":[],"categories_sizes":[],"default_left":[0,0,0,0,0,0,0,0,0,0,0,0,0,0,0,0,0,0,0,0,0,0,0,0,0,0,0,0,0,0,0,0,0,0,0,0,0,0,0,0,0,0,0,0,0,0,0,0,0,0,0,0,0,0,0,0,0,0,0,0,0,0,0,0,0,0,0,0,0,0,0,0,0,0,0,0,0,0,0,0,0,0,0,0,0,0,0,0,0,0,0,0,0,0,0,0,0,0,0,0,0],"id":15,"left_children":[1,3,5,7,9,11,13,15,17,19,21,23,25,27,29,31,33,35,-1,37,39,41,43,45,47,-1,-1,49,51,53,55,57,59,61,63,65,67,69,71,-1,-1,73,-1,75,77,79,81,83,85,87,89,91,93,95,97,99,-1,-1,-1,-1,-1,-1,-1,-1,-1,-1,-1,-1,-1,-1,-1,-1,-1,-1,-1,-1,-1,-1,-1,-1,-1,-1,-1,-1,-1,-1,-1,-1,-1,-1,-1,-1,-1,-1,-1,-1,-1,-1,-1,-1,-1],"loss_changes":[3.6878518E3,7.052413E2,4.7973267E2,1.337373E2,4.0200616E2,2.2991406E2,2.4033081E2,1.2987418E2,7.857861E1,1.727189E2,1.9567447E2,1.6754138E2,1.3108682E2,2.124884E2,1.7849097E2,5.062796E1,9.1671425E1,4.731372E1,0E0,1.1888318E2,1.564267E1,8.066119E1,1.16568054E2,1.405865E2,1.2768469E2,0E0,0E0,1.44854E2,1.3551593E2,2.603806E2,2.847521E2,5.4034912E1,4.46566E1,6.7241425E1,3.3249577E1,4.2963753E1,3.0613892E1,1.5300928E2,8.394641E1,0E0,0E0,8.093143E1,0E0,5.6750107E1,1.4189984E2,1.0904294E2,7.105784E1,1.3691772E2,1.5219681E2,1.5182562E2,8.8928505E1,1.3471452E2,1.3850615E2,1.4644824E2,1.9332617E2,1.20287445E2,0E0,0E0,0E0,0E0,0E0,0E0,0E0,0E0,0E0,0E0,0E0,0E0,0E0,0E0,0E0,0E0,0E0,0E0,0E0,0E0,0E0,0E0,0E0,0E0,0E0,0E0,0E0,0E0,0E0,0E0,0E0,0E0,0E0,0E0,0E0,0E0,0E0,0E0,0E0,0E0,0E0,0E0,0E0,0E0,0E0],"parents":[2147483647,0,0,1,1,2,2,3,3,4,4,5,5,6,6,7,7,8,8,9,9,10,10,11,11,12,12,13,13,14,14,15,15,16,16,17,17,19,19,20,20,21,21,22,22,23,23,24,24,27,27,28,28,29,29,30,30,31,31,32,32,33,33,34,34,35,35,36,36,37,37,38,38,41,41,43,43,44,44,45,45,46,46,47,47,48,48,49,49,50,50,51,51,52,52,53,